-0.459583
-0.267107
-0.757585
0.52219
0.61349
0.516634
-0.885948
0.574498
-0.927472
-0.77229
-0.965899
0.219456
0.599671
-0.12565
0.494888
-0.810772
-0.206193
0.343567
-0.67163
0.371756
0.276138
-0.322575
0.969515
-0.365986
0.56848
0.887979
-0.58859
-0.101177
0.95713
0.00849331
0.458708
-0.427014
0.396678
-0.0802385
-0.115531
0.208809
-0.326857
-0.809242
0.322482
0.884096
-0.683687
0.905822
0.446891
-0.191223
0.264592
-0.583662
-0.79745
0.804108
-0.0589133
-0.172624
0.90511
-0.70721
-0.717483
0.391106
-0.0997485
-0.368251
-0.400451
-0.844403
-0.6483
-0.738001
0.571384
-0.461304
0.32788
0.316934
-0.721928
-0.842295
-0.739765
-0.717758
-0.49448
-0.992764
0.843117
-0.502524
-0.449763
-0.853128
-0.271704
-0.786156
0.945641
0.999582
-0.259979
0.675936
-0.424812
-0.725442
-0.732245
0.56011
-0.427545
0.89807
0.900761
0.0242344
-0.548464
-0.960246
0.387033
-0.301162
-0.784334
0.951222
-0.0375842
0.498423
0.70468
-0.952543
0.149295
0.134344
-0.127945
-0.242815
0.427778
0.522223
0.966315
-0.995469
-0.50193
-0.590404
0.556601
-0.298884
-0.785403
-0.658636
0.912631
0.292894
-0.413294
0.164013
0.409535
0.263854
-0.667353
0.298262
-0.996226
-0.489927
-0.613503
-0.570166
0.735766
-0.864536
0.167653
-0.904135
0.95699
-0.592362
-0.995834
-0.919526
0.0763902
-0.20497
-0.947499
0.703094
-0.237916
0.317089
0.444291
0.526831
0.0732743
0.207308
0.601527
-0.707004
0.015829
-0.949298
-0.0600188
0.422819
-0.3469
-0.0412849
0.377333
-0.255309
0.332701
0.504908
0.394284
0.245401
-0.1873
0.316097
-0.205633
0.474164
-0.231942
0.386807
-0.460724
0.836563
-0.884435
0.577976
-0.791461
0.306212
-0.00567874
0.925016
-0.0347874
-0.0430894
0.732042
-0.614245
0.72171
-0.079112
0.166373
0.189961
-0.500528
0.291792
0.546932
-0.547215
-0.464079
-0.31769
0.94375
0.983918
0.538924
0.846917
-0.279973
0.385157
0.277946
-0.601244
0.416414
0.887876
0.551033
0.82296
-0.626568
-0.82269
0.448378
0.188892
-0.478143
0.0247213
0.0913505
-0.750087
0.469945
0.331482
0.373823
0.159811
-0.583094
-0.00912378
-0.724208
0.376575
-0.831689
-0.832117
-0.663305
-0.330025
-0.131087
-0.127764
0.277213
-0.955456
-0.59072
-0.636144
0.0130022
0.13348
0.343875
-0.315212
-0.99934
-0.0920995
-0.972101
-0.514785
-0.560846
0.718242
0.803572
-0.00748583
0.883758
0.325563
-0.633656
-0.798081
-0.812949
0.529551
-0.303596
-0.27024
0.470055
0.83966
0.343125
0.989821
0.823118
0.262033
-0.705714
0.36806
0.899374
0.312031
0.768769
-0.124985
-0.649818
-0.128951
-0.498646
0.554298
0.355094
0.0293289
0.672332
-0.324254
0.7161
-0.559479
-0.107165
0.955609
-0.800325
0.942757
0.781721
-0.447356
0.699634
0.190925
0.018767
0.105309
-0.0807239
-0.606555
0.664017
0.309365
0.1272
0.0266286
-0.899169
0.0637583
0.38269
0.33057
-0.97643
0.0999673
-0.325043
0.995149
0.759112
-0.0536333
-0.527861
-0.142083
0.756383
-0.702214
-0.824352
-0.138016
-0.122314
0.896303
-0.259174
-0.0461845
0.0923989
0.8123
0.821984
0.665435
-0.054277
-0.977654
-0.344408
0.739335
0.012372
-0.727854
0.433215
-0.982606
0.316591
0.319577
-0.357722
-0.421234
-0.531236
0.165006
0.318775
0.361024
0.585605
0.67155
0.108606
0.340624
0.405432
0.83851
-0.34674
-0.0991317
-0.883645
0.422849
-0.0314499
0.788306
-0.552552
0.453764
-0.139883
0.210888
0.281246
-0.426479
-0.0130736
-0.429096
0.445718
-0.250176
-0.513606
-0.321448
-0.96262
0.642648
-0.228837
0.391578
-0.12918
-0.773308
-0.696023
-0.0384878
0.703262
0.137122
0.551668
-0.86988
0.70318
-0.0362776
-0.0148529
-0.224676
-0.378335
-0.557945
0.202322
0.778794
0.557612
0.314213
0.348911
-0.533841
-0.14435
0.982609
-0.551911
0.876135
0.40457
-0.345009
0.0822854
-0.32732
0.846162
0.965808
-0.496601
-0.623113
-0.560584
0.126318
0.238925
-0.590357
-0.758138
-0.091242
0.391108
0.0272143
0.236852
-0.287228
-0.502592
0.0286869
-0.547808
0.635966
0.909525
0.754583
0.43913
0.816712
0.698019
-0.748021
0.880113
0.988019
0.746761
0.463061
-0.442925
-0.382707
0.225294
0.281767
0.2707
-0.645497
0.302482
0.511375
-0.950855
-0.0646163
0.875145
-0.081258
-0.258423
0.698498
-0.890949
0.556614
0.0492944
-0.697094
0.163677
-0.0148018
0.977264
-0.0286749
-0.653455
0.240891
0.74499
-0.466732
-0.948746
0.753703
0.750685
0.526358
0.942783
0.283543
0.172148
-0.28349
-0.958667
0.491768
-0.489547
0.97789
-0.376668
-0.272993
-0.23532
-0.717459
-0.127156
-0.269762
-0.0402143
-0.481021
-0.789937
-0.20233
0.0981862
0.466918
0.218028
0.39835
0.132149
0.384779
0.179394
0.90927
-0.287165
0.470909
0.872113
-0.243263
-0.517415
0.619435
-0.995067
0.0683321
0.087607
-0.17098
-0.229338
0.161721
-0.286236
-0.901946
-0.0897011
-0.234005
0.62318
-0.143768
0.790525
-0.106359
-0.217501
-0.911183
0.122004
0.0568508
0.945648
0.393301
0.29782
0.708903
0.497721
-0.845026
-0.579418
-0.696448
-0.884559
-0.57747
-0.335865
0.181345
-0.0726243
-0.173259
-0.65052
-0.583861
-0.0495411
0.799448
-0.529977
0.868897
0.430234
-0.455701
-0.0748293
-0.857623
-0.376099
0.801395
0.49936
0.305757
-0.746613
0.89581
0.897752
-0.761202
0.287336
0.695563
0.493858
0.493636
0.862907
-0.118683
0.283602
0.0439558
0.648136
-0.870237
0.243073
0.0541732
0.464172
0.222786
-0.251058
0.712196
0.0268423
0.541891
-0.581227
-0.034662
-0.392954
0.0275074
-0.871233
-0.604279
-0.203405
0.214612
-0.858711
0.561654
-0.431022
0.0260718
-0.930938
-0.545659
-0.299911
-0.930158
0.910913
-0.675655
-0.0411139
-0.109241
0.813556
-0.665622
-0.598714
0.943992
-0.357248
-0.337122
-0.974294
0.857273
0.435067
-0.173509
0.443579
0.319298
-0.458366
-0.446301
0.156702
0.543979
0.748571
-0.672791
-0.467849
0.343972
0.754949
0.429153
0.480326
-0.402746
0.469934
-0.867458
-0.109112
-0.231447
-0.720133
0.729979
-0.361061
0.370241
0.681376
0.7094
-0.845384
-0.553621
0.322449
0.727533
0.818833
0.117453
0.433648
-0.485544
0.502595
0.777821
0.0792193
0.138798
0.324172
0.511456
0.285349
0.231207
0.761116
-0.752909
-0.0273006
0.164464
-0.432791
0.355819
-0.395544
0.309303
0.694647
-0.405088
0.0929793
-0.112767
0.713104
-0.301585
-0.301452
-0.736659
-0.35767
0.790459
-0.198352
-0.468971
-0.161962
0.0302172
-0.506146
-0.211417
0.289262
-0.0738762
0.499501
-0.866533
-0.273362
0.178981
0.984115
-0.0581937
-0.0337335
0.746631
0.48158
-0.195383
0.680054
-0.626889
0.584518
0.700436
0.406176
0.201301
-0.166263
-0.960983
0.319588
-0.941438
-0.716429
-0.787132
0.0619684
-0.91955
0.337705
-0.666651
-0.742136
-0.625764
-0.014986
-0.0578095
-0.106501
-0.999559
-0.587702
0.376345
0.0801682
0.596073
-0.708834
0.4049
-0.056354
0.846872
-0.0992783
0.884401
-0.168898
0.178388
-0.990227
0.178704
0.897071
0.490002
-0.863448
0.415226
0.708065
0.404781
-0.61822
0.209668
-0.608844
0.383124
0.595439
-0.430577
-0.856201
-0.814785
-0.275379
-0.437822
-0.568723
0.887724
0.861748
0.221691
0.833098
0.875186
-0.032931
-0.1375
0.592843
-0.824205
0.631364
-0.785963
-0.296082
-0.74903
0.748372
-0.402525
-0.334121
-0.78851
0.0787597
-0.683159
0.412153
-0.682621
-0.986702
-0.654184
0.94017
0.196047
-0.713553
-0.484365
-0.355232
0.565317
-0.702317
0.198481
-0.87305
0.860937
0.150791
0.423088
0.666161
-0.384442
0.350706
0.857299
0.0358558
0.456683
-0.421898
0.796869
-0.696338
-0.671041
0.452482
-0.0658008
-0.942107
0.303728
0.0306121
0.471974
-0.18893
0.470507
-0.703916
-0.773422
-0.56964
0.237774
-0.0894213
-0.977105
-0.211282
-0.760375
0.879618
-0.274996
-0.855233
-0.834535
-0.651255
0.511483
-0.138861
0.259352
0.875755
0.0749736
0.708191
0.92783
-0.357909
0.560713
0.00742896
-0.877561
-0.885249
0.728955
0.900786
-0.59369
-0.389781
-0.354178
-0.500627
0.419111
0.938436
-0.50473
0.9685
0.0742018
-0.80829
0.55865
-0.685399
-0.831215
0.415366
0.00241073
-0.7003
0.160487
-0.977088
0.23161
-0.533691
-0.477317
-0.704656
-0.691947
-0.143035
-0.0028132
-0.50667
-0.207478
-0.886789
-0.571199
0.441247
-0.390968
0.0591196
-0.771597
-0.0780534
0.979278
0.644917
0.0552154
0.177962
-0.461687
0.209749
-0.076392
-0.323076
-0.545199
0.134517
0.95314
0.284482
-0.286543
0.747644
0.059485
0.276467
-0.19623
0.94737
-0.123973
-0.392331
0.370767
0.949868
-0.154092
0.210741
0.139918
0.863185
-0.143526
0.80855
0.802867
0.0467455
-0.975614
-0.317899
0.0309825
0.853157
0.990606
-0.340828
0.438039
0.781331
-0.579695
-0.731233
-0.00760608
0.6611
0.598609
-0.162294
-0.0631
0.110499
0.499052
0.77997
-0.0720919
0.535766
0.467075
0.670921
-0.695535
0.359609
0.844048
-0.650338
-0.485204
0.233792
0.710754
-0.81999
-0.705474
0.889438
-0.0367158
0.266537
-0.356118
0.045666
0.457645
-0.778469
-0.612703
0.177377
-0.426311
0.182521
-0.302634
-0.817093
-0.0400139
0.735414
-0.146241
0.633162
-0.378747
0.704004
-0.0441324
-0.352196
0.00874378
-0.762798
-0.753448
0.711043
-0.110057
0.55426
0.512302
-0.543939
-0.348526
-0.462286
0.151438
0.760231
-0.925778
0.664357
-0.997732
-0.582394
-0.0878693
-0.578974
0.0819974
-0.703755
-0.905773
-0.958644
-0.360939
-0.736917
-0.432127
0.432855
0.349951
-0.0444105
0.62033
-0.741418
0.703384
-0.765585
-0.0365083
0.0234059
0.318543
-0.387559
0.318975
0.336714
-0.619915
0.931912
0.934953
-0.966961
0.656082
0.673791
0.127704
-0.923575
-0.508717
-0.590723
-0.91087
-0.282425
0.241393
0.474244
-0.562488
0.878994
0.111308
0.450443
-0.634445
0.680578
-0.778447
-0.735595
0.316007
0.0969487
0.672598
0.444416
-0.107115
-0.342828
-0.162026
-0.479655
-0.616994
0.647135
0.672987
0.511749
-0.620829
-0.0993234
0.395464
-0.867623
-0.768284
-0.253622
0.322021
0.42303
0.462622
0.110754
-0.61202
-0.35767
0.0997433
-0.904255
-0.979745
0.499814
-0.0463035
-0.675905
-0.403726
-0.787495
-0.513911
-0.214112
0.374511
0.198381
0.552209
-0.745414
-0.50935
0.175413
-0.522299
-0.711348
0.932983
0.492429
0.312741
0.40715
-0.536319
0.707114
0.168256
-0.529023
-0.990974
0.269354
0.483674
-0.472379
0.393934
-0.168911
0.919935
0.0902684
-0.707931
0.168218
0.948922
-0.243846
0.89589
-0.196247
-0.0854035
0.815886
0.475688
-0.362187
-0.849285
-0.569065
-0.991694
0.262308
-0.646153
-0.598029
-0.559016
-0.30455
0.398546
0.880425
0.0480491
-0.744797
-0.745818
-0.301125
0.533265
-0.458219
0.694341
-0.985157
0.718005
-0.0644041
-0.654645
-0.314686
0.844913
0.689262
-0.94906
-0.33946
0.979719
-0.843146
0.665601
0.10186
0.443664
0.312953
0.482355
-0.67707
-0.0196166
0.943346
-0.83054
-0.484825
0.839438
0.891805
0.754801
-0.11371
0.502451
0.820691
0.207235
-0.62774
0.0672379
-0.630295
-0.400428
0.0963011
-0.85654
0.909603
-0.797535
-0.549696
-0.99872
-0.322621
0.143763
0.927582
0.29658
0.69239
-0.527668
-0.987457
-0.390729
0.37935
-0.803706
-0.991726
0.47979
0.957484
0.755599
-0.281371
0.999366
-0.886071
0.661049
-0.213974
0.0695292
0.0768336
-0.168215
-0.374626
0.642326
-0.493907
0.275599
0.865257
0.882886
-0.27476
0.268619
-0.649354
0.176205
-0.884771
-0.602084
-0.144981
-0.90417
-0.476312
-0.213225
0.594606
-0.981116
0.0631831
0.372668
-0.992883
0.241409
0.131381
-0.0962836
-0.0384702
-0.0481412
0.40171
0.836147
0.877259
-0.431609
-0.120693
-0.747173
0.738952
-0.452233
-0.0738854
0.670985
-0.202966
-0.867444
-0.0405222
0.873938
0.996753
0.490423
0.636974
0.347656
0.894354
0.709261
0.902074
-0.915895
-0.944886
0.242554
-0.724896
0.285346
-0.315221
0.0910836
0.419351
0.0223207
-0.965098
-0.507176
-0.35085
0.41182
-0.764043
0.300435
0.914558
0.824939
0.849406
-0.390186
-0.16489
-0.704139
-0.229825
-0.434642
-0.0297713
-0.520857
-0.5908
0.207658
0.874483
0.324485
0.313251
0.503183
-0.588752
-0.675656
-0.20653
0.409892
0.950304
0.873353
-0.912509
-0.526715
0.145473
-0.211948
-0.960998
-0.751534
0.127674
0.620402
0.1132
0.776133
-0.720459
-0.346632
-0.459342
0.0237909
-0.699083
0.79453
0.481232
-0.915232
-0.848018
-0.0166489
-0.979454
-0.687018
-0.621572
0.688298
-0.182899
0.88259
-0.00622246
-0.866187
0.717604
0.85795
0.421396
-0.0275383
-0.115409
0.539435
-0.0768734
0.217986
0.166184
0.267451
0.473899
0.903388
0.960777
-0.983279
0.763775
0.89012
-0.30026
0.508741
-0.287624
-0.135009
-0.848697
0.25193
0.178776
-0.96219
-0.823281
-0.69061
-0.927529
-0.483166
-0.836637
0.475065
0.610283
0.958468
0.455839
0.950559
0.470231
0.22662
-0.86868
0.918847
-0.516384
0.103248
0.421182
0.227407
0.775478
-0.74284
-0.894814
0.0655927
-0.75801
0.5212
0.942453
-0.0680919
-0.0750398
0.828726
0.518705
-0.941299
0.556146
-0.0641915
-0.0361463
-0.229907
0.521488
-0.397552
0.739493
-0.532489
0.983311
0.937257
-0.396566
0.169167
-0.8894
-0.610537
-0.108904
-0.189002
-0.327661
0.295248
0.533705
-0.215909
0.133143
0.878142
0.208303
0.63894
0.646825
0.899117
0.0479377
-0.0116913
-0.698828
0.440294
0.00421384
-0.864474
0.234211
0.827965
-0.425993
-0.507533
-0.797801
0.646829
-0.176437
-0.20082
-0.272725
-0.707689
-0.912224
-0.778596
-0.0991151
-0.768558
0.0713205
0.690323
0.0244709
0.676112
0.00977743
0.765395
-0.833304
-0.387899
0.0755693
-0.0706408
0.381064
0.0557943
0.771843
0.316445
0.224994
0.665066
-0.361347
-0.957181
-0.242753
-0.968054
0.28699
-0.704575
0.701363
0.0835184
0.278591
0.810539
0.421284
-0.947048
-0.527997
-0.385583
0.867495
-0.721272
0.874958
-0.825736
-0.571521
-0.793118
0.956306
-0.826533
-0.567176
-0.956899
-0.257547
-0.0704018
-0.794381
-0.535793
-0.84735
-0.702634
0.635518
0.923795
-0.650555
0.422646
0.165264
0.309367
0.104467
0.934367
-0.281465
0.657864
0.28279
0.818314
0.936083
-0.64119
-0.0317213
0.323401
-0.88008
-0.00728194
0.425562
-0.734091
-0.517753
-0.988864
0.386596
-0.935317
0.569318
-0.298921
-0.0288422
-0.0703998
-0.0979583
0.300622
0.230705
-0.159408
0.637832
0.401002
-0.760326
0.100026
0.591356
-0.897953
-0.0839061
0.204115
0.42328
0.617349
0.809623
-0.508868
0.818105
-0.214084
-0.86613
0.613709
0.0438844
0.829147
-0.151454
-0.76896
0.838006
0.43595
0.4032
-0.779747
0.364623
0.281377
-0.312463
-0.186819
0.249197
-0.394798
0.712879
0.741988
0.902121
-0.945863
0.690136
-0.507478
0.469648
-0.742044
-0.135185
-0.666962
0.229674
-0.936052
-0.663965
-0.205517
0.916611
0.396879
-0.621795
-0.832125
-0.384112
0.48892
0.868284
-0.126128
-0.437571
-0.523199
-0.680069
0.304264
-0.483663
0.903524
0.494512
0.201807
-0.491945
0.161301
0.399687
0.852458
0.705604
-0.825426
0.56513
0.0426534
-0.814406
0.788216
0.715844
0.642198
-0.219439
-0.545415
0.667004
-0.291521
-0.690363
-0.217604
0.933367
0.454229
-0.232362
-0.131183
0.197141
-0.839668
0.0376728
-0.595598
0.99119
0.792863
0.403454
0.675119
-0.105019
-0.860227
-0.591918
0.99025
-0.985247
0.221259
-0.866124
-0.887575
0.362816
0.857731
0.64197
0.270756
-0.535109
0.589707
-0.587656
0.617701
-0.573271
0.38261
0.508981
0.0521145
0.202939
-0.557621
0.298701
0.691491
0.832612
0.265356
0.451286
0.665472
-0.626841
0.730986
-0.453081
-0.754716
0.0668781
0.974151
-0.12055
0.475266
0.870386
0.609157
-0.0699034
-0.0318642
0.443118
0.388219
0.541866
-0.541501
-0.819231
-0.685107
-0.0336647
-0.652778
0.581671
-0.13804
-0.0652253
0.720809
-0.390264
0.880366
0.386036
0.117528
0.566575
-0.391999
0.431123
-0.0994188
-0.201797
-0.556538
-0.814997
0.0570532
0.403468
-0.43058
-0.0103637
0.157672
-0.519236
-0.48907
-0.981028
0.657821
-0.913706
0.737168
-0.674879
-0.85073
0.932406
0.00645064
0.041558
0.563657
-0.738472
0.529608
0.137843
0.387212
-0.858826
0.573954
0.162833
0.200822
-0.428052
-0.0440399
0.612226
-0.498376
0.946303
0.1766
0.684392
0.0078305
0.411474
0.379713
0.313145
0.0534431
-0.689603
0.908854
0.69735
0.767975
-0.682351
0.930012
-0.699611
-0.334149
0.843536
-0.240745
0.873696
0.797619
-0.688773
-0.200415
-0.997771
0.896421
-0.0416506
-0.20223
0.269069
0.826287
0.715521
-0.674823
-0.506081
0.258658
-0.284017
-0.762502
0.743307
0.611158
0.912413
-0.966184
0.0300971
-0.897252
-0.553682
0.792134
-0.64297
0.806986
0.305545
-0.421967
-0.147407
-0.0221958
0.486531
-0.311749
0.574608
-0.293211
0.780076
-0.554996
-0.986109
-0.7652
0.632865
-0.77511
-0.488669
-0.475749
-0.882569
-0.508369
-0.290817
0.328386
0.801219
0.227281
0.322507
0.0295123
-0.0275143
-0.46731
0.88318
0.944854
0.36116
0.362026
0.0262855
-0.473066
0.290441
0.265108
-0.836252
-0.400778
0.589303
-0.208313
-0.137926
0.561522
-0.608673
0.0734584
-0.691565
-0.202596
-0.796333
-0.825652
-0.97674
0.818494
0.237656
-0.155246
-0.397583
-0.262429
0.829042
0.0684766
-0.596756
0.726085
0.445056
-0.519832
0.0853708
-0.820058
0.368725
-0.556197
0.531299
-0.303825
0.804023
0.00889119
-0.759483
-0.00528561
-0.585572
0.508107
0.482666
-0.232678
-0.0556165
-0.481651
0.56463
0.129916
-0.589168
-0.185373
-0.422831
0.868507
-0.82118
0.307502
0.623421
0.406302
0.109777
0.769893
-0.855764
-0.354755
0.858602
0.68929
-0.68846
-0.024231
-0.311177
0.276607
-0.894827
0.847869
-0.39028
-0.37828
0.432612
0.558568
-0.889029
0.230343
-0.373336
0.974229
0.229233
-0.330319
-0.201893
0.224729
-0.695657
0.155929
-0.149318
0.916432
-0.0798754
0.564768
-0.169813
-0.949069
0.0541507
0.739241
0.347966
0.704744
-0.622933
0.19039
-0.54623
-0.157813
-0.980345
0.379767
0.123634
-0.620852
0.223608
-0.954522
-0.557664
0.103731
-0.191426
0.310698
-0.663625
0.562622
-0.48982
-0.324525
0.211005
-0.652803
0.383601
-0.43935
0.461958
0.825235
0.149737
-0.931299
-0.530109
-0.921374
0.65212
-0.185797
0.277365
0.831269
-0.389206
0.108541
0.267409
0.631769
-0.673947
0.99319
0.619872
-0.172748
0.953676
-0.223032
-0.798621
0.481477
0.067561
-0.15663
-0.0336893
0.271906
-0.98407
0.0397542
0.746935
0.0709338
0.619637
0.432941
-0.885003
0.911102
0.272187
0.419898
0.525186
-0.784438
0.3744
-0.203984
-0.394009
-0.269884
0.0526088
-0.634209
0.826123
0.877773
0.846051
-0.829132
-0.0675648
-0.401206
-0.703576
-0.806565
0.60715
0.103442
-0.644424
-0.613068
0.898656
-0.920499
-0.588951
0.393888
-0.373551
0.864587
-0.236252
0.117994
0.686645
0.4312
0.0618257
-0.954486
0.545971
0.0125018
0.0613488
0.475822
-0.152214
-0.904628
0.258315
0.257738
-0.892528
-0.652043
0.188037
-0.158899
0.265938
-0.519501
-0.0739414
0.0829323
-0.195553
-0.421601
0.75569
0.544838
-0.497692
0.788471
0.526259
0.307707
0.242532
-0.832921
-0.189077
-0.0963151
-0.769741
0.112011
-0.508021
0.343084
0.0604188
0.423488
0.252319
-0.215367
-0.597896
0.708546
0.740385
0.00888698
0.28468
0.189426
0.904639
-0.920166
0.649352
-0.936795
-0.980538
0.0644479
0.545957
0.911783
-0.49469
-0.156735
0.394214
-0.994467
-0.568869
-0.989762
-0.748066
-0.38668
0.717885
-0.108716
-0.38204
-0.168332
0.536816
-0.932599
0.610129
0.620706
0.00322243
0.805122
-0.953102
0.515489
-0.0529972
-0.831062
-0.659869
-0.153274
0.162827
-0.516448
0.757299
0.966909
-0.0757762
-0.210325
0.403677
0.803056
-0.15473
0.149437
0.55027
-0.209621
-0.60111
-0.856816
-0.322704
0.557107
0.330603
0.00161486
-0.131419
0.269476
0.776858
-0.376195
0.333176
-0.550182
-0.826953
0.465375
0.898277
0.630613
-0.107542
0.858325
-0.430515
0.498094
0.310569
0.855138
0.795752
-0.243839
0.463853
-0.323626
0.315091
0.935157
-0.943382
0.373064
-0.129983
-0.258592
0.330742
-0.355119
-0.138562
0.369156
0.772367
0.138325
-0.148704
-0.606068
0.165332
-0.47501
-0.741524
0.138659
0.726877
0.525276
-0.163139
0.56848
-0.343356
0.429126
0.617678
-0.460492
0.695045
-0.627401
-0.73943
0.56765
-0.156886
-0.0181034
0.225776
-0.370411
-0.83682
0.565288
0.790114
-0.0573186
0.0567539
0.119253
0.541055
0.245509
0.0676465
0.853454
-0.891287
0.00443624
-0.922515
0.954242
-0.714054
-0.840076
-0.821084
0.425474
-0.311935
-0.656312
-0.636174
-0.496316
-0.522236
0.19693
-0.937735
-0.0921825
-0.588042
-0.433502
0.517267
-0.381687
-0.644845
-0.712186
0.0870897
0.751973
-0.329068
-0.941796
0.151307
0.983846
0.681651
0.00194829
0.804379
-0.240109
0.12957
-0.573124
-0.342872
0.0167388
-0.987949
-0.937333
-0.612709
-0.0402139
0.172409
0.518196
-0.196715
0.416617
-0.602012
0.417201
0.739341
0.460503
0.41257
-0.365417
0.0490221
0.990523
0.744755
-0.686937
0.249992
0.678192
0.0356083
-0.146788
0.284211
-0.824298
-0.241177
-0.549441
-0.542977
-0.173366
0.583894
0.939304
-0.373874
0.701248
0.146708
0.794232
0.642858
-0.375263
-0.86397
0.217448
-0.036781
0.512586
-0.0933249
-0.0310691
0.538972
-0.664203
-0.435255
0.234264
-0.0870213
-0.421862
0.637975
0.462031
-0.553046
0.819324
0.89233
0.500099
0.243613
0.763268
0.912151
-0.661582
-0.0649013
-0.16439
-0.315137
0.556186
0.970116
0.313005
-0.511986
0.896835
0.240598
-0.795379
0.443533
-0.237161
0.722115
0.574742
-0.510485
0.114862
-0.785775
-0.113127
0.426892
0.465049
0.274128
-0.370686
-0.350132
0.453209
-0.843468
-0.118954
0.750934
-0.221376
0.501573
-0.343405
0.0698136
-0.362759
-0.383823
0.325106
0.042388
0.986203
-0.679226
0.106531
0.762888
0.975032
-0.267474
-0.0822145
0.254289
-0.448104
-0.475851
0.252078
0.384757
0.566278
-0.460455
0.314253
0.176385
0.00936229
-0.954941
0.0911296
0.553192
-0.825175
-0.132018
-0.924018
-0.972962
0.335125
0.937209
0.571053
0.184482
-0.315062
0.557372
0.925003
0.632063
0.743847
0.227671
0.482683
-0.662486
-0.42917
-0.886642
0.423048
0.616181
0.0368295
-0.570599
-0.102712
0.937908
0.748748
-0.795999
-0.100502
0.83523
-0.960266
-0.331514
-0.910447
0.421424
-0.729907
0.875446
0.391738
-0.330745
-0.223408
0.975887
-0.875353
0.304506
-0.538304
-0.57834
-0.580352
0.79302
0.780646
-0.0983658
0.944596
-0.752246
-0.0224198
-0.503718
-0.509902
-0.199341
-0.430008
-0.404915
-0.122747
0.568044
-0.347976
-0.303231
0.00881339
-0.154323
0.4654
0.498359
-0.465483
-0.210106
0.250374
-0.215763
0.148602
-0.240209
0.903023
-0.960274
-0.855764
-0.890155
0.210445
0.96447
-0.759309
-0.322319
-0.795004
-0.918424
-0.833202
0.788309
-0.857383
-0.466308
0.424247
-0.940467
0.582035
0.62878
0.258102
0.470431
-0.76429
-0.507036
0.715272
-0.585777
0.0161805
-0.957357
0.293343
0.302948
0.491767
-0.326727
-0.181008
-0.820459
-0.166136
-0.410232
0.792666
-0.600298
-0.550197
-0.495596
-0.913846
0.458333
-0.50151
-0.899709
0.93831
0.68852
0.461455
-0.999701
0.141151
-0.0871925
0.773887
0.185044
0.695604
0.833164
-0.157461
-0.857865
-0.579403
-0.887042
-0.71413
0.870931
0.92073
-0.625677
0.972529
-0.497025
0.970431
-0.424861
-0.940099
0.523697
0.811304
0.191959
-0.427379
0.68249
-0.0627962
-0.885407
-0.264929
0.702652
-0.419176
-0.618594
-0.643592
-0.859817
-0.282189
-0.146408
-0.0823138
-0.671765
0.0651308
0.489665
0.792829
-0.824516
-0.050996
0.10435
-0.798618
0.162523
0.882774
-0.470227
0.383428
-0.298859
0.848592
0.694008
0.834971
0.607822
-0.00752322
-0.559491
-0.956224
-0.145681
0.0560703
0.718553
-0.0373876
-0.597695
0.775046
0.418683
-0.758345
-0.184601
0.830459
0.300261
0.395995
0.619036
-0.731154
-0.502503
-0.453358
0.830452
0.202161
-0.390326
-0.604487
-0.218744
0.721011
0.377024
-0.641101
0.128685
-0.595478
-0.0990774
0.325942
0.970957
-0.751023
0.628332
0.309802
-0.261449
0.621906
0.0530069
-0.505366
0.5186
-0.724135
-0.204219
-0.1535
0.639982
-0.0182001
0.671526
0.388957
-0.19375
-0.400333
-0.659597
-0.560726
0.7636
0.682519
0.265081
-0.616223
0.260454
-0.918603
0.514574
0.832394
0.930751
-0.004586
0.66976
-0.906697
0.507246
0.991734
-0.190497
-0.907795
0.8609
-0.606611
0.797013
-0.778092
0.360651
-0.223444
-0.116452
0.493515
-0.307636
-0.429114
0.553453
0.542114
0.58892
-0.753713
-0.0918908
0.147266
0.346638
0.336289
-0.812009
0.267094
0.632593
0.804469
-0.712265
-0.0450715
0.467874
0.084421
0.526851
0.353354
-0.565561
-0.445041
-0.147442
0.340812
0.271767
0.180891
0.349777
-0.291373
0.812313
0.132311
-0.9914
0.667132
0.840628
-0.582569
0.238539
-0.909185
0.381601
-0.894947
0.441504
-0.78323
0.286611
-0.159716
0.958588
-0.728952
-0.386559
0.0723742
-0.106964
0.170482
-0.528379
-0.54819
-0.471104
-0.271173
0.41632
0.257545
0.201564
0.232268
-0.426843
0.447059
0.939183
-0.0620045
0.00642821
0.986246
0.976852
0.544972
0.323615
-0.744788
0.301234
0.757204
-0.764681
-0.404351
0.771048
-0.0855194
0.751764
-0.530833
-0.886174
-0.427195
-0.23592
0.910501
-0.347768
-0.2354
-0.673727
0.63589
-0.980453
0.834799
-0.852601
0.395217
0.622404
0.139927
0.0439431
-0.454409
0.849323
-0.27894
-0.486752
0.685123
-0.704635
0.924812
-0.183165
-0.517137
-0.500483
0.486804
-0.92472
0.921637
0.90175
-0.646421
0.374475
-0.674623
0.529322
0.105825
0.992269
-0.132237
-0.974193
0.914014
-0.949201
-0.385116
0.194061
-0.156762
0.971435
0.870538
-0.220144
0.368955
0.641048
-0.994585
-0.64685
-0.966905
-0.965031
-0.325311
0.249461
-0.309033
0.494874
0.286165
-0.874909
-0.952077
-0.955751
-0.136447
-0.809589
-0.508412
0.516496
-0.028026
0.754831
0.61763
0.657781
-0.0555332
0.630642
-0.637119
-0.657689
0.465895
0.153085
0.537209
-0.361056
-0.589041
-0.498306
-0.0608895
-0.430368
-0.18997
0.520032
-0.405881
-0.922786
0.878037
-0.581135
0.0354332
0.658003
-0.159786
0.0801517
0.0790907
-0.371118
0.239382
-0.52416
-0.945543
-0.585066
0.187362
-0.164867
0.874073
0.716992
-0.73951
0.0365995
-0.112712
-0.750489
0.812877
0.946141
0.03494
0.123238
-0.353349
-0.557616
0.784726
-0.631551
-0.784741
0.0400756
-0.93424
0.451216
-0.162524
-0.37777
-0.0263578
-0.807015
-0.508574
0.274699
0.218775
0.362989
0.524033
0.934622
0.69056
0.545555
0.364994
-0.0288892
-0.268972
0.105999
-0.953789
0.78642
0.749657
-0.630724
-0.086947
0.102479
-0.775738
-0.362824
0.626309
-0.74661
0.784269
-0.171073
-0.588409
-0.0907188
0.573187
0.342692
-0.233452
0.879741
-0.0675842
0.119724
0.143291
-0.908642
0.354866
0.364768
0.776542
0.122415
0.371678
0.942317
-0.67602
-0.0479323
-0.401045
0.974974
0.597299
0.261158
0.00905121
-0.6086
0.170944
-0.647632
-0.988606
-0.627206
0.397785
0.848456
0.0552763
-0.0153688
-0.0967196
0.693842
-0.293291
0.486834
0.0353177
-0.0259053
-0.279293
-0.105078
-0.413654
-0.47434
-0.0815515
-0.710456
-0.3232
-0.232527
0.182333
-0.889088
-0.158861
0.9356
-0.270812
-0.523524
0.110842
0.342061
-0.705953
0.505171
0.290742
-0.0258934
-0.602708
-0.111829
0.895737
0.72654
0.890325
0.504396
0.36712
0.929761
-0.288276
-0.315164
-0.874188
0.304181
-0.310182
-0.532393
-0.630765
-0.995021
0.691328
-0.56775
-0.834338
0.376889
-0.0957039
0.194676
0.222299
0.629483
-0.62357
-0.186146
-0.443744
-0.0896265
-0.75341
-0.132697
-0.0278813
0.366812
0.945744
0.358348
0.450775
0.159901
0.747886
-0.235464
-0.31351
0.474685
-0.185797
-0.198673
0.143853
0.831967
-0.289909
-0.970805
-0.207642
0.270812
0.0206111
-0.873626
0.769772
-0.235089
-0.701824
-0.903867
0.320455
0.430832
0.960786
0.3321
-0.0808932
0.558825
-0.52776
0.151225
0.614394
-0.775499
-0.449227
0.754727
0.739785
0.263876
0.0194996
0.926283
0.97484
0.192835
0.0716292
-0.983782
0.989911
-0.478414
-0.782335
0.693726
-0.274951
0.0201644
0.471642
0.606895
-0.315532
-0.472972
0.929989
-0.205024
-0.0797184
-0.15293
0.731703
0.639414
-0.36042
-0.0798043
-0.306544
-0.803604
-0.404286
-0.025609
0.519302
0.446101
-0.0268808
0.619151
-0.18326
-0.485982
-0.275881
-0.442728
0.532528
0.413822
0.0624613
-0.356472
0.473443
-0.274781
-0.137642
-0.279115
0.452002
-0.490826
-0.0682907
-0.00819912
-0.25669
-0.783409
-0.219047
0.957574
0.144106
-0.322017
-0.77054
-0.837116
-0.0736857
-0.0914554
0.932022
-0.629308
0.84671
-0.525448
-0.479527
-0.575433
-0.760733
-0.80198
-0.0618844
0.634311
0.678033
0.417531
-0.393203
-0.122617
0.464705
0.0105598
0.756707
-0.520987
-0.159454
0.6444
-0.217866
0.0919215
-0.385883
0.522463
0.431438
0.323867
-0.0219845
-0.971847
0.6218
-0.37259
-0.658951
-0.0110614
-0.0809151
-0.789157
0.672814
-0.746958
0.196734
0.267499
0.53395
0.816554
-0.692057
0.288486
0.836219
-0.885847
0.758259
-0.62955
-0.810869
0.384413
-0.496858
0.699214
-0.00766418
-0.752741
0.461767
-0.397164
0.144621
-0.142149
-0.681893
-0.751506
0.713294
0.560064
0.685498
-0.0939392
-0.161938
-0.828968
-0.863322
0.474824
0.500555
-0.938512
-0.439907
-0.550851
0.0121695
0.230177
-0.0791453
0.824162
-0.896829
0.639996
-0.106583
0.822668
0.975132
-0.715343
0.4488
0.134777
-0.247891
0.944645
0.317679
-0.702312
-0.138443
0.324672
0.89556
0.84265
0.0187767
0.607915
-0.978235
-0.0976476
0.275866
-0.346744
-0.188423
0.486243
0.304074
-0.102708
-0.316612
-0.578376
0.781353
0.0195393
-0.578927
-0.462535
-0.219928
-0.392605
-0.610135
0.710021
-0.586153
-0.863995
0.99782
-0.247798
-0.251937
0.585059
-0.825966
-0.59013
0.142716
0.151489
-0.418234
-0.0623593
0.59607
-0.879138
0.784954
0.753984
-0.628243
-0.700402
0.249284
-0.924074
0.528858
-0.187516
0.478115
0.362972
-0.293708
-0.686484
-0.694347
-0.803294
0.429243
-0.56291
0.934294
0.755373
-0.644765
0.253909
-0.575874
0.454412
0.366467
-0.847768
-0.478415
-0.970661
-0.884022
-0.894916
-0.929317
0.388405
0.579466
-0.652685
0.228503
-0.765443
-0.282639
0.262305
0.615474
-0.998969
0.563304
-0.117626
-0.948803
-0.413213
0.300974
0.434049
-0.150015
-0.047857
0.172659
-0.0151424
-0.748874
0.357791
-0.257951
0.541473
-0.969051
0.109474
0.583134
0.704197
0.552837
0.659208
0.0452825
0.944718
-0.0275979
-0.686417
-0.065946
-0.84433
0.898578
0.0784054
-0.89952
0.92749
-0.907128
-0.553244
0.612383
-0.312347
0.884455
0.159971
0.266136
-0.0105035
0.753241
-0.123741
-0.954983
0.280931
0.439209
0.442785
-0.197484
0.915751
0.275033
-0.141067
-0.170485
-0.379776
-0.0672299
-0.675051
-0.921466
0.00170344
-0.303876
0.411926
0.726852
0.593623
-0.858984
-0.976616
-0.172004
0.985928
0.920073
0.830905
0.227432
0.36074
0.696026
-0.852799
0.139528
-0.327855
-0.636018
-0.163975
0.398346
0.509597
-0.0733879
-0.474656
-0.150491
0.19585
-0.862976
0.715587
0.234279
0.952461
0.0417722
0.112899
0.397571
-0.952737
-0.145085
0.890174
0.461914
-0.525058
0.181242
-0.57352
-0.26084
0.802605
0.792622
0.532387
-0.0704364
0.132483
0.723245
-0.63678
-0.076913
0.290317
-0.0347831
-0.142797
-0.595972
-0.540856
-0.639239
-0.404019
-0.371707
0.988607
-0.890365
0.143813
-0.0453859
0.535147
-0.359703
0.530578
0.103409
-0.563053
0.397252
0.0410294
0.904022
0.648185
-0.902993
-0.0979211
-0.117757
-0.861957
0.637687
0.549887
-0.2984
0.425721
0.0134835
-0.393899
0.109533
0.553254
0.0189104
-0.89669
-0.246455
0.663941
0.0651637
-0.124608
0.11686
0.972173
-0.838725
0.280756
-0.185726
0.860687
0.95005
-0.433645
0.729873
-0.284222
-0.643641
0.543662
0.544973
-0.369811
0.496927
-0.154051
0.599731
-0.245107
0.617999
-0.109845
-0.501638
-0.299261
0.829168
-0.224567
-0.372396
0.714069
0.457378
-0.0136147
0.977392
-0.77261
0.626069
0.726411
0.161895
0.242799
-0.74539
-0.991676
0.773332
0.384693
-0.923236
-0.713627
-0.589649
-0.0717983
-0.146071
0.0195679
0.572417
0.255126
0.181105
-0.556068
-0.434201
-0.693158
0.763812
0.781008
-0.761346
0.574493
-0.723287
-0.242143
0.901632
-0.435586
-0.647336
-0.440364
-0.215414
-0.454867
-0.678825
0.892612
0.556021
-0.420811
-0.162008
-0.442585
0.496029
0.0528993
-0.750386
0.482362
0.802625
0.683815
-0.182745
0.877783
0.0208205
-0.171704
-0.535309
-0.775535
0.0620499
0.603247
0.158444
0.965253
0.157377
-0.140809
0.345285
-0.635357
0.0340667
0.638261
-0.51575
-0.689319
0.479517
-0.835525
0.917081
0.626567
-0.565034
-0.501892
-0.776079
0.963588
-0.369224
-0.896591
0.0659164
-0.177912
-0.400271
0.689536
-0.815458
0.293959
0.566442
0.326674
-0.793713
0.44804
0.812266
-0.576086
0.528168
-0.219688
-0.0148023
0.677704
0.252785
-0.449605
-0.545983
0.564804
0.0805303
-0.20627
-0.221874
-0.406604
0.54715
0.733721
0.66631
0.0210901
-0.43699
-0.152455
-0.312262
0.730855
-0.330482
0.199149
0.903691
-0.50638
-0.868032
-0.745632
0.876012
-0.405068
0.661764
-0.463537
0.223991
-0.974755
-0.76559
-0.725348
0.9224
-0.386586
0.328676
0.928686
-0.0509066
0.881346
-0.773596
-0.350348
-0.994238
-0.437398
0.894292
-0.77899
0.467261
0.0815331
-0.875925
-0.399296
0.605319
0.668958
0.703232
-0.325614
0.365761
0.271211
0.217818
0.369957
-0.618543
0.461893
-0.362452
-0.478464
-0.929215
0.569849
0.743767
-0.136376
-0.0325248
-0.910129
0.232386
0.856808
-0.522848
-0.146736
0.989135
-0.293823
0.410985
0.972815
0.734955
0.915816
-0.441855
0.332526
0.725431
0.401993
0.0533515
-0.171659
-0.963397
0.631865
0.78274
0.445646
0.716396
0.883288
0.945863
-0.513947
0.720362
0.570827
-0.880162
-0.374055
-0.669456
-0.0568535
-0.709461
0.868043
0.657638
-0.132535
-0.439751
0.764799
-0.190325
-0.216543
0.983021
-0.750067
0.429893
0.106982
-0.840989
-0.758226
0.14979
-0.290282
0.891736
-0.693211
0.779312
-0.537958
-0.763235
-0.825685
0.608598
0.373382
0.358284
-0.97882
0.190057
-0.409388
-0.662735
-0.366726
-0.183094
-0.947897
0.550432
-0.455974
-0.24571
-0.44858
0.68451
-0.321955
0.145899
0.761653
-0.927098
-0.159514
-0.848375
0.235814
0.733942
-0.0540839
-0.652086
0.280469
0.689105
0.507125
-0.0398298
-0.925639
0.064949
0.62501
-0.298329
0.98868
-0.903046
0.310168
0.0986658
-0.927434
-0.962125
-0.600066
0.332623
-0.596689
-0.487138
0.828888
0.418124
0.250266
-0.654076
-0.477085
0.0677183
-0.144278
-0.103522
-0.406266
-0.931176
0.296775
0.0360602
0.125211
0.726696
-0.461193
0.339563
0.45689
0.893945
-0.244124
0.204317
-0.192907
0.463984
-0.880795
-0.992835
0.901791
-0.44828
0.1664
0.512379
0.543937
-0.56217
-0.943496
-0.162533
-0.328711
-0.185858
0.38261
-0.418828
0.127562
0.253331
-0.412331
0.776754
0.751696
0.937199
0.159795
0.212181
0.0439815
0.604893
0.6968
0.320755
0.427624
0.228472
0.857668
0.30361
-0.947043
-0.762616
-0.338945
-0.0825846
0.541035
0.160675
-0.705252
0.273544
-0.326756
-0.99051
-0.852947
0.577993
-0.35573
0.777275
-0.986986
0.290912
-0.120653
-0.209795
-0.51054
-0.453424
0.30591
-0.575012
-0.543612
-0.650934
-0.104737
0.0223857
0.807004
-0.182388
-0.399065
0.387023
-0.249657
-0.244343
0.0841899
-0.185623
-0.95461
0.23149
0.857281
0.053742
-0.36265
0.466851
0.470522
-0.723442
0.87797
0.377487
0.302669
0.971091
-0.0588518
-0.934284
0.860423
-0.863089
-0.392298
0.95442
0.525326
0.772679
0.571087
-0.00704446
0.508094
0.584908
-0.330806
-0.923552
0.144462
0.0578018
-0.494375
-0.639917
0.854354
-0.540884
0.686748
-0.0914481
-0.210715
-0.288021
0.16588
-0.296255
0.539005
-0.985421
0.0109667
0.471788
-0.894465
-0.779749
-0.979709
-0.00655704
-0.370671
-0.0702794
-0.299478
-0.806308
0.183559
-0.0236097
-0.843022
0.81652
-0.630064
0.0756362
-0.595182
0.917565
0.979166
-0.385681
-0.154123
0.746514
0.530341
-0.292753
0.39785
0.717598
-0.680638
-0.431895
-0.526577
0.418731
-0.207104
0.256861
-0.678418
0.371017
0.347859
-0.00806217
-0.201724
-0.661988
0.708608
0.604257
-0.381538
0.305235
0.594214
0.880178
-0.584747
0.52452
-0.849392
0.759757
0.282002
0.0293705
-0.0502706
0.931261
0.0170901
0.136267
0.211592
-0.247333
-0.270563
-0.972157
0.903171
-0.193338
-0.386142
-0.376129
-0.464878
-0.20675
0.215768
-0.114475
0.750789
-0.438069
0.877118
0.784934
-0.482992
0.559482
0.125473
-0.853636
-0.168971
-0.126272
-0.323327
-0.097845
-0.168896
-0.699497
-0.0950283
0.346426
-0.781642
0.253406
0.749265
0.823519
0.494072
0.645232
0.985378
-0.651029
0.816854
-0.814298
0.532973
-0.741681
-0.23857
0.576271
-0.550039
0.291189
0.946258
-0.223355
-0.524413
0.334488
0.210632
-0.71688
0.0715242
-0.858391
0.809561
-0.0234697
0.2055
-0.764792
-0.558421
0.122931
-0.352673
-0.0424349
0.974494
0.750978
-0.933399
0.475076
-0.851681
-0.0666315
-0.0569597
0.431787
0.949846
-0.300423
0.742139
-0.501178
0.128923
0.810796
0.668589
-0.585398
0.450886
-0.414404
-0.562194
0.834669
0.53076
0.783711
-0.286917
0.767528
0.339062
-0.463398
-0.2014
-0.247638
0.927188
-0.260397
0.3995
0.0900363
0.0495175
0.835128
-0.89988
-0.191428
-0.0210786
0.538292
0.907692
-0.942646
0.425419
-0.495957
-0.45773
-0.527315
0.0362372
-0.0358033
0.0184074
0.145378
-0.449388
0.330836
0.285206
-0.147912
0.787086
-0.868602
-0.540981
-0.811195
-0.00539552
0.645034
0.341429
-0.298904
0.641637
-0.883037
-0.32105
0.0668425
0.796851
-0.731886
0.0909074
0.936698
-0.188665
0.319919
-0.946186
0.461874
0.454065
0.683213
0.557324
-0.691432
-0.656411
0.778907
-0.390374
-0.0328282
0.984094
-0.376199
-0.032318
-0.448527
0.547424
-0.0500261
-0.622717
-0.453831
-0.159784
0.454367
-0.355973
-0.779404
-0.780183
-0.926369
-0.0762975
-0.410286
0.240141
-0.658799
-0.570229
-0.978452
-0.216135
0.513203
-0.910352
0.535616
0.611365
0.138551
0.897009
0.152788
0.377795
0.486357
0.168644
0.648913
0.384821
0.932898
0.00157171
0.869897
0.422214
0.0797458
0.375456
-0.246244
0.927669
-0.337163
-0.982296
0.988805
0.245156
-0.432511
-0.052585
-0.40952
-0.258183
0.635126
0.738
-0.66489
-0.714694
-0.925915
-0.69486
-0.0771877
-0.428849
-0.388215
-0.45
0.416298
-0.321652
-0.823667
-0.800365
-0.794402
0.504711
0.762279
-0.779568
-0.544004
0.0181383
0.925842
0.677333
-0.241072
-0.958757
-0.694165
-0.993103
0.37146
0.146512
-0.405226
0.833973
0.909085
-0.408453
0.596036
-0.0380302
-0.748203
-0.580246
-0.211837
-0.0945366
-0.126248
-0.626967
-0.904971
0.700583
-0.0854812
-0.0941826
-0.894442
-0.432459
-0.916894
-0.896801
0.653165
0.993553
-0.0700154
-0.257643
-0.31376
0.184013
0.325683
-0.200969
-0.695217
0.438657
0.14826
-0.114139
0.815148
0.80987
-0.533872
0.100881
-0.138971
0.0133139
-0.20096
-0.124993
-0.252719
-0.437754
0.168454
0.293724
0.103494
-0.35696
-0.548278
-0.17263
0.618624
-0.408862
0.399934
0.163028
0.708846
-0.610827
0.932005
0.826492
-0.446423
-0.0986584
-0.921585
-0.969475
-0.0689512
-0.498217
-0.865148
0.137598
-0.318972
-0.806621
0.586007
-0.0331938
0.276771
0.170143
0.184088
-0.0541255
0.104371
-0.413081
-0.561079
0.198109
0.00757718
-0.824601
0.502898
0.0821251
0.356339
-0.20363
-0.442245
0.431638
0.708172
-0.910052
0.268196
-0.223211
0.157976
0.780805
0.727092
-0.342516
0.524404
0.622767
0.371457
0.878992
0.19742
0.740358
-0.326411
0.467196
-0.435079
0.113904
-0.883724
0.447388
-0.369063
0.0305811
-0.781532
0.398271
-0.947977
-0.213787
0.770403
-0.40013
0.0379542
0.274166
0.0739081
0.631804
0.485772
-0.730923
0.955382
-0.0577941
0.718802
0.681029
0.359744
0.965755
-0.684918
-0.860194
0.748719
-0.453604
-0.908888
-0.217652
-0.456927
0.0454533
0.891579
0.865138
0.411428
0.0125725
0.485819
0.893179
0.485571
-0.254199
-0.721343
-0.974491
-0.957568
0.888505
-0.141327
0.738758
-0.463638
-0.766808
0.937137
0.803085
-0.426254
0.0949116
0.18957
0.152843
0.727701
0.145805
-0.0594251
-0.33973
-0.8985
-0.480294
0.0731316
-0.238472
0.867545
0.588698
0.130703
-0.630278
-0.710594
-0.874853
0.982904
0.901345
0.276852
-0.491498
-0.367648
0.165625
0.481936
0.14163
0.484537
-0.608823
-0.635247
0.404463
0.782452
-0.0238232
0.522926
0.282099
0.0575486
0.656633
-0.391062
0.388655
0.0310667
0.720439
-0.618834
-0.9603
0.453595
0.015858
-0.680303
-0.133619
-0.645168
-0.410828
0.660785
-0.769001
0.977323
0.976202
0.087939
-0.213826
0.843298
0.88334
-0.312416
-0.494246
-0.741334
-0.191712
-0.353737
0.567065
-0.368275
-0.325963
0.0265718
-0.258053
0.620018
-0.134735
-0.693985
0.252931
0.359208
-0.942264
-0.379406
-0.897547
0.775626
-0.144539
-0.0707122
-0.227205
-0.783658
0.710991
-0.533333
0.299706
0.924638
-0.879849
0.777212
0.38653
-0.146101
0.0703735
0.723446
0.365673
-0.303951
-0.568245
0.97103
-0.263972
-0.162497
-0.951172
0.431513
-0.416333
0.541589
-0.155452
0.601369
0.793309
-0.674502
-0.800344
0.231197
0.0597455
-0.421141
0.696728
0.676179
-0.495427
0.759171
-0.60294
-0.632309
0.789065
-0.200915
0.257679
-1.01326
0.561621
0.921478
-0.680826
-0.380133
0.0759455
0.660282
0.592323
-0.0933984
-0.769658
-0.0600877
1.03345
-0.63668
-0.895853
0.968195
-0.565676
-0.439553
-0.45108
0.448937
0.246807
-0.683544
0.861364
-0.49601
-0.581566
0.956628
0.626677
0.82855
0.197798
-0.362523
0.441754
-0.324627
-0.204455
-0.703448
-0.504648
0.370041
-0.344469
0.628256
0.354868
0.229303
0.539381
0.603713
0.742532
0.588483
0.614661
-0.0810308
-0.205219
-0.76006
0.543708
-0.453897
0.172464
-0.877496
-0.631744
0.644462
-0.173761
0.651237
0.403991
-0.997828
0.207482
0.649173
-0.0766517
0.809189
0.328782
0.807144
-0.173705
-0.210875
-0.546432
0.102331
0.996567
-0.552974
-0.736348
0.800011
0.296286
0.852296
-0.132623
0.218459
-0.724147
-0.17075
-0.288688
0.468067
-0.805627
0.43105
0.0395665
0.464713
-0.785083
-0.759932
0.72652
0.201647
-0.490549
0.272674
0.267554
-0.632095
-0.496886
0.344322
-0.3426
-0.835845
0.766438
-0.27696
-0.0341112
-0.354643
0.103594
-0.141553
0.330903
0.100441
0.471024
-0.410065
-0.557401
-0.817563
0.604704
-0.311126
-0.0644078
-0.93677
-0.121425
-0.381969
0.105757
-0.245648
-0.437265
0.851209
0.628507
0.614555
-0.961139
-0.477951
0.859297
0.791989
0.694342
-0.495841
-0.814406
0.512595
-0.795577
-0.420067
-0.715218
0.552194
-0.748367
0.914476
-0.103614
0.387258
-0.960793
-0.75244
-0.31812
-0.16859
0.830579
0.920078
0.185557
-0.367138
-0.461775
-0.424475
0.78318
0.210272
0.365399
-0.247107
-0.740494
0.924765
-0.136425
-0.205775
-0.150867
-0.840286
0.822224
0.947368
0.316249
-0.0689846
0.656336
-0.895271
0.376994
0.726038
0.404934
0.322076
0.107992
-0.774036
0.79017
0.261531
0.606445
-0.146715
0.093752
-0.0283073
0.929549
-0.970363
-0.0572236
0.532391
-0.895513
0.513674
-0.182966
0.476043
0.627941
0.627282
-0.321968
0.342605
-0.530566
0.48369
0.22625
-0.455109
0.893177
0.433981
-0.0295831
-0.0685854
-0.522535
-0.198622
-0.207586
0.0621927
0.952127
0.891876
0.833393
0.00750913
-0.721699
-0.185799
-0.383429
-0.551628
-0.812932
-0.0219216
0.289527
-0.736082
-0.918522
-0.24915
0.152835
-0.704297
-0.746714
0.69075
0.146134
-0.667368
0.591433
-0.00730615
0.867296
0.280848
0.500467
0.182784
0.506813
0.950793
-0.0349081
0.523467
0.480299
0.948457
-0.208885
-0.161692
0.0130302
-0.584325
0.822443
0.702239
-0.47707
0.511994
0.451652
0.684178
-0.848326
-0.351581
0.174228
-0.813397
0.472138
-0.470984
0.588724
-0.852622
0.875145
-0.524079
0.133891
-0.95023
-0.974174
-0.658869
0.753414
0.375253
-0.495965
0.905949
0.166851
0.278381
0.750478
-0.645051
-0.627586
0.390581
0.16801
0.767926
-0.632883
-0.847901
0.548726
-0.0852965
-0.581948
0.781416
-0.688711
-0.218301
0.6196
0.0108983
-0.863969
-0.0927271
0.55964
0.796955
-0.355726
0.885504
-0.949435
0.337642
0.652512
-0.86722
-0.625609
-0.475448
0.0796387
-0.477218
-0.829414
0.647416
0.233135
0.540087
-0.383115
0.0800549
0.7511
0.686031
-0.365493
0.869005
-0.723458
-0.366861
-0.791147
-0.112141
0.118667
0.190896
0.356753
0.386938
-0.0400301
-0.124845
-0.264845
-0.671988
0.0204936
-0.584803
-0.913646
0.360674
0.58804
0.596965
0.840266
-0.0762919
-0.428873
-0.201262
0.748417
0.930409
0.70347
0.899153
0.246831
-0.235973
-0.811006
0.113896
0.815033
-0.415976
-0.617852
0.644888
0.163442
0.0326832
0.221064
-0.808294
-0.256006
0.0943655
0.800519
0.13259
-0.587885
-0.911421
0.471262
0.167138
-0.88105
-0.763654
-0.335415
-0.796134
-0.0298429
0.0458759
0.186954
-0.480895
-0.14284
0.175041
0.468538
0.811774
-0.637369
0.534585
-0.937501
-0.277339
0.963317
-0.695219
0.754266
-0.476569
0.727332
0.419178
0.0552793
-0.709435
0.621727
-0.337401
0.889106
0.465968
0.649758
-0.0889814
0.649607
0.752177
-0.542336
-0.112869
-0.575443
-0.600531
-0.128321
-0.269408
0.309434
0.842729
0.138305
0.82099
-0.239764
0.244309
-0.0983991
-0.278109
-0.0328865
-0.130269
0.0766549
-0.50334
0.899499
-0.466392
-0.663297
0.117556
0.768945
0.26056
0.392097
0.657433
0.965938
0.481952
-0.433573
-0.76072
-0.357597
-0.859449
-0.0426514
0.679411
0.592634
-0.867033
-0.0950902
0.816274
0.907929
0.87843
0.181331
-0.305225
-0.683427
-0.583348
0.741298
0.775981
0.504346
0.385766
-0.0949567
-0.102117
0.102053
-0.853131
-0.942556
0.885045
0.505519
0.547078
0.428825
-0.176995
-0.787563
0.65866
0.289924
-0.0774483
-0.70336
-0.905998
-0.942553
-0.928806
-0.337726
0.83791
-0.197328
-0.00200768
-0.800515
0.977289
-0.698607
0.887345
0.0456626
-0.344408
0.678096
-0.488479
-0.39757
-0.435872
0.974916
0.961233
-0.604124
0.497612
0.825553
0.0852249
-0.63881
0.0646468
-0.430252
-0.94299
0.56816
-0.609911
0.623254
-0.196459
-0.948535
-0.477434
-0.972844
0.238321
-0.918421
-0.122266
0.0439686
0.491228
0.473492
0.256727
0.893883
0.221726
-0.046443
0.821337
-0.692318
-0.615857
0.144263
0.0180023
0.125856
0.735424
-0.937787
0.117828
-0.627325
-0.168267
0.0341807
-0.947262
0.115596
0.579478
-0.295116
0.257494
-0.248106
0.722584
-0.211447
-0.0840483
0.492489
-0.154561
0.694679
-0.185856
-0.529586
0.86612
0.18119
-0.812482
-0.470695
0.552458
-0.725575
0.880438
0.559985
0.0297584
-0.474557
-0.807293
0.893738
-0.8796
-0.927037
-0.736767
0.296329
0.344564
0.778198
-0.500431
-0.42042
-0.620941
-0.866113
-0.119456
-0.580739
0.236664
-0.280157
-0.845805
0.426457
0.783274
0.160196
-0.861232
-0.776845
-0.266877
-0.301041
-0.341774
0.937832
-0.710296
-0.0598205
-0.549508
-0.972289
-0.51307
0.182344
-0.720874
0.322384
-0.100603
0.21659
0.350091
-0.595151
0.921492
0.560787
-0.52856
0.872293
0.560523
-0.316723
-0.782574
-0.280328
-0.265171
-0.498657
0.616724
-0.157216
-0.45189
-0.166289
-0.631346
0.294709
0.537047
-0.446671
0.0961947
-0.459221
-0.792457
-0.705349
-0.597356
-0.306458
-0.116502
0.692233
0.307942
0.575614
-0.857526
-0.213318
-0.247724
-0.783744
-0.890299
-0.853358
0.639066
-0.797297
-0.0184419
-0.776971
-0.388192
-0.442778
0.628868
-0.307384
-0.240829
-0.29757
-0.519241
-0.706707
0.881145
-0.629484
0.679608
-0.515823
0.531469
-0.461491
-0.608089
0.873271
1.00595
0.289885
0.811312
-0.215743
-0.00986677
-0.612339
0.220407
0.292467
-0.717115
0.62864
-0.918052
-0.0209706
-0.650059
0.249464
0.711118
-0.89346
-0.557787
0.157833
-0.151665
-0.327696
-0.873493
0.582835
0.738948
0.937481
0.709006
0.363218
0.794796
-0.703681
-0.0139893
-0.210547
-0.878666
0.485725
0.160484
-0.487834
-0.976697
0.229548
-0.0842887
0.920695
0.733972
0.164914
-0.778575
0.317029
-0.831787
0.539466
0.170077
-0.0688078
-0.299235
-0.352731
0.954944
0.479076
-0.693077
0.413481
0.583607
-0.710533
0.838352
0.886968
0.579772
0.0753314
-0.750809
0.0127956
-0.956207
0.968817
-0.208079
0.0204006
-0.666985
0.240597
0.872796
0.307721
-0.498894
-0.771361
0.0862949
-0.0376238
-0.495347
0.866441
0.166265
-0.747482
0.379431
-0.373268
-0.069977
0.137815
-0.438382
-0.628669
-0.2637
-0.791278
-0.5595
0.436216
0.0683694
0.0474548
-0.75991
-0.939412
0.844405
0.912894
-0.959535
-0.391498
-0.981532
0.29507
-0.873005
-0.48473
-0.106147
-0.500371
0.504945
-0.89712
-0.867583
0.663671
0.264623
0.875597
-0.481313
-0.154599
0.224271
-0.554537
0.695043
0.887621
0.33802
-0.344228
0.395333
-0.1641
-0.201997
0.0346523
-0.618125
-0.247463
0.749567
-0.966837
-0.279899
-0.996452
-0.984889
0.362781
-0.201427
-0.690916
-0.691736
0.297084
0.2695
0.952387
-0.711615
0.203708
-0.0600044
0.565451
-0.933105
-0.791524
-0.653833
0.585921
0.178152
-0.362047
-0.607903
-0.226684
0.212582
0.529203
0.416603
-0.175921
0.640309
0.180842
-0.554207
0.346238
0.513456
0.825984
0.469194
0.937017
-0.88807
0.155854
-0.0941192
0.271828
0.444685
0.28347
-0.110271
0.935451
0.348162
0.731518
-0.159286
-0.442371
0.343959
0.818687
-0.992568
0.454528
0.0525958
-0.562003
-0.929729
0.131436
-0.249803
-0.33365
-0.857235
-0.783226
-0.38834
-0.186007
-0.127459
-0.254766
0.11463
0.525911
0.159497
0.570773
-0.901232
0.0276712
0.960551
0.0129579
-0.162962
0.709238
0.153163
-0.757962
0.746302
-0.0691185
0.243291
0.457032
-0.741366
-0.0751796
0.580934
-0.678438
0.716357
0.343644
0.720806
0.828917
-0.890116
-0.0117306
0.862451
-0.270515
0.90741
0.283176
0.528465
-0.919928
0.898748
0.348542
0.379101
-0.584791
0.578083
-0.883651
0.230309
0.0724423
0.559463
-0.119142
0.250696
0.309702
-0.812506
-0.463126
0.722852
0.0566257
-0.246261
0.95203
-0.964739
0.0414313
0.651843
-0.453972
0.864752
0.310841
0.299062
0.54054
-0.806664
0.183009
0.444667
0.203486
-0.0351941
0.576666
0.394986
0.111917
-0.389468
-0.610043
-0.814785
-0.608127
0.76498
-0.50424
-0.537842
-0.668885
0.647187
0.958605
0.0152742
0.219305
-0.540821
0.12256
-0.756674
-0.194195
0.0414964
0.542717
0.754632
0.697524
0.15218
-0.577446
-0.4767
-0.298843
0.980989
0.28702
-0.549576
-0.929257
0.565475
0.872234
0.665604
0.135108
-0.459323
-0.567182
0.370498
-0.385404
-0.441529
-0.47379
0.105638
0.721693
-0.731078
-0.221424
0.786232
0.207684
0.720049
0.809294
0.0466883
-0.212558
0.823101
-0.902483
-0.0952308
0.39305
-0.127022
-0.113267
-0.415481
-0.469809
-0.937519
0.743993
-0.277252
0.150209
0.611141
-0.214759
0.202218
0.495
-0.190574
0.362564
0.262151
-0.42604
-0.63148
-0.493204
0.286304
0.543829
-0.0544718
0.523077
0.00795346
-0.765734
0.704854
-0.762102
-0.949945
0.993339
0.467599
-0.3439
-0.0510722
0.382976
-0.517606
-0.293175
-0.451316
-0.775493
-0.488226
-0.950191
-0.450014
-0.906948
-0.664564
0.873067
0.775137
-0.454427
-0.786986
-0.721043
-0.920976
0.528216
0.386629
0.470311
-0.726929
-0.503208
-0.823794
-0.467666
0.916643
-0.734374
-0.329149
-0.232477
-1.00258
0.316096
0.272375
-0.270832
0.113578
0.100025
-0.979009
0.328078
-0.476897
0.274643
0.288947
-0.153539
-0.882936
0.854368
-0.183777
0.296451
0.790849
-0.339551
-0.145167
0.200769
-0.981141
0.584071
-0.654605
-0.117328
-0.337823
0.302212
-0.150672
0.585069
-0.113125
0.335959
0.736224
0.907932
0.0180636
0.248902
0.129201
-0.752321
0.81233
-0.574923
0.240791
0.868979
0.0569233
0.876827
-0.945403
0.827221
0.663901
-0.181193
0.0226204
0.755912
0.879658
0.686668
0.380709
-0.240928
-0.411298
-0.643207
0.276785
-0.235149
-0.986549
-0.963158
-0.187355
0.719964
0.188116
0.516773
-0.774946
0.257647
-0.442339
0.854433
0.864917
-0.389455
-0.974108
0.320068
-0.404948
-0.787736
-0.919753
0.419851
0.117751
-0.984731
-0.975198
-0.225113
0.00454606
-0.50677
-0.770444
-0.859625
-0.964708
0.086563
0.118619
-0.817266
-0.938273
0.918836
0.270709
0.220795
0.471363
-0.536684
0.770433
-0.82708
-0.155056
0.555734
-0.743517
-0.857694
0.857057
0.18461
0.0159456
0.999823
0.193715
-0.301726
0.771382
0.432384
-0.333889
-0.863948
0.0582152
0.815453
-0.508519
-0.64345
-0.881799
0.495498
-0.327594
0.127746
-0.0489826
0.498829
0.45941
-0.279489
-0.621365
-0.918906
-0.902066
0.56816
-0.429561
-0.0999656
-0.869621
-0.877435
0.643357
-0.983111
-0.529052
-0.412962
-0.849742
-0.20774
0.442902
0.29053
0.627548
0.343557
-0.245235
0.772659
-0.0506902
-0.954318
0.886292
-0.560086
0.627677
-0.916692
0.341573
0.509497
0.828324
0.840058
-0.212961
0.207141
-0.349153
-0.265039
-0.202225
-0.0614328
0.688824
-0.514197
0.819479
0.53089
-0.662322
0.045345
0.472647
-0.983838
-0.186211
-0.714263
0.530853
-0.725477
-0.353321
-0.302055
-0.0186995
0.981114
0.0274011
0.971437
0.368434
-0.171469
-0.426096
0.29879
0.420366
0.0652872
-0.7412
-0.662117
0.0666276
-0.244663
-0.863081
-0.00373635
-0.19771
0.553367
0.570763
-0.365435
0.789147
0.487188
-0.341298
0.114492
0.803301
-0.2457
-0.520044
0.78022
0.440566
0.841714
-0.623225
0.12541
0.0830534
0.975564
-0.705458
-0.952454
-0.415297
-0.942181
-0.107507
-0.62103
-0.0682837
0.0791385
0.882532
0.479151
0.162444
-0.402613
0.279514
-0.151035
0.886094
0.319527
-0.716259
-0.529836
-0.295318
0.99023
-0.990007
0.725795
0.0113446
0.555947
0.968894
0.829795
0.424416
-0.166969
0.741238
-0.314805
0.946112
-0.319433
-0.527624
-0.380568
-0.33149
-0.181393
-0.32971
0.692652
-0.0917297
-0.273757
0.808791
0.194417
-0.100446
0.352148
0.00347277
-0.0953613
-0.643776
0.911201
-0.0126581
-0.3255
-0.711126
0.00615048
-0.717497
-0.238512
-0.325712
-0.22911
0.387338
-0.490734
0.567491
-0.127963
-0.310175
-0.612754
0.515697
-0.0257201
0.577905
0.0252095
-0.910468
-0.439471
0.879678
0.584426
-0.822202
-0.985111
0.130075
-0.545406
0.847094
-0.404925
0.00865748
-0.173689
0.721943
-0.516861
0.698067
-0.130939
0.707761
-0.877986
0.787772
0.487856
-0.305452
-0.440509
-0.284539
0.668417
-0.775201
-0.592993
0.269567
-0.0962884
-0.324991
-0.690069
0.155952
0.225979
-0.807859
-0.0355934
0.507893
0.270756
-0.271888
-0.401648
0.371922
0.0802727
0.973879
-0.387796
-0.939808
0.0219395
0.59805
-0.304279
0.0453585
-0.0754875
-0.0496262
-0.437347
-0.0260556
-0.261879
0.320656
0.583814
0.66945
0.935967
-0.7154
-0.920941
0.0244245
0.390391
0.202275
0.0448369
-0.491293
0.0502754
-0.320467
0.929296
0.641159
-0.383783
0.362606
0.184883
0.671638
0.00295145
0.415281
0.841485
-0.0739738
-0.760617
0.39079
0.952199
0.603469
0.382834
-0.141364
0.626201
0.122037
0.622848
-0.509263
0.169722
0.642992
-0.632564
-0.445053
0.157968
-0.720406
-0.134591
-0.576196
0.387534
0.791842
0.558303
-0.230372
0.968434
-0.30796
0.651903
0.408589
-0.663212
0.34139
0.480929
0.217243
-0.0497015
0.074588
-0.670575
0.909601
-0.0875083
0.0844151
0.520167
-0.326555
-0.802396
0.307405
0.0225368
0.994776
0.297667
0.246487
0.712553
0.386785
0.679532
-0.0847108
0.833713
0.883368
-0.0541224
-0.700911
0.90365
-0.178894
0.965954
-0.802049
-0.455235
0.28055
0.374723
-0.834603
-0.445989
0.569324
0.997045
0.47026
-0.354349
0.951401
0.948029
0.111361
0.377401
-0.505282
-0.93867
0.397028
-0.581604
-0.728877
0.675578
-0.153687
0.775087
0.92461
0.0310183
0.582065
0.647991
0.712585
-0.143537
0.456377
-0.243482
0.214542
0.421034
-0.484262
0.660569
-0.863762
-0.652965
-0.444693
-0.936156
0.360011
-0.207048
0.340808
0.467292
-0.578924
-0.390256
-0.313414
-0.806647
0.758129
-0.285787
0.146304
0.194143
0.635138
0.114604
0.851168
-0.891636
0.86437
0.439448
0.188281
-0.287915
-0.650741
0.402503
-0.138268
-0.3843
-0.0537048
0.90794
0.169834
0.630284
0.345815
0.228382
0.527299
-0.167109
-0.0623582
0.230757
-0.98151
-0.450459
0.888099
-0.52709
0.128753
-0.949886
-0.727936
0.821972
-0.814044
-0.138805
-0.908695
0.805454
-0.0603056
0.254189
-0.101245
-0.578973
-0.303279
0.844252
-0.729971
-0.681035
0.256913
-0.623816
0.663438
-0.652973
0.351229
-0.0149209
-0.496788
0.133006
-0.608041
0.486244
-0.363696
0.139208
0.766147
0.88799
-0.180486
0.543139
0.308156
0.999368
-0.457073
0.981628
0.634135
-0.335069
-0.98406
0.913185
-0.100861
0.401083
-0.328314
0.486392
-0.458234
0.547083
0.982465
0.805238
-0.923869
-0.79871
0.0679659
-0.0305446
-0.267082
-0.763804
0.87584
0.50202
0.92967
-0.068101
0.302456
-0.191539
0.937721
0.226116
-0.373675
-0.241194
-0.731819
0.81577
-0.305691
0.462918
0.32782
-0.800337
0.0232178
-0.712913
0.100321
0.218662
0.660756
0.281211
0.136321
-0.999174
-0.116135
0.0886421
0.810006
-0.39448
0.199193
0.552365
-0.885079
-0.163102
0.266556
-0.0782673
0.718842
0.529754
-0.188325
0.910777
0.99504
-0.892902
0.11791
-0.30955
0.426337
0.173861
0.614954
0.192274
-0.242601
-0.56072
-0.410132
-0.47705
-0.639841
0.166761
-0.573752
-0.671091
-0.179012
-0.234337
0.578006
-0.825595
0.802979
0.664293
-0.438642
0.466212
0.686453
0.068816
-0.541634
0.661634
0.430114
0.877571
-0.904216
0.427371
-0.433467
0.790703
0.867496
0.0594808
0.252707
-0.333293
0.553981
0.680563
-0.296611
0.617415
0.25612
-0.0748085
0.41677
-0.327822
0.953491
-0.497774
0.226139
-0.81126
0.56936
-0.587588
-0.321006
-0.141578
0.481679
0.388888
0.243235
0.655714
0.181298
0.424578
0.358565
0.855431
-0.0459852
0.373605
-0.906227
0.703126
-0.0267348
0.944605
0.865126
-0.283171
-0.961854
-0.995601
0.640519
-0.464766
0.869386
-0.0423438
0.513262
-0.0557384
-0.355218
0.225241
-0.480679
-0.202076
-0.784876
-0.448303
-0.0506684
0.356138
-0.431633
-0.0336478
0.21406
-0.800857
0.969313
0.554323
0.238763
0.740188
0.477252
-0.379174
0.521944
-0.337387
0.456086
-0.62809
0.36466
-0.155768
-0.486453
0.544571
0.447006
-0.336036
-0.00739444
0.463095
-0.105438
-0.968841
0.807258
0.889576
-0.228971
-0.112486
-0.91401
0.227596
-0.496451
-0.7983
-0.120349
-0.35923
-0.406559
-0.783008
-0.584392
-0.0243824
0.627273
0.411788
-0.37687
-0.400561
0.403354
0.492937
-0.13437
0.210495
-0.218368
0.481183
-0.736958
-0.259886
-0.723857
0.554592
0.153937
-0.658664
-0.343559
0.265961
-0.01154
0.694951
0.461607
-0.157248
0.366086
0.035697
0.403408
-0.318554
0.56153
0.0985011
-0.357437
0.867884
0.353114
-0.408698
-0.401648
0.255303
-0.210336
-0.0441892
-0.821176
0.64847
-0.491834
-0.927947
-0.659339
0.545798
0.130822
0.586146
-0.576172
-0.622902
-0.816825
0.95164
-0.553674
0.534572
0.499905
0.733922
0.0112452
0.100712
-0.0798386
-0.444933
-0.514601
0.151302
0.990465
0.234822
-0.431043
0.578696
0.0500961
-0.675273
0.815705
-0.644043
-0.550762
0.317642
0.833645
0.936237
0.289161
-0.57211
-0.634937
0.174955
0.306078
0.123078
-0.420082
0.658132
-0.0742667
0.861117
0.42776
0.824602
0.444437
0.353554
0.825994
0.661272
-0.948277
0.118179
0.348923
0.0218735
0.706263
-0.731333
-0.924301
-0.766577
-0.518819
-0.790437
-0.951601
-0.108147
-0.842687
-0.896621
-0.861132
0.0569529
0.680768
-0.971477
0.372939
0.0542244
0.337629
-0.381552
0.488461
-0.950441
-0.514891
-0.247275
-0.243369
-0.184764
0.520479
-0.587857
0.243119
0.893559
0.809849
0.618795
-0.3243
0.139939
-0.0275319
0.77961
0.798344
-0.0895267
-0.685311
-0.626432
0.360813
-0.0619167
-0.31918
0.757234
-0.248776
0.250409
-0.24955
-0.626291
-0.0141602
0.302201
-0.881862
-0.0681177
-0.481358
-0.958146
0.479679
0.129164
-0.722701
0.369792
0.722718
0.0824493
0.210649
0.924165
-0.97885
0.385026
-0.311634
0.460409
-0.536898
0.560732
0.448797
-0.074835
0.849082
-0.812426
-0.54806
0.901131
0.895166
0.294993
0.219927
0.837347
-0.497326
0.681997
0.0830208
0.310317
-0.925922
-0.369211
0.783766
-0.727559
0.0358364
0.261612
0.102633
0.679017
0.16673
-0.814843
-0.581513
-0.0492979
-0.456308
0.145249
-0.16446
-0.0516347
-0.846576
-0.35664
-0.635691
-0.816628
-0.462619
-0.091156
-0.261209
-0.338956
-0.0689612
0.170104
0.841776
-0.766443
-0.29563
0.200616
0.734792
-0.720288
0.460717
-0.217571
0.717165
-0.256435
-0.32551
-0.336301
-0.0808925
0.139882
0.246662
0.269143
0.0901748
-0.473354
-0.66273
0.979126
-0.820009
-0.782147
0.851307
0.724849
0.999501
-0.600683
0.469382
-0.581492
0.834623
-0.324897
-0.0830215
0.182439
-0.581794
0.0676941
0.91191
-0.131526
0.143311
-0.0779586
0.127271
0.104477
-0.385618
0.698211
0.111201
0.383539
-0.380403
-0.605567
-0.290392
0.554779
-0.0197614
-0.92973
-0.273246
-0.190162
-0.282965
-0.606696
-0.0716915
-0.117645
-0.606787
0.204788
-0.227825
0.565213
-0.4686
-0.530517
0.362575
-0.707909
-0.25004
0.943701
0.917737
-0.455909
0.628341
0.95521
0.127193
0.181556
-0.87521
-0.765332
0.341288
-0.666291
-0.0684748
-0.275657
0.930406
-0.770952
0.0223419
-0.074919
-0.717581
-0.850581
-0.168279
-0.239402
-0.493497
0.0700783
-0.865613
-0.53622
0.849546
-0.897838
0.0495179
0.752204
-0.958277
-0.640748
-0.963585
0.271527
-0.73943
0.975357
-0.849624
0.973946
-0.326617
0.723489
0.6149
0.322818
0.0165797
-0.155348
0.665081
0.821908
0.562982
0.149309
-0.277428
-0.240855
-0.620649
-0.380793
0.639894
0.234026
0.641081
-0.85125
0.828234
0.235899
-0.52912
-0.291438
-0.548865
0.573749
-0.160395
0.572585
-0.145992
0.308976
-0.493873
-0.209319
0.702267
-0.764197
-0.795803
0.488347
-0.444905
-0.227949
0.863817
-0.724648
-0.918367
0.494472
0.583673
0.905581
-0.696154
-0.805609
0.746718
-0.724841
-0.779308
-0.149134
-0.521024
0.924953
-0.675822
-0.268765
-0.728511
-0.165423
0.168462
0.913774
0.346443
-0.144118
0.331409
0.245957
-0.995632
-0.912757
-0.660365
-0.6312
-0.101876
-0.853088
-0.2036
0.54715
0.933099
0.0609207
0.786751
0.253663
0.957464
0.0657007
0.880414
-0.76694
0.152975
-0.241467
-0.664906
-0.174821
0.1959
0.107223
-0.0630026
-0.881795
-0.509585
0.899176
0.616863
0.298273
-0.117594
0.450413
-0.103293
-0.83619
0.951577
-0.0811774
-0.651538
-0.877035
-0.228276
0.315466
0.631227
0.785575
0.16494
-0.873195
-0.474603
0.311704
-0.743749
0.162223
0.936451
0.372455
0.47741
0.712344
0.581185
0.90216
0.545452
-0.501157
-0.829784
0.444696
0.0655324
-0.140856
-0.767723
0.033125
-0.983153
0.968054
0.104802
-0.614494
0.953563
-0.157307
-0.94722
0.561382
0.649229
0.8274
0.813563
-0.573567
0.500273
0.28317
-0.0626189
0.747481
-0.640203
0.00620374
0.835831
0.244703
0.84545
0.938524
0.893378
-0.823715
0.748121
-0.231248
0.534933
-0.800165
0.860575
-0.785053
0.882108
-0.7261
0.00963648
0.941583
-0.544514
-0.671352
-0.279557
-0.427083
-0.236062
0.814329
-0.921398
-0.703517
-0.468388
-0.899459
0.610204
-0.443467
-0.534534
-0.434842
-0.833718
0.0635224
-0.422611
0.722786
0.336154
-0.297982
-0.0320435
-0.956612
0.74197
0.57358
-0.0346047
0.666847
0.736187
0.611875
0.190991
0.154122
-0.105577
0.516327
-0.119949
-0.792382
-0.00015036
-0.442711
-0.772236
0.753527
-0.354159
-0.618872
-0.665453
-0.211022
0.597309
0.501759
0.599939
0.311475
0.0666715
0.391286
-0.615103
-0.472731
0.174531
-0.406168
0.800879
-0.635743
-0.174845
-0.043573
-0.307655
0.512441
-0.791119
-0.564975
-0.0788084
0.951081
0.78609
0.886792
-0.928158
-0.946056
0.922105
0.0969788
-0.556661
-0.894127
0.911344
0.70293
-0.524341
-0.875828
-0.208697
-0.213647
-0.472919
-0.479304
-0.764171
0.408611
0.140218
0.0315444
0.378098
0.56251
-0.367462
0.946036
-0.253474
0.581163
-0.137128
0.793127
0.765265
0.065173
0.843354
-0.0476994
0.480363
-0.483099
-0.355676
-0.153616
-0.198751
-0.658639
0.151033
0.265065
-0.657914
-0.646451
-0.495634
0.185204
0.658747
0.893885
0.356237
-1.01077
-0.0942993
-0.224624
0.30908
0.393718
0.102257
0.235845
-0.290227
0.636372
-0.346746
0.831639
0.639943
0.0577174
-0.264997
-0.00391423
0.49094
-0.57917
-0.421491
0.729641
0.396634
0.754232
-0.372093
-0.249017
-0.337009
0.821944
-0.102542
0.202555
0.855571
-0.719114
-0.309696
0.530974
-0.95362
0.621533
0.233374
-0.862487
0.422036
0.797877
0.16546
0.192361
0.496567
-0.892137
-0.0400277
0.595621
-0.451622
0.116546
-0.529902
-0.519971
0.133391
-0.204471
0.76573
0.863159
0.520167
0.862474
-0.667207
0.284829
-0.254534
0.0702983
-0.313059
-0.814385
0.888441
-0.198375
0.777456
0.708266
-0.198021
-0.500439
-0.13586
-0.618083
-0.606911
-0.427049
0.182326
-0.517195
0.0838776
0.927517
0.217319
-0.78195
0.676169
-0.435028
-0.248065
-0.00642039
-0.907316
-0.385562
0.402421
-0.324613
0.717494
0.236048
0.46291
-0.0526035
-0.350357
-0.75136
-1.01823
0.71648
0.383046
0.81399
0.839899
0.0374755
0.709137
0.0254419
0.983862
-0.364808
-0.322335
-0.907857
0.90066
0.37281
0.656309
-0.975596
-0.087903
-0.0111157
-0.222245
-0.205762
-0.0237148
0.692072
0.546696
-0.442516
0.862321
-0.876441
0.49353
-0.68619
-0.0675356
-0.085504
0.884264
-0.819132
0.321575
-0.119532
-0.93436
-0.11642
-0.193669
0.307626
-0.956772
0.674946
-0.949876
0.687044
0.453797
0.328524
0.510057
-0.8517
0.357151
-0.382777
-0.668903
-0.977577
0.791791
-0.116407
-0.224478
0.879765
-0.306644
-0.526398
-0.37676
-0.694722
0.531451
0.327009
0.601792
-0.452449
-0.756505
0.442055
0.740528
-0.331673
0.658658
-0.903066
0.174518
0.765835
0.408143
-0.0158277
-0.626466
0.102193
-0.540925
0.805641
0.933569
-0.624573
0.290308
0.168863
-0.428209
0.564396
0.595274
-0.48683
-0.419725
0.57441
0.563842
0.0276643
0.21135
-0.735922
0.0981801
0.373235
0.906063
0.20101
0.457337
0.554175
-0.661849
-0.416674
0.770107
-0.397055
-0.211057
0.905594
0.96105
-0.127007
0.231314
-0.398627
-1.00401
-0.922675
0.202731
-0.827205
1.00197
0.400938
0.56942
0.821149
-0.891968
-0.952966
-0.887033
0.401395
0.540921
0.262808
1.04952
0.0603766
-0.262039
-0.551483
0.0224912
-0.1108
-0.407407
0.334571
0.576403
0.27978
-0.63861
0.219193
-0.756885
0.440667
-0.979238
-0.82262
0.113185
-0.104584
-0.0995408
0.758973
0.344656
0.65496
0.0229815
0.0208994
-0.0966019
-0.445986
0.206378
-0.219225
-0.689126
-0.103272
-0.940274
0.367211
0.944581
0.919053
0.491586
-0.679665
0.523872
-0.335953
-0.17051
0.439914
-0.190444
0.78343
0.288963
-0.59419
-0.038443
-0.260979
-0.205652
-0.696285
0.12168
0.52208
0.375298
0.0778987
0.854302
-0.60158
-0.886964
0.418691
-0.906389
-0.817586
0.962557
0.525672
-0.389364
0.223142
0.947541
0.844323
-0.432822
0.720602
0.301621
0.705654
-0.128578
0.641958
-0.775451
-0.930188
0.726081
-0.776734
-0.977773
-0.549258
-1.01262
-0.852066
-0.460349
-0.872168
-1.01141
-0.724829
-0.608046
-0.268179
0.245136
-0.288246
-0.989266
-0.656154
-0.0722917
-0.19282
-0.63603
-0.00497142
1.02256
-0.463084
-0.528448
0.854231
-0.75837
-0.401721
-0.339162
-0.8119
-0.819753
-0.532076
-0.836686
-0.530603
-0.286932
-0.532163
0.349593
0.172629
-0.576131
0.889323
-1.05007
0.395234
-0.822496
0.53594
-0.0208892
-0.501331
-0.864435
0.248635
-0.0467241
-0.828235
-0.684697
0.326457
0.221217
0.47965
-0.120033
0.501363
0.733648
0.783851
0.786415
0.163774
-0.030102
0.105096
-0.378261
0.872977
0.555513
-0.700625
0.162519
-0.318201
0.267791
-0.859994
-0.305711
0.00861999
-0.569232
0.752407
-0.578723
0.402138
0.964475
0.868553
-0.705751
0.555512
0.274949
0.00152642
-0.493301
-0.660266
-0.706772
-0.376286
-0.897114
-0.266922
0.803811
0.822117
0.348504
0.857074
0.882974
0.280254
0.834246
0.605667
-0.853917
0.195761
-0.434912
-0.0218968
0.0740797
-0.63093
0.91835
-0.57183
-0.47656
-0.404128
0.783503
-0.0616915
-0.483448
0.170321
-1.07497
0.516531
-0.0719542
0.2869
0.370337
0.674221
0.435561
0.490236
-0.238695
-0.586948
-0.673558
0.399148
-0.630797
-0.609268
-0.114926
-0.331348
0.251722
0.778635
0.319994
0.652352
-0.763671
0.354626
-0.0320128
0.501227
-0.252013
-0.447708
-0.774658
0.736809
0.799171
0.692858
-0.848294
0.723854
-0.127667
1.02952
0.431932
-0.155716
0.516561
-0.953221
0.185007
0.933953
-0.66744
-0.123447
-0.293777
-0.00746623
-0.339502
-0.726114
-0.948283
0.806406
-0.181021
-0.84009
0.0785146
0.867305
0.767609
-0.720606
-0.860286
0.504524
-0.329673
-0.282248
0.310775
-0.497598
0.927321
0.463985
0.284567
-0.877383
0.144776
0.661509
-0.959086
0.765052
-0.0498524
-0.489834
-0.394526
-1.12572
-0.583504
-0.55106
0.172117
0.0142948
-0.282732
-0.470973
0.447093
0.237544
0.0326528
-0.817399
0.732744
0.802627
0.261666
-0.585966
-0.0323403
0.952777
0.687356
-0.619441
0.513793
0.897449
0.204027
-0.31819
-0.875255
-0.576206
-0.441542
0.312327
0.724211
0.100325
0.665385
-0.182338
-0.0927476
-0.695086
0.542386
0.803362
-0.828838
-0.973564
0.330634
0.148647
0.362263
-1.12427
-0.534071
0.141336
0.475255
0.101819
-0.855263
0.332096
-0.722653
-0.113979
-0.751549
0.53107
0.318577
0.824815
0.713524
0.434276
0.721216
0.61079
-0.951117
0.111477
0.526353
-0.148185
-0.674894
0.883353
0.694791
0.837557
0.354251
0.231878
0.843334
0.249072
-0.787752
0.534919
-0.515018
0.49482
0.204036
-0.916845
-0.342233
0.23131
0.112647
0.00187828
-0.703625
-0.575846
0.464113
0.685295
0.669207
0.909539
-0.712764
0.0665566
-0.576463
-0.452629
0.259671
0.938963
0.282311
-0.872341
0.109219
0.0304155
-0.118033
0.825521
-0.339331
-0.481202
-0.883871
0.752345
0.47522
0.512608
-0.156932
0.996789
-0.16352
-0.578681
0.576381
0.857007
0.201272
0.512456
-0.6603
0.954455
0.615417
0.73598
-0.477395
0.984094
0.678124
0.748946
-0.74023
0.344496
-0.820166
-0.552413
-0.744712
0.0714878
-0.536084
0.66852
-0.435942
0.11304
0.126006
0.39131
0.142559
-0.449768
-0.633797
0.115386
-0.948014
-0.0548279
-0.8227
0.475829
1.16564
0.196266
0.0341086
-0.689241
0.311379
0.728931
-0.209077
0.239652
-0.0651306
0.319876
1.30727
0.428865
0.33317
0.238393
-0.151878
-0.799231
0.374275
1.07176
0.639628
-0.187655
0.859399
-0.498352
0.526925
0.499833
0.497625
-0.80433
0.196246
0.670479
0.058701
1.06648
-0.790228
1.1369
0.604599
-0.503646
0.754106
-0.628677
-0.0864356
-0.576346
0.0897386
0.40447
-0.326939
0.142729
0.0723629
1.12551
-0.575104
0.123179
0.0344136
0.190714
0.662882
0.719662
0.340464
0.491527
0.804517
0.776972
0.633823
0.00465482
-0.154583
0.175464
-0.910814
-0.331696
-0.219581
-0.724481
0.504635
1.04916
-0.372953
0.0871541
-0.987341
0.642448
0.579804
0.70275
-0.58764
0.642726
-0.419538
-0.141388
0.140764
-0.694447
0.464653
0.599845
-0.287057
0.896296
-0.026691
-0.691062
0.902774
-0.134136
0.311247
0.918725
-0.569303
-0.48888
0.233201
0.0897988
0.611013
0.231882
-0.626133
0.32262
-0.239763
0.465206
0.258902
0.646577
0.754274
-0.575339
0.547618
0.359238
0.350491
0.833461
-0.9126
-0.644411
0.72018
0.680999
-0.618014
1.00569
0.277284
-0.785487
-0.648784
-0.503566
0.112607
-0.905707
0.947769
0.879465
-0.284143
0.145353
-0.446082
-0.882656
-0.280959
0.965281
0.544436
-0.409599
0.672682
0.501784
-1.0505
0.317051
-0.453265
0.765593
0.268745
-0.239082
-1.23204
-0.190022
0.398988
1.06988
-0.0373537
-0.352638
-0.612238
0.34075
-0.309717
1.19847
0.816894
-0.164236
0.492258
-0.504763
-0.454742
0.347166
-0.561514
-0.0198556
-1.03468
-0.277132
0.287643
-0.336125
0.503596
0.309025
-0.591538
0.409072
-0.801559
0.147588
-0.698087
0.552473
-0.627091
0.0651644
-0.775622
-0.513881
0.595141
1.05547
0.654402
-0.307355
0.146017
-0.979723
-0.0469286
0.020361
-0.214837
-0.294346
-0.392272
-0.859692
0.0679527
0.945552
-0.247691
0.517769
0.0513479
0.571531
0.270544
-0.0820528
-0.03597
-0.637511
-0.809092
-0.246313
-0.797375
0.724727
-0.570821
-0.0371748
-0.432657
-0.619844
1.06455
-0.510331
1.22985
-0.773836
-0.0571322
-0.489848
-0.497344
0.368779
-0.952453
-0.894662
0.833987
0.610622
0.0814396
0.503551
0.705909
-0.0365314
-0.152697
0.890361
0.703467
0.0785713
0.779215
0.343
0.449774
-0.732898
0.530065
1.00276
-0.755381
-0.82946
0.327642
-0.377288
-1.0432
0.111372
-0.911359
0.162586
-0.292195
-0.42638
0.777661
0.347601
-0.150626
0.695448
0.780162
0.618949
-0.626698
-0.349942
-0.20497
1.28341
-0.831988
0.836844
0.326324
0.535284
-0.276643
1.02728
0.00356323
0.0413547
-0.682913
0.6191
-0.247612
0.596786
-0.220915
-0.698988
0.505452
0.367357
-0.883291
-0.275319
0.597127
0.670622
-0.516517
1.23503
0.867759
0.786862
0.573896
-0.412045
-0.138698
-0.905399
0.669286
-0.322529
-0.281475
-1.02747
0.197772
0.877476
0.367677
0.468832
0.945954
0.849641
0.460656
0.36094
0.877815
-0.416385
0.444316
0.365441
-0.0527186
0.227929
-0.677128
0.414596
-0.338102
0.713862
-0.176742
0.519513
-0.107108
0.0140794
-0.758805
0.230873
-0.496171
0.146484
0.266308
1.0348
-0.436847
0.0793057
0.10718
0.673386
0.760932
0.390859
-0.11284
-0.803843
-0.60354
-0.587379
0.622158
0.120317
0.00698053
-0.196007
-0.647153
1.0759
-0.157275
0.52395
0.865028
0.336761
-0.476168
-0.330393
-0.970043
-0.488838
0.674605
0.677224
-0.33888
0.480664
0.355101
0.963813
-0.79896
0.226001
-0.263189
-0.417055
0.0337847
-0.124631
0.712927
-0.322258
0.355042
0.0383539
-0.0583625
0.292268
0.69834
-0.533928
0.328049
0.352581
0.338346
-0.603601
-0.882988
0.380497
-1.01331
0.77231
-0.0551383
0.119096
-0.880986
-0.774659
-0.660101
0.453066
-0.117867
-0.116331
0.542813
0.134132
1.00606
-0.480259
-0.704083
1.23477
-0.680864
-0.490702
-0.0216346
-0.294056
-0.3347
0.780892
-0.170786
-0.845437
-0.653555
0.0233048
-0.396821
-0.43216
0.278242
0.0195273
-0.685679
0.491458
0.721704
-0.550832
-0.142859
-0.0454306
0.533754
-0.57898
-0.15753
0.55405
-1.013
0.196866
0.295288
-0.608452
0.497706
0.69932
0.699271
0.377425
0.179015
1.03258
-0.443858
-0.0400978
-0.0557863
0.865093
0.638813
-0.430496
0.217253
-1.10582
0.367414
-0.263818
0.389814
-0.468354
0.163145
0.730327
0.165836
0.444033
-0.971879
-0.916712
-0.57738
1.13443
-0.98894
0.273175
0.492038
0.183855
-0.784942
0.401048
-0.142783
0.547666
0.43927
-0.197177
0.563297
0.0595915
-0.910462
0.660547
0.63584
0.444131
0.149721
-0.00215978
0.82785
1.42929
-0.361794
-0.106858
0.190472
-0.933777
0.413567
0.741343
-0.937625
0.921846
-0.348256
0.331888
0.722636
0.941275
0.591606
0.112484
0.0842574
-0.683399
-0.804801
-0.612428
-1.2027
0.504707
-0.0959405
0.855
0.839065
0.881081
0.292079
-0.737439
0.170117
-0.617725
0.44166
0.927125
0.47379
-1.07834
-0.052257
0.365809
-0.134986
0.381553
0.622047
-0.281037
-0.508639
0.504746
1.02176
0.9866
-0.730229
0.151569
0.63167
0.442268
0.0664689
-0.431295
0.848682
0.267495
-0.263481
-1.06132
-1.38844
-0.144408
0.556152
0.648868
0.0592113
-0.00791225
0.111706
-0.239469
0.966287
-0.074721
-0.71286
0.652529
0.0509871
1.07338
0.842779
-0.0820398
-0.309965
-0.583836
0.615654
0.0270826
0.549311
0.610067
0.179222
1.32686
0.922334
-0.0912384
-0.627034
-0.0885253
-0.111715
0.355471
-0.01805
-0.207116
0.248935
-0.531171
-0.194715
0.5301
0.50311
-0.697313
-1.05567
-0.360497
-0.319079
0.446775
0.412343
0.710688
0.637553
0.590107
0.230767
1.02726
-1.00341
0.66398
0.540357
-0.302556
-0.248989
0.2957
0.476161
0.265632
0.505344
-0.476506
-0.640458
1.14562
0.386873
0.0712729
-0.407341
0.0511748
0.411939
-0.696907
-0.89587
1.2492
-0.246138
0.793705
0.87728
-1.01411
-0.145562
0.86239
-0.184574
0.412848
0.868321
0.373772
0.49431
0.641624
0.283248
0.348749
0.262742
-0.140987
-0.73506
0.21533
0.76892
0.290567
-0.57168
0.167289
-0.259396
-0.0521151
0.951462
1.23328
-0.751652
0.503917
-0.0801215
0.12247
0.636464
-0.121829
0.315973
-0.228948
0.915705
0.0908642
-0.637684
0.562447
0.222659
-0.781493
0.47002
0.0663517
-0.247755
0.28854
0.883931
-0.127957
0.0383937
-0.444603
0.811569
-0.42462
0.689291
-0.343051
0.0720429
-0.132919
0.0833248
0.769269
0.464595
-0.452715
0.280535
0.719117
-0.25059
0.60667
0.75934
0.947225
-0.467876
-0.409792
-0.89987
-0.617659
-0.567312
-0.655475
0.0135611
-0.0414649
0.99626
0.263861
0.19837
0.124131
-0.716275
0.504907
0.937277
0.845664
0.760106
0.360349
-0.300992
0.136055
0.158467
0.773981
-0.234296
0.113783
-0.776865
0.536012
-0.257344
0.480955
-0.171773
0.0583473
0.350535
0.0455665
-0.8559
0.0376672
-0.069895
-0.207826
-0.746516
-0.241249
-0.231637
0.0183395
0.0455144
-0.376925
0.796744
-0.485555
0.396932
0.937133
-0.332117
0.293268
-0.0124117
0.31164
0.187332
-0.334742
-0.138218
0.702505
-0.586244
0.723229
0.317421
-0.44109
0.68753
-0.0592391
0.690727
0.0447844
-0.35088
-0.0521087
0.473683
-0.407404
-0.205752
0.373718
-0.941344
0.475633
-0.733671
0.602607
-0.676191
-0.5547
0.241463
-0.0308672
0.39424
-0.0219107
-1.12338
0.0668397
-0.0908658
-0.0853326
1.04096
-0.31123
-0.0121749
0.966815
-0.806936
0.900278
-0.52524
0.0318044
0.358486
0.773007
-0.12006
-0.25714
-0.145975
0.372043
-0.951146
0.483089
-0.489269
0.721791
-0.734706
1.05426
0.36997
0.973578
0.105804
0.0656363
-0.0024098
-0.901512
-0.881623
0.803242
-0.556422
-0.774507
0.592893
0.488998
-0.16662
-0.60424
-0.665341
1.02412
-0.41131
-0.789529
-0.521833
-0.640527
-0.0404563
-0.182195
-1.10681
0.218128
-0.614586
0.518701
-0.0491458
0.974819
-0.458046
-0.648106
0.807449
0.481024
-0.600286
-0.255474
0.546477
-0.566704
0.664362
-0.137327
-0.337508
0.0881677
0.631013
-0.799267
0.304522
0.0308251
0.964326
0.493938
-0.616101
-0.519216
-0.0396208
-0.418865
0.770279
0.0896395
-0.877987
0.971375
-0.667219
-0.467594
-0.142803
0.461855
0.159238
-0.315863
0.859245
0.52994
-0.853309
-0.568337
0.293579
0.891543
0.194747
-0.833846
-0.191267
0.160444
0.066132
0.804711
0.489099
-0.0575053
0.892665
0.17106
0.11069
0.553153
-0.635212
-0.603568
-0.163169
0.304153
-0.232851
0.510197
0.859916
-0.545737
0.330793
-0.719259
-0.91282
-0.0695227
-0.970173
-0.725145
-0.0110907
0.218926
0.094078
-0.503078
-0.0600677
0.998932
0.0785417
0.102363
-0.697568
-0.531133
0.674907
-0.745246
-0.413289
-0.987185
0.650779
-0.623452
0.98417
-1.02606
0.427675
0.566004
0.628499
0.319438
-0.31633
0.647609
0.153778
0.184569
0.293668
-0.105369
0.142
-0.496127
-0.745609
-0.851975
0.145935
1.00353
0.501004
-0.542124
-0.638768
0.28997
0.774351
0.759799
-0.382799
0.670492
-0.129833
-0.575005
0.106355
-0.828605
0.999997
-0.216835
0.679419
0.621181
0.903739
0.126982
0.448293
-0.92175
-0.266171
-0.544682
0.499106
0.20751
-0.548073
0.692055
0.0474043
0.515039
0.953069
-0.375458
0.065753
0.28417
0.632982
-0.428717
0.629759
0.029303
0.466744
-0.0392055
-0.364244
-0.29827
0.722907
-0.0434959
0.866083
0.803944
-0.0670134
-0.993427
0.590752
0.413489
-0.459769
-0.508493
-0.991156
-0.311959
0.565889
-0.710543
-0.786982
-0.673746
-0.200399
-0.514257
0.660018
0.278955
0.325305
0.390374
0.735336
-0.457312
0.032179
-0.902959
-0.160856
-0.649156
-0.266424
0.553654
-0.314223
-0.698712
0.904608
0.179404
-0.0608446
-0.286265
-0.197386
0.0668418
0.696471
-0.946962
0.714737
-0.772005
-0.386962
0.0882993
-0.750727
-0.210404
-0.418588
0.347429
0.208188
0.431344
0.377156
-0.61869
0.613653
-0.728919
-0.0948894
-0.608909
-0.675623
-0.261553
-0.571771
-0.717634
0.866274
-0.385965
-0.984328
0.438512
0.113376
0.523834
-1.0356
1.05347
-0.781138
0.582535
-0.159274
0.884008
0.991101
0.926072
0.519179
0.713729
0.853965
-0.632413
-0.325565
-0.890706
0.395936
0.576554
0.420352
0.573282
0.610423
0.87664
0.240183
-0.94413
0.409319
-0.49018
0.453324
-0.722725
-0.130714
-0.229796
-0.480799
-0.454363
-0.118066
0.527306
-0.811569
0.729987
0.454677
0.284227
-0.630577
0.271632
-0.280559
-0.446281
0.698825
-0.617239
-1.00075
0.0365548
0.338504
0.849701
-0.147724
-0.532837
0.229466
-0.267056
-0.440807
0.40057
0.204766
0.162401
0.39564
0.0656293
0.0791707
0.341906
0.70885
0.801473
-0.310697
0.603135
-0.0404803
-1.02503
0.174761
0.184972
0.967203
-0.0857934
-0.187234
-0.905216
-0.343069
-0.021009
-0.450597
-0.706736
0.035233
-0.269636
0.703794
-0.242573
-0.297381
-0.444544
-0.00261615
-0.820478
0.935726
-0.140302
0.587818
0.968371
-0.896796
0.719158
-0.222287
-0.738172
-0.262251
0.478021
0.019791
0.886958
-0.673702
-0.877339
0.748259
0.372835
-0.249974
0.249491
-0.589636
0.343107
-0.231802
0.786508
0.178498
-7.93778e-05
-0.810275
0.775213
-0.284691
-0.720046
0.0675937
0.258865
-0.949458
0.239631
0.852891
0.542848
-0.980766
0.154249
-0.755846
-0.627375
0.382992
-0.516509
0.58373
-0.0125583
-0.807147
-0.840158
0.216789
-0.204448
0.33489
-0.274802
-0.223913
0.0540165
0.415811
-0.866417
0.437541
-0.182622
-0.937045
-0.463832
0.63039
0.241137
0.799211
-0.137249
-0.0637194
0.47341
-0.0702461
0.760105
-0.440788
-0.491685
-0.0159957
-0.994379
0.733634
0.761595
-0.317537
0.509173
-0.925839
-0.523277
-0.535894
-0.289377
0.915143
0.346299
-0.238895
-0.750099
0.099856
0.609548
0.600887
0.681945
0.0736469
0.380675
-0.99315
0.935255
0.697758
0.914712
-0.619429
-0.234584
-0.733897
0.735392
-0.552263
0.320271
0.169279
0.709611
-0.105655
-0.859307
-0.404031
0.176515
-0.00599145
-0.78167
-0.313117
0.0339228
-0.799633
0.188603
-0.123131
0.388937
0.623467
0.155204
-0.323344
-0.0798606
-0.596091
-0.245833
0.727044
0.468769
-0.697223
-0.470024
-0.853492
-0.33593
-0.80773
-0.028878
-0.612478
-0.28664
-0.784699
-0.160414
0.614026
-0.253147
-0.655963
-0.281539
-0.362681
-0.844313
0.215884
-0.646814
0.0710114
0.643133
0.0430823
-0.548358
0.958754
-0.117398
-0.669031
-0.158671
-0.0530551
-0.0599505
-0.872452
-0.611052
0.312544
-0.30297
-0.69899
0.351603
0.636939
-0.725638
0.0526494
0.634444
0.131699
-0.00291208
0.396303
-0.309699
0.570076
0.683382
0.370144
0.686484
0.385519
0.576155
-0.744809
0.908608
-0.418811
0.0616788
-0.251842
-0.357902
0.623759
-0.467406
0.421564
-0.406461
0.0850915
-0.691703
-0.98282
0.26806
0.296571
0.517817
-0.690057
0.334348
-0.45777
0.269309
0.674332
-0.586095
-0.804172
-0.48361
0.212239
0.0164575
0.789481
0.818945
-0.863773
0.807085
-0.380825
0.185183
-0.886555
0.863153
0.940164
-0.311188
-0.0240588
0.642128
0.415087
0.626832
-0.589213
-0.170366
-0.670579
-0.903948
0.687995
-0.500992
0.215246
-0.542087
0.0465192
0.934028
0.584412
-0.391054
-0.0344591
0.950539
-0.554845
-0.175209
0.476101
-0.897622
0.63311
0.0527069
-0.409381
-0.821796
-0.645803
-0.525386
0.898636
-0.608124
0.441938
0.554541
0.173055
-0.938707
0.947373
0.0373661
0.28741
0.856335
0.358395
0.927265
-0.359099
0.581602
-1.00032
-0.348114
0.614056
0.866493
-0.574395
-0.0795206
0.671002
0.342329
-0.776991
0.576293
-0.810465
-0.151202
-0.690955
0.920986
0.817524
-0.751607
0.777369
-0.780505
-0.0341847
-0.695638
0.5913
0.691762
-0.624794
0.896987
0.606655
0.686602
0.779425
0.0197123
0.280918
0.566007
0.491711
0.114862
0.159433
-0.345635
0.575798
-0.870011
-0.952639
0.936239
0.447421
-0.690289
0.101836
-0.372728
-0.613766
-0.474572
0.978612
-0.27687
0.560443
0.790073
-0.831135
0.585112
0.639834
0.18283
0.697692
0.406009
-0.590231
0.0125962
-0.01436
0.815917
0.611017
0.124161
-0.0385734
-0.672458
0.376588
0.546384
-0.610174
-0.742346
-0.544079
-0.80716
-0.41925
-0.619512
-0.621572
0.141322
0.794642
0.828541
0.00795123
-0.336244
0.863943
0.422576
-0.741496
0.733445
0.0991921
-0.55969
0.68169
0.445666
-0.320279
-0.028909
-0.378831
0.949288
-0.307962
0.966918
0.630281
0.320653
-0.167722
-0.501378
0.724082
0.302008
-0.0854888
0.231809
0.341554
-0.29148
0.94488
0.315422
0.380026
0.410777
0.73629
-0.880266
-0.69356
-0.354654
-0.580824
0.0544866
0.33595
-0.297699
0.785652
-0.0310435
0.0163086
0.269446
0.399679
-0.388722
-0.426412
0.249174
0.13664
-0.37002
-0.42316
-0.396943
0.00839821
0.070239
-0.141874
0.403431
0.975393
-0.818238
-0.947394
0.442205
-0.642209
-0.907749
0.800009
-0.617944
-0.551676
0.0245197
-0.701955
-0.890142
-0.00462226
-0.347827
0.854775
-0.546794
0.0641759
0.251775
-0.146083
-0.630406
-0.829209
-0.624396
0.299409
0.433805
-0.584995
0.538178
0.931384
0.321219
0.369947
0.780827
-0.967299
0.824548
-0.055889
0.836044
-0.0834688
0.724621
0.248891
-0.608225
0.487586
-0.211305
0.715837
0.771821
0.0497965
0.195374
0.169291
-0.449555
-0.692849
-0.184305
0.911394
0.170052
-0.718797
0.771368
-0.291301
-0.664203
-0.739146
-0.683815
0.60157
0.353343
-0.647072
-0.335555
-0.667064
-0.35791
-0.36949
0.721672
-0.599525
-0.514292
0.581628
-0.244008
0.409969
-0.742084
0.887645
0.482937
0.103945
0.788608
0.414231
-0.0382472
0.673204
-0.153686
0.465905
0.233193
0.30862
-0.593842
-0.0923604
-0.161175
0.953809
0.73301
-0.333898
0.62375
-0.679703
0.699103
0.209734
-0.746397
0.542405
-0.125658
0.813391
0.149712
0.487867
0.59521
0.294808
0.755553
-0.0154743
0.722823
0.114292
0.721009
0.924583
0.0706992
-0.703033
-0.659722
-0.805462
-0.154195
-0.367946
0.512006
-0.554994
-0.597378
-0.790855
0.965221
-0.0980796
-0.537133
0.519292
-0.655557
0.836973
0.874949
0.76204
-0.240588
-0.157438
0.785357
0.170832
-0.758953
-0.539625
-0.702638
-0.0386758
0.14768
0.187733
0.259614
-0.0815478
-0.292025
-0.738296
-0.893012
0.707254
0.965
-0.202436
0.974564
-0.908036
-0.247138
-0.0411948
0.980472
0.0289215
-0.273157
-0.49474
0.510231
0.124021
0.412512
0.74556
0.417928
0.765494
0.898011
0.875791
-0.0473212
-0.913303
-0.731654
-0.891065
-0.337165
0.132286
-0.714422
-0.383699
-0.825735
0.159186
-0.0708649
0.695538
-0.593066
0.257427
-0.992119
0.236869
-0.790714
0.193231
0.645697
0.0587474
-0.954182
0.0972146
0.891103
0.288613
-0.582183
-0.639828
-0.882929
0.296441
0.641859
-0.186466
0.836698
0.717712
0.913935
-0.468803
0.19876
0.234177
-0.395696
0.365825
-0.577611
-0.703777
-0.340876
0.770613
0.971354
0.689722
0.194002
-0.382669
0.0371728
0.550894
-0.704234
0.43407
-0.752414
0.770393
-0.784191
0.934425
0.12571
-0.0252748
0.444798
0.424349
0.449495
-0.697732
-0.805845
-0.935613
-0.596324
-0.00444083
-0.658695
-0.0756768
0.185135
-0.275356
0.434242
-0.537643
-0.575568
0.00828906
-0.0931417
-0.972958
-0.951672
0.42782
-0.822693
-0.0404742
-0.429608
-0.895735
0.872355
0.866147
-0.761909
0.617273
-0.663231
0.0838534
0.727837
0.797248
0.388646
-0.084985
-0.742781
0.995202
0.682123
0.720724
-0.362434
-0.379266
0.181514
-0.643437
-0.748669
0.0188444
0.897338
0.871744
-0.541316
0.877281
0.299571
-0.868434
-0.353322
-0.227312
-0.857733
0.167894
-0.428646
0.0131748
-0.0425086
0.116248
-0.234901
0.400324
-0.524651
0.43076
-0.87839
0.568857
0.483806
0.822021
0.464946
-0.568374
0.618895
0.745634
-0.925404
-0.214984
0.793093
-0.560429
-0.227037
-0.524779
0.305357
0.374612
-0.499033
0.636311
0.141368
-0.551234
-0.720761
0.871096
0.851939
-0.367746
0.678857
-0.388288
-0.0419458
-0.362669
-0.358635
-0.817186
-0.709955
-0.962745
0.344529
-0.41541
-0.763988
-0.658341
0.409695
0.827667
-0.343147
-0.466249
0.547527
0.931852
0.214043
-0.0586816
-0.203388
0.569831
-0.590004
-0.291803
-0.818978
0.102424
0.449544
-0.665989
-0.955038
0.479684
-0.426934
0.791239
0.0487542
0.297959
-0.412428
-0.358792
0.799317
-0.579345
-0.71985
-0.290699
-0.113926
-0.832414
-0.62475
-0.11437
-0.687557
0.827404
-0.96261
-0.99417
0.300827
-0.428886
-0.408965
-0.475587
0.622838
0.556346
-0.93194
0.319006
0.0700763
-0.164072
0.730769
0.00398631
0.898281
-0.248336
0.926393
-0.740923
-0.404726
0.818728
-0.230659
0.479846
-0.398254
-0.136581
-0.774855
-0.689303
0.798084
0.961271
-0.0757843
0.979528
0.354707
0.420168
0.771551
-0.890836
0.150807
-0.415066
0.0261099
-0.463343
0.333338
0.404198
0.0803524
0.493691
0.473502
0.557514
-0.0999096
0.765968
-0.10026
0.992577
-0.981646
-0.726998
0.849849
0.734364
0.105667
-0.232358
0.547136
0.537148
0.388573
-0.191766
-0.0970033
0.585617
0.136962
-0.775839
-0.00818454
-0.61563
0.0757674
-0.895608
-0.0374674
0.147275
0.0266565
-0.00527879
0.608139
-0.214613
0.622874
-0.523253
0.613178
0.47921
-0.941186
-0.43279
-0.0477935
-0.311897
-0.224994
-0.0511301
-0.693415
0.594335
0.853004
-0.89811
0.402722
-0.131314
-0.551793
0.462835
0.765985
0.336521
0.309994
0.727192
0.0270021
0.73665
-0.582206
0.75138
0.895212
-0.390585
-0.501056
0.00607103
0.260719
-0.689854
0.195037
-0.0911818
0.987319
-0.845788
-0.272443
0.124755
0.586471
-0.980114
-0.610917
-0.820213
-0.865512
0.197488
-0.338343
0.621719
0.833879
-0.548931
0.400389
-0.363154
0.834854
0.685258
-0.0685208
0.280256
-0.346458
0.214948
-0.121587
0.938891
-0.345312
0.20554
0.912517
-0.65557
0.795381
0.839482
0.774358
0.796454
-0.837148
0.0121129
-0.327674
0.451758
-0.167999
0.646401
0.213266
0.557604
-0.530229
-0.857621
-0.997157
0.93213
0.114263
-0.544299
-0.483676
0.577516
-0.138987
-0.653208
0.361147
0.160869
0.669347
-0.357614
0.186935
0.386648
-0.304054
-0.306583
-0.373756
-0.505287
0.799017
0.634203
-0.901647
0.822547
0.157248
0.0808681
0.182438
-0.440528
-0.112609
0.128779
0.170739
-0.0849182
0.822169
0.991667
0.577006
0.9575
-0.340289
-0.662427
-0.661891
0.887573
0.299114
0.443944
0.159019
-0.313363
0.777767
0.179957
0.573897
-0.629582
0.217552
-0.0956875
0.712734
-0.369316
0.146881
0.678125
-0.868252
-0.484669
0.623394
0.343207
0.122092
-0.664304
0.865431
-0.275765
0.553313
-0.0480686
-0.00177063
-0.109009
-0.526782
-0.702915
0.46207
0.212373
-0.976903
-0.835159
0.904962
-0.578143
0.0636693
0.328664
0.51141
0.140065
-0.974322
-0.474073
0.0723631
-0.603846
-0.0208648
-0.647636
0.843352
-0.181373
-0.799613
-0.244841
0.794941
-0.595093
-0.32927
0.0859092
0.251293
-0.481487
0.745735
-0.876453
-0.326889
-0.0298961
-0.894436
-0.683771
-0.896861
0.221761
-0.194427
-0.616236
0.374038
0.445263
-0.0496354
-0.11134
0.901162
-0.470025
0.243711
0.93187
0.0887014
0.440017
-0.531915
0.582013
0.989994
0.613133
0.539062
-0.138279
-0.395398
-0.681219
-0.266217
-0.387733
-0.686797
0.79045
-0.189695
-0.520822
-0.819029
-0.667444
0.738359
0.193349
0.288192
0.942064
-0.991778
0.126131
0.695404
0.11543
-0.62119
-0.909359
-0.078517
0.401194
-0.77297
-0.551101
0.552215
0.744916
-0.668185
0.215948
-0.0848319
0.415723
-0.369183
-0.487663
-0.706851
0.846967
0.715379
-0.836639
-0.34319
-0.948231
0.136725
-0.260657
0.484926
0.0483714
-0.856734
1.00339
-0.785053
-0.834612
-0.37177
-0.0068089
0.612113
0.362159
-0.00583657
0.0448633
0.0325839
0.454198
0.991709
0.680554
-0.851293
-0.889694
0.342846
0.0620748
-0.554934
-0.352582
-0.921509
0.345136
0.246667
-0.897586
0.801553
-0.00869549
0.780613
0.546016
0.590957
-0.32138
-0.245296
-0.0591662
-0.235922
0.116944
0.852723
0.0131571
-0.0882596
-0.989674
-0.450843
-0.499833
0.234725
0.856703
-0.977141
0.919787
0.368255
-0.347955
-0.272609
-0.742691
0.872802
0.588548
0.57266
-0.191894
0.701245
0.106388
-0.243657
0.705021
0.454633
0.0246624
-0.875246
0.934631
-0.492459
-0.163272
0.779073
-0.616955
0.214526
0.018255
0.542393
0.856821
0.0920366
-0.211848
0.595802
0.039628
-0.80143
-0.829717
-0.513818
0.702456
-0.735729
-0.333271
0.810418
0.652865
-0.802719
-0.721037
0.234229
-0.730558
0.641203
0.242876
-0.139777
0.444629
-0.184445
0.358615
-0.556862
0.963676
-0.175947
0.913014
-0.694448
-0.140098
0.836763
0.407384
0.404115
0.608275
0.115736
-0.65773
0.730394
-0.00282928
0.98879
0.33226
-0.244539
-0.136546
0.334645
-0.254363
0.589669
0.80337
-0.0270813
-0.195663
-0.0384977
-0.947781
-0.372399
0.968337
-0.511331
0.731772
-0.678457
0.243748
0.582173
0.0971795
0.900138
0.150604
-0.370632
0.642262
-0.509255
-0.839184
0.162363
-0.472412
0.348094
-0.323491
0.116883
-0.670985
-0.334824
-0.0499362
-0.344182
0.84092
0.849755
-0.331165
-0.435415
-0.0457318
-0.781241
-0.244767
0.700267
0.236643
0.972275
0.759387
-0.904042
0.749188
0.0929625
0.677954
-0.554725
-0.97448
-0.0341023
-0.291544
0.951844
-0.273077
-0.71154
0.90785
-0.217319
-0.448864
0.328512
0.961217
-0.580856
0.449464
-0.552814
-0.095287
-0.572704
0.486491
-0.212467
-0.750152
0.234727
0.781721
-0.409559
-0.641723
0.347751
0.351212
0.98862
0.729075
-0.058386
-0.231269
-0.67017
0.396527
-0.35957
-0.680902
0.530941
-0.229982
-0.571666
0.710206
0.474841
-0.480852
0.10593
-0.129171
-0.459104
-0.51163
0.138314
-0.106456
0.944728
0.334297
-0.624196
-0.509239
0.863957
-0.763176
-0.148539
0.555549
-0.3802
0.0329504
-0.874804
-0.901836
0.319371
-0.696043
0.622799
0.589205
1.06232
0.00571694
-0.869532
-0.285988
-0.162547
-0.808114
-0.425759
0.795102
0.0338614
-0.591829
0.378483
-0.0588524
0.369761
-0.0129703
-0.593843
-0.992885
-0.944449
-0.645726
-0.676187
0.784859
0.513735
-0.641947
-0.913685
-0.101054
0.421957
-0.457366
0.0179691
-0.608787
0.530367
0.984097
0.0929583
0.107673
-0.327489
-0.189692
-0.669238
-0.78145
0.559133
-0.715696
0.645133
0.312219
0.226155
-0.0118934
-0.473221
-0.557713
0.347473
-1.03626
0.106969
0.516576
0.640103
-0.733841
-0.201352
0.14435
-0.776134
0.525101
0.192648
0.62792
0.0340971
0.109736
0.601989
-0.441563
-0.750896
-0.900044
-0.33312
0.0180476
-0.6742
-0.466957
0.890069
-0.897634
-0.73423
-1.04438
0.478792
1.01355
0.742364
0.373949
0.617874
0.665668
-0.715515
-0.502912
-0.365879
-0.237543
-0.920255
-0.0118896
0.402763
0.218459
-0.0817688
0.442512
-0.489591
-0.16066
-0.361963
-0.866957
-0.252699
-0.509909
0.432204
-0.351908
0.611246
-0.665375
-0.533167
-0.156617
0.250621
-0.829166
0.825895
0.099779
0.211809
-0.40632
-0.997469
-0.947785
0.894055
-0.645471
1.01887
0.745776
-0.887905
-0.108301
-0.135664
0.369448
0.633377
-0.778756
-0.483186
-0.73944
0.873231
0.685181
0.710465
-0.679686
-0.335992
0.0186147
0.182385
-0.185661
-0.335157
0.561387
-0.705289
-0.297215
0.0396049
0.253103
0.199008
-0.0143629
0.48862
-0.841685
-0.669378
0.820419
-0.565397
0.646986
-0.233667
-0.992504
0.0977268
-0.274244
0.713435
0.506406
-0.225667
-0.866267
0.135788
-0.744405
-0.354781
-1.00266
-0.175645
0.412154
0.71272
0.354708
-0.729453
0.911239
0.906297
0.831153
0.512404
0.602855
0.568801
0.126445
0.850979
0.69924
-0.417567
-0.467935
-0.749908
-0.812589
-0.579264
-0.679292
0.243474
0.244328
-0.685436
-0.883717
-1.10874
-0.753758
0.245453
-0.0395534
0.221594
0.201342
-0.0171014
-0.836558
0.0901228
0.178444
0.681139
0.111331
-0.638913
0.858762
0.886663
-0.487017
-0.634481
0.702886
0.298919
0.0218519
0.997357
0.517765
0.607304
-0.117937
-0.411613
0.887525
0.379616
0.368966
0.296548
-1.01692
0.279766
-0.919708
-0.172579
0.227019
0.717415
-0.368691
-1.0973
-0.0716096
-0.0640676
-0.342559
-0.598732
0.433797
-0.670637
0.717707
-0.748851
-0.497768
-0.50811
-0.929844
0.732994
-0.348484
0.115282
-0.308965
-0.759839
0.150095
0.0133864
0.117713
0.0900711
0.099029
0.317409
-0.904084
-0.115609
-0.967321
-0.199909
-0.790738
-0.250391
-0.472971
-0.847035
-0.440237
0.733285
-0.927034
0.0899642
-0.102727
-0.655103
-0.871617
0.0388675
-1.06833
0.582928
0.379294
0.11664
-0.807025
0.559957
0.00130171
0.660212
0.155726
0.297235
0.638753
-0.595914
0.00488303
1.04524
-0.927292
-0.796898
-0.39275
-0.761682
-0.212985
1.14575
-0.507988
-0.859078
-0.894499
-0.280314
-0.296371
-0.145075
0.106426
0.663257
0.594049
0.218721
0.122951
-0.580045
0.505196
0.452925
0.387668
0.517755
0.0800331
0.436335
0.65123
0.862358
-0.374339
0.138692
-0.792495
0.933146
-0.922609
-0.181239
0.397907
0.0507935
-0.935664
0.242905
0.756422
0.230498
-0.800855
0.667537
-0.662432
0.344214
-0.980972
0.95231
0.0280407
-0.547039
-0.157062
-0.544013
-1.03716
0.848487
0.0189767
-1.01314
0.652047
0.0197323
0.329514
-0.154026
-0.272019
-0.61582
0.840618
1.17221
0.866903
0.921567
0.912124
0.11154
-0.802768
-0.768081
0.0919096
-0.765173
-0.42469
0.308146
-0.502712
-0.153182
-0.540084
0.702702
0.490508
-0.791344
-0.377064
0.209099
0.8289
0.0978753
-1.12674
-0.666717
0.989442
0.161134
-0.913498
0.234758
-0.616267
-0.480412
-0.656138
-0.150064
-0.472608
0.45241
0.439918
1.11426
-0.0342854
-0.620507
-0.265916
-0.25126
0.0580497
0.909891
0.0463513
-0.554862
0.162221
0.325214
-0.534109
0.163489
0.503736
-0.347944
-1.13449
0.0290614
0.0476643
0.267233
-1.07767
-0.433978
0.806739
-0.737421
0.0874231
0.35225
0.00278133
0.912723
-0.428579
-0.352337
-0.697911
0.664912
0.6458
0.446568
-0.112109
-0.134479
0.366886
0.717886
0.673058
0.238194
-0.395544
0.0143051
-0.612
0.45827
-0.343711
-0.331065
-0.450819
-0.304891
-0.0495174
0.588865
0.679295
1.03139
-0.47812
0.949261
1.11254
-0.0715951
-0.705749
0.743773
0.263128
0.200837
0.112707
-0.188435
-0.667167
-0.252541
0.422695
0.110106
-0.0379213
-0.0942885
-0.735624
-0.98394
0.88544
-0.375002
-0.0941618
-0.597351
1.11538
-0.279592
-0.32977
1.13701
0.159755
-0.630049
-0.425005
1.0801
1.07955
0.838699
-0.245193
-0.147844
0.714812
-0.475074
0.361182
-0.879312
1.0058
0.241467
-0.352992
0.994199
0.00420709
-0.515874
0.507199
0.366538
-0.305909
-0.488671
-0.51145
0.314828
-0.128248
0.707769
0.103078
-0.198041
-1.04732
-0.43039
0.664419
-1.14652
0.0635078
-0.201329
0.227062
0.375736
0.432705
-0.0260095
0.332752
-0.471703
-1.16766
-1.06565
-0.760164
-0.246664
1.0393
0.711381
-0.709421
0.500555
0.0258802
-0.685036
0.399286
0.673215
0.40876
0.824212
0.277475
0.58483
0.0541974
-0.451896
-0.293223
-0.482072
-0.0139597
-0.656719
-1.43558
0.494245
0.0170036
0.517934
0.246135
0.442608
0.221192
0.110432
0.593833
-0.296151
0.141303
0.132861
0.842465
0.330791
1.22975
0.691698
-1.05185
-0.690995
0.154646
-0.578405
0.41805
0.843111
0.227517
0.804329
-0.680399
-0.568031
-0.467857
0.283853
-0.289251
-0.115019
-0.0128495
0.402461
-0.169637
0.496767
-0.0143769
0.812171
-0.204088
0.802699
-1.07016
0.736873
-0.037804
0.29008
0.799534
-0.788852
-0.539222
-0.23353
0.253101
-0.388278
0.500205
-1.03445
0.846679
-0.776059
0.443745
0.517204
-0.699744
-0.20229
0.532438
0.462181
-0.280146
-0.094365
0.745286
0.776726
1.15786
0.459151
-0.309443
0.733173
-0.000277195
0.886139
-0.799709
-1.09396
-0.364049
-0.0145371
-0.985333
0.122877
0.353946
0.225144
-1.39061
0.556109
0.0394501
-1.17815
0.0943623
0.889759
1.24366
-0.767532
0.259361
-0.0101324
0.738574
1.30527
1.06054
-1.00245
0.465537
0.812443
0.278411
0.540628
-0.699175
0.527209
0.85622
0.376519
0.490915
0.971579
-0.434804
0.38038
-0.917287
0.993628
-0.897606
-0.398535
0.243809
0.270819
-0.445524
-1.27611
-0.631685
0.499985
-0.310933
0.0429372
-0.657193
0.177434
-0.111167
0.552887
-0.359942
-0.833963
-0.162769
0.688354
-0.00635696
-1.08393
-0.0674787
0.273258
0.281998
0.348474
-0.245674
-0.0357837
-0.595836
0.0924389
-0.799957
0.269078
1.16026
-0.157881
-0.755701
1.15132
-0.684206
0.394785
-0.316954
0.831928
0.999349
-1.01486
0.540383
0.349666
-0.513315
0.623315
-0.0971146
0.319608
0.472817
0.809378
-1.34619
0.571588
0.43895
0.118663
0.462713
0.0141289
0.461646
0.10579
-0.336096
0.636167
0.235132
0.0416047
0.385938
0.19931
-0.554059
-0.260332
0.654097
-0.812602
-0.259693
0.749341
0.0114337
-0.144834
0.277167
0.49473
-0.0568005
-0.917826
-0.877862
0.252975
0.216009
1.36665
-0.393001
0.634947
0.492375
-1.05136
-0.526962
-0.3598
0.10361
0.437327
-0.0764644
0.641925
0.686511
0.757902
0.0254181
0.585104
0.28432
0.335467
-0.539156
0.702451
-0.0835762
-0.157268
-0.68295
1.06921
0.799981
-0.537792
1.22716
0.0871041
-0.986396
0.0978984
-0.116405
-0.39794
0.364904
-0.428408
0.569184
-0.699752
-0.258315
-0.661247
-0.373031
0.464049
0.316199
0.812125
0.861769
-0.124844
-0.85352
-1.31302
-0.313218
-0.233689
-0.132063
-0.223877
0.434239
0.191525
0.631327
-0.568957
-0.678337
-0.0372582
0.158782
1.23674
0.0286019
0.733471
-0.667967
0.542679
1.21992
-1.08526
-0.718346
0.258683
-0.887316
0.632712
-0.494042
0.20345
-1.16051
0.452152
-1.34047
0.385386
-0.382246
-0.469981
-0.175447
-1.58089
0.0271427
0.489725
-0.364642
1.743
-0.275795
0.368519
0.180957
0.727836
0.250786
0.797866
0.342965
0.560796
0.0604129
-0.981253
0.126361
0.246761
0.638212
-0.202951
-0.562861
0.665425
-1.33339
0.152233
-1.09403
1.45484
0.276391
0.10959
-0.528107
-0.945857
0.728869
0.825893
-0.165655
0.355792
-0.632208
0.996839
0.961182
-0.780388
0.340479
0.191312
0.704252
0.50165
0.595295
0.495784
0.32253
0.620907
-0.259979
0.580474
-0.0768441
0.620235
1.46823
1.11315
0.0591208
-0.60644
-0.19871
-0.285313
0.648085
0.115168
0.533854
-1.04866
0.0492469
0.707419
0.998263
-1.17068
0.618557
-0.185222
-0.455326
0.0422205
-1.33909
-0.744191
-0.375892
-0.0265904
0.524121
-0.622676
0.874993
0.444157
0.676414
0.711799
0.881259
-0.0279622
0.271501
-0.114602
0.0516525
0.707807
0.764124
0.0861973
0.174668
0.480158
0.581035
0.760939
-0.65484
0.749249
0.145673
1.16425
-0.406238
-0.665542
0.16896
-0.48673
-0.181895
-0.10285
0.415704
0.330114
-0.26263
-0.241435
1.53381
1.26083
0.886525
0.57836
0.28019
0.625219
-1.14315
1.00884
-0.643391
-0.724366
-0.163728
-0.208931
-0.221256
1.67002
-0.829221
-0.806515
-0.586899
0.949615
-0.993528
-1.45893
-1.50108
1.34522
1.25307
1.16328
0.0636133
-0.656977
0.0853527
1.03053
0.0804436
0.159345
-0.0216717
-0.179892
0.649352
-0.055557
1.03692
-0.47363
0.62149
-0.529477
0.563584
0.616179
-0.22527
-1.19038
-0.798603
0.104761
-0.352044
0.877014
0.125708
0.917507
0.422115
0.0854539
0.338475
0.500325
-0.750248
0.250606
-0.245992
0.0505112
-1.0757
-0.401573
0.891776
-0.846644
-0.403667
-0.0512475
-0.191156
0.261918
-0.664554
0.22364
-0.890872
0.460231
0.437129
0.53948
0.718049
-1.04355
-0.635588
-0.553477
-0.168132
1.39993
-0.427682
0.582585
-0.889363
-0.834278
-0.321656
0.599425
-0.238946
0.00092619
-0.145291
0.401217
0.0946401
-0.0126241
0.88598
0.719053
-0.733427
0.0456906
-1.34078
-0.69177
-0.705785
1.27747
-0.333921
-0.0198918
-0.925621
0.270275
0.521332
0.985978
1.04152
1.27478
-0.388555
-0.534111
-0.553148
0.734366
-0.804535
-0.563851
-0.519231
0.243974
-0.635354
1.10403
-0.439717
0.612366
-1.05264
-0.841612
0.412347
-1.30066
0.314785
1.25755
0.542339
0.724229
-0.51718
0.678832
0.653362
-0.344408
0.304893
0.839382
0.060093
0.133149
1.22969
0.594458
1.06528
0.618573
-0.784455
-0.546716
0.669627
0.753638
0.510212
0.205501
-0.175057
-0.359409
-0.190633
-0.0709651
0.852163
0.529992
-0.592081
-0.0789799
0.954556
0.0507314
-0.644125
-1.04442
-1.77956
-1.34892
0.0758273
-0.940046
0.618673
-0.048854
0.43888
0.08885
0.263293
0.508906
-1.40916
-0.764026
-1.23245
-0.0485471
0.358728
-0.00505956
-0.526425
0.531908
0.5953
0.390671
-0.344962
-0.147854
0.364211
1.23979
0.108492
-0.45178
1.16949
0.468129
0.342353
-0.877573
-0.0284969
-0.584489
0.660988
0.294077
0.899915
0.600193
-0.399123
0.616416
-0.822711
-0.601765
0.311055
1.45659
0.246511
-0.653748
0.0582094
0.54977
0.884129
1.22263
-0.561006
1.16563
-0.127908
0.290634
-0.126543
0.620349
-0.720646
-0.334078
0.39008
-0.0710522
-0.146936
0.121883
0.459408
0.652669
-0.154632
-0.0437927
0.15711
-1.0319
-1.53346
0.677007
-0.0923059
0.197765
0.742899
0.463904
-0.520538
0.935925
-0.459747
-0.197143
0.390684
-0.0637924
0.578816
-0.651406
0.930137
-0.201759
0.970969
0.305887
-0.524441
0.90771
-0.670557
0.112642
-0.863413
-0.272135
-0.582373
1.28827
1.33761
0.890576
-0.14463
-0.392131
-0.704532
-0.24733
0.644094
-0.866515
-1.24827
-1.35014
0.623468
-0.872438
1.41256
0.363099
-0.0222434
0.36849
-0.306476
-1.04873
0.104305
-0.283071
0.664198
0.731469
1.33748
-0.292067
0.388734
0.0580622
-0.212843
-0.85148
0.224721
0.141324
0.772378
0.00995141
0.596571
-0.0975886
0.559352
0.0646087
0.697362
-0.809563
-0.0505012
0.683365
-0.398523
-0.0853773
-0.704559
0.278719
-0.803594
0.751475
-1.35444
0.406236
0.0497632
0.568496
0.27482
0.201762
-0.263889
0.587636
0.159591
0.822752
-0.760785
1.42827
0.300961
0.865984
-1.02921
1.21685
0.355879
0.219441
-0.409745
-0.293228
0.206346
1.54621
-0.30129
-0.233009
-0.764491
-0.755268
0.820354
0.494036
-0.616997
0.883995
1.32255
-0.256044
0.721862
0.562316
0.453893
1.31817
-0.244373
0.619192
0.411334
0.754438
-0.178314
0.564275
0.294931
0.25054
-0.312993
-0.361959
-0.548067
0.0123104
0.933386
0.339119
0.481475
-0.412047
-0.139075
0.499108
0.871365
0.829169
-1.07043
-0.482266
0.489286
-0.426323
-1.20931
0.100427
-1.73441
-0.483265
-1.09888
-0.851655
0.249802
-0.359441
0.1113
-0.587629
-0.153363
-0.289939
-0.757216
0.40568
0.57963
0.339868
-0.00614747
0.627031
0.441976
-0.0844493
0.738553
0.27463
-0.298494
-0.433623
-0.419168
0.915674
0.276326
0.044542
0.760679
1.54547
0.486614
-0.757402
-0.469326
-0.415374
-0.595566
1.39636
-0.075384
0.399184
-0.651691
-0.197206
-0.347824
-0.848861
0.340217
0.976233
1.15298
0.252038
-0.199234
-0.855345
-0.297
0.32148
0.487537
1.46928
0.947826
0.278846
0.0590795
-0.45971
-0.933701
0.132739
0.106958
0.209302
-0.38098
1.2298
-0.0291788
0.602923
0.415459
-0.210381
0.108394
0.113446
-0.0873095
-0.492471
0.428899
0.972059
0.246024
-0.940566
0.370027
1.16303
0.875067
0.563019
0.649322
0.380402
0.801113
0.996843
0.973067
-0.809478
-0.836106
0.334224
-0.0597531
-0.544154
0.963709
0.225774
-0.355222
-0.8179
0.567063
-0.681427
0.202471
0.56769
-0.982389
-0.631504
0.269666
0.599634
-0.585954
-0.583101
0.113179
-1.03832
-0.0856104
0.773722
0.764542
-0.768472
0.206043
-0.389939
-0.807463
0.610994
-0.364268
-0.133601
-0.133456
0.398244
-0.380613
0.783571
0.233936
0.784068
1.25347
0.395586
-0.0130662
0.254878
-0.252946
0.706498
-0.482704
0.357513
-0.0475811
1.38444
-0.0287264
-0.777349
-0.968246
-0.2565
-0.653591
0.287198
1.07147
-0.0628232
0.515657
0.768222
0.00281775
-0.390097
-0.0246596
1.15505
0.499475
0.321331
-0.242314
-0.827162
-0.744529
-0.376933
-0.595208
0.468946
-0.252569
0.969046
-0.114915
-0.302195
-0.387583
-0.590304
-0.904051
0.575181
-0.741471
0.570857
-0.736994
-0.507026
-0.136429
-0.267638
0.0329396
0.276685
0.313006
-0.634188
0.321623
0.954407
-0.636534
0.787757
0.0696725
0.401887
-0.378608
-0.258845
0.32283
-0.940699
0.619562
-0.789293
-0.355423
0.834944
-0.640673
0.524442
-0.445271
-0.0335429
-0.168024
-0.218035
0.30438
0.12872
-0.940167
0.984728
0.196516
1.19998
0.409858
-0.767563
-0.654321
1.03734
-0.830505
-0.219717
0.356713
-0.721754
0.404476
-0.26616
0.659596
0.486872
-0.496458
-0.181677
0.34868
-0.824768
-0.105549
-0.48091
-0.939431
-0.708203
0.210817
0.0135492
-0.687649
0.150834
-0.154406
-0.339215
0.801115
-0.237557
0.0115494
1.03724
-0.653652
0.161111
