-0.341177
0.89294
-0.784771
-0.549688
0.479679
0.0418973
-0.891117
-0.508601
-0.248205
-0.667515
-0.896992
-0.25602
0.713276
0.548568
-0.866861
0.484807
-0.166295
-0.620655
0.11975
0.696863
-0.633178
-0.632626
-0.291128
-0.959339
0.254727
-0.0505149
0.0978479
0.334591
-0.800664
0.934781
-0.42857
0.271324
-0.0720176
0.625691
0.277629
-0.99227
0.320452
0.358005
-0.853142
0.378166
0.385271
-0.571593
-0.294607
0.566489
-0.597521
0.967969
-0.257122
0.0301761
0.612273
0.0423462
0.303361
-0.607069
0.81073
0.0324072
0.174313
-0.0314683
-0.126261
0.110639
0.939406
-0.72548
-0.40726
-0.976657
-0.0649834
0.115843
-0.674747
0.264548
-0.526065
-0.306663
-0.273729
0.898535
-0.485602
-0.0535147
-0.0269759
-0.30598
0.695447
0.916602
-0.678759
0.985619
0.050874
0.126907
-0.846494
-0.0530714
0.833091
0.614013
0.585735
0.929559
-0.242523
0.91335
-0.125013
0.835253
0.176871
-0.328494
-0.149304
0.0836567
-0.21092
0.767104
-0.944507
-0.542168
-0.282919
0.162173
-0.456074
0.985137
-0.336897
0.712096
0.197963
-0.983015
0.639274
-0.883574
0.970041
0.973353
-0.0974974
0.865186
-0.492239
0.137162
0.348044
0.744477
0.165624
0.624406
-0.757161
0.79083
0.539658
0.487008
0.526702
0.450489
-0.75353
-0.0670422
0.0860675
-0.707383
0.64426
-0.284763
-0.0444561
-0.428676
0.960665
0.0663221
-0.703831
0.952108
-0.115007
-0.929688
-0.848927
-0.539274
0.26794
-0.239872
0.12628
-0.511811
-0.662021
0.5231
-0.202148
-0.491596
0.232782
-0.0640874
-0.0845472
-0.417584
-0.26349
-0.211209
-0.422205
-0.202819
-0.181607
-0.973162
0.200582
-0.068529
0.570454
0.916444
-0.499597
0.934848
0.0479297
-0.0534108
0.35099
0.0711298
0.0855647
0.283993
0.688649
-0.947478
0.499995
0.0174374
0.896032
-0.962518
-0.719903
-0.694956
0.326329
-0.227107
0.453919
-0.155355
0.256088
-0.788509
0.408975
-0.616185
0.0901045
0.324227
-0.454059
0.308892
-0.334075
0.933961
0.939171
0.338014
0.701834
0.807334
0.136637
0.0370336
0.87113
0.912871
0.214943
-0.609497
0.00788672
-0.650612
-0.161621
-0.309081
0.656339
0.926211
-0.623295
-0.0970576
-0.980333
-0.592177
0.0489541
0.455611
0.812864
0.0985581
0.656411
0.64714
-0.79109
-0.162769
0.833431
0.984506
0.420425
-0.376741
-0.889214
0.152988
-0.957562
-0.105825
0.0248629
-0.156395
-0.497827
0.831194
-0.733232
0.52215
0.28066
-0.911131
-0.613709
0.203584
-0.257777
-0.900149
-0.505994
0.294276
0.41829
-0.707897
0.0541368
0.459457
0.221153
0.388736
0.518211
-0.0742493
-0.904393
-0.0949747
0.266427
-0.92574
-0.682062
0.0635577
0.874775
0.190896
0.795099
-0.588986
0.975609
-0.413132
-0.354105
0.662718
0.896378
-0.58801
-0.120593
-0.260256
0.874436
-0.588908
-0.787639
0.957625
-0.784438
-0.13993
0.692211
-0.570546
0.154993
-0.0959773
0.230785
0.878042
-0.855326
0.928561
-0.940078
-0.07641
-0.984581
0.962375
-0.33976
-0.888447
0.205555
0.669982
0.00981917
-0.81526
-0.223272
0.82707
-0.575603
0.353745
0.847147
0.834906
-0.250142
-0.939799
0.272948
-0.856379
-0.817174
-0.259741
0.537501
-0.521709
0.920382
0.459585
0.344505
0.692402
0.0673813
0.731013
0.0591769
-0.523469
-0.974462
-0.735122
0.210732
0.223933
0.93885
0.11211
-0.893074
-0.576691
0.278445
-0.506709
0.781712
0.118254
-0.30019
0.990739
-0.375403
-0.116032
-0.443468
-0.242273
0.290844
-0.162385
-0.583721
-0.882584
-0.139683
0.692841
-0.960119
0.879885
-0.812443
-0.241736
-0.293976
-0.785801
0.699111
-0.948026
0.317349
0.505219
-0.72318
-0.47324
0.351759
0.0199101
0.278477
-0.893597
-0.973235
-0.909571
-0.51093
-0.444497
0.00809931
0.313712
-0.900586
0.445759
0.146323
0.381189
0.830346
-0.529032
0.307639
0.631974
0.049771
-0.594215
0.749268
-0.344642
-0.398577
-0.337235
-0.705299
0.535399
0.162814
0.618152
0.0803432
-0.5097
0.667833
0.272937
-0.988342
0.676701
-0.47085
0.0258462
0.564295
-0.531513
0.776665
-0.589811
-0.81305
0.982493
0.301263
0.640015
-0.986548
0.674677
-0.504465
0.0123803
0.426426
0.0319015
-0.0447957
0.546723
0.392547
-0.227514
-0.314802
-0.0401338
0.304399
0.9282
-0.430974
0.671864
0.617907
0.218399
0.160033
-0.247757
-0.538944
0.832913
0.917676
0.578429
0.913815
0.944947
0.661961
-0.757763
0.28817
0.133309
0.206236
-0.562546
0.818449
-0.770141
-0.925069
-0.735238
0.537378
-0.613705
0.893299
0.250924
0.130571
0.715589
-0.715458
0.587734
0.898917
-0.541167
0.0611691
-0.966936
0.236881
-0.826854
-0.185525
-0.0677988
-0.147029
0.808343
-0.0762595
0.0129849
-0.55775
0.3326
-0.120926
0.71355
0.386963
0.108725
0.776929
0.298739
0.21018
0.0780364
-0.223857
0.819215
0.318391
0.0213204
-0.218493
-0.719593
0.649309
0.689683
-0.0260731
-0.415804
-0.881009
0.120857
-0.985131
0.24343
0.930461
-0.699912
0.461956
0.393672
-0.206619
-0.795924
0.985486
-0.889445
0.688261
0.0269569
0.820668
-0.621224
0.248481
0.558608
-0.64982
-0.114924
-0.0348064
0.408235
0.00456139
-0.252236
-0.954708
0.0140208
0.605895
-0.736185
-0.294132
-0.476746
-0.840206
-0.465357
-0.190262
0.816432
-0.0409017
-0.69959
-0.122582
0.311199
0.632623
-0.140212
0.0776312
0.138112
0.901949
-0.159594
0.479052
-0.473231
0.957564
-0.604408
-0.799866
0.669956
0.817854
0.391306
0.993563
-0.7446
0.548145
-0.653875
-0.51753
0.796626
-0.756987
0.319496
0.0423328
0.406051
0.0982312
-0.793562
0.702078
0.958327
0.090037
-0.153439
-0.579194
0.920718
-0.0161567
0.138269
-0.955073
-0.614206
0.284415
0.707654
-0.441521
-0.1983
-0.728274
-0.687306
0.346177
-0.626589
0.569954
-0.429166
0.0114839
-0.231393
-0.729507
0.308308
0.197868
-0.364337
0.316264
0.651071
-0.845401
-0.845945
0.344539
0.349011
-0.785892
0.0617738
-0.116205
-0.356943
0.943824
-0.979103
0.505484
-0.232234
-0.919031
-0.662969
-0.0907749
-0.430343
0.6187
0.446881
-0.462269
0.414545
-0.665924
0.30242
-0.260797
-0.999587
-0.494203
0.257294
-0.543635
-0.454829
0.22175
0.610077
-0.200135
-0.751161
0.0755435
-0.321931
-0.440325
0.17451
0.62243
0.61544
-0.302109
-0.384273
0.0540239
-0.10866
0.363818
-0.788167
-0.273079
-0.850732
0.728641
0.242306
0.403437
0.196667
-0.295046
-0.806639
-0.857282
-0.319815
-0.0837768
0.390349
0.504999
-0.253308
-0.651032
-0.671799
-0.0911643
0.0858083
0.331245
0.744024
0.908215
0.539121
-0.982337
0.588394
-0.666391
-0.952867
0.771623
0.584563
0.370137
0.288541
-0.883899
-0.730445
-0.825073
0.644603
-0.852985
0.599856
0.0820166
-0.896481
-0.119289
0.36717
0.0411374
0.559954
0.273188
0.592878
0.640094
-0.984766
0.762843
0.169691
-0.0930958
0.11167
-0.0600978
-0.367378
0.348328
0.00827726
-0.742149
-0.707796
-0.968614
-0.00636279
0.883197
0.506725
0.35344
0.400311
0.00966341
-0.311785
-0.43879
0.351919
-0.0866242
-0.804715
-0.29248
-0.174284
-0.342411
-0.448486
0.202682
-0.926625
0.0196323
-0.0479334
0.579493
-0.326046
-0.243858
-0.543996
-0.532174
-0.886059
0.213264
0.75501
0.454831
-0.925098
-0.909536
0.292183
-0.87712
0.746447
-0.583151
-0.348015
-0.892727
0.0705943
0.450415
0.750101
-0.872609
-0.767816
0.418165
-0.69354
0.606842
-0.120099
-0.14448
-0.607646
-0.408298
-0.556662
-0.89445
0.980859
-0.7275
-0.0640827
-0.345668
0.554401
0.74749
0.986942
0.172356
-0.313229
-0.478925
0.805257
0.256389
-0.516917
-0.887247
-0.355194
0.567564
-0.78042
0.0743009
0.165663
0.596334
-0.588284
-0.628927
0.54539
-0.35428
0.0161207
-0.73238
0.824069
0.306985
0.162869
-0.545094
0.655617
0.7883
-0.315101
0.59064
-0.469068
0.933966
0.187378
0.374754
0.963645
-0.776211
0.554079
0.940663
0.87125
0.197287
0.7667
-0.668189
0.036619
0.0925469
-0.0134188
-0.538276
-0.913256
0.840927
-0.316839
-0.543798
-0.870833
0.289387
-0.545908
0.575677
-0.672199
-0.852892
0.786963
-0.320766
0.605753
0.628006
-0.472097
0.161688
0.81317
0.902195
-0.949977
0.403427
-0.147337
0.796599
0.22765
0.314826
0.752615
0.367495
-0.0760894
0.184306
0.553683
-0.559888
-0.415202
-0.473076
0.863987
-0.382932
-0.0616267
0.0763547
0.0171568
-0.25523
0.630357
-0.828028
-0.615899
-0.274231
-0.489773
-0.901743
0.576259
-0.390242
0.143022
-0.489551
0.880375
-0.738382
-0.904304
0.53123
-0.613384
-0.422968
-0.297031
0.0322958
-0.306875
-0.699478
-0.675733
0.324642
0.433311
-0.156387
-0.977196
0.327568
-0.436865
0.847378
0.00837821
0.597475
0.593412
-0.016971
-0.107381
-0.374758
0.782939
0.217849
-0.644863
-0.0951232
0.128836
-0.0300016
-0.65437
0.206605
0.30669
0.265147
-0.113034
0.149132
-0.438423
0.11649
0.731298
0.0768324
-0.712848
0.145044
0.22823
-0.786883
0.558834
-0.901625
0.773673
-0.370193
0.233841
0.945187
-0.668686
0.773273
0.515514
0.90678
0.67297
-0.633766
0.201435
-0.362573
0.719832
0.153884
-0.405744
-0.816705
0.00257767
-0.586333
0.588864
-0.419636
0.924182
-0.184399
-0.405065
-0.328955
0.617504
-0.844274
-0.64694
0.403678
0.103998
-0.403637
-0.261483
0.814215
0.647223
-0.629353
-0.234573
0.0624382
-0.486846
-0.0185866
-0.134348
-0.115178
0.446029
-0.910154
0.131448
0.838015
-0.674055
0.985996
0.0576971
0.0303361
0.32532
0.249519
-0.872457
0.440984
-0.476095
-0.122332
-0.760705
0.90296
-0.045866
0.756216
0.728431
-0.393726
0.725592
-0.958767
0.484276
0.315656
0.690184
-0.173408
-0.424136
-0.477001
-0.188197
0.183507
-0.209278
-0.212236
0.258378
0.26136
0.231578
0.581919
0.646852
0.522336
0.460192
0.986021
-0.661665
0.376691
0.0209316
-0.696671
0.548358
0.712676
-0.536262
0.47407
-0.47888
0.00599512
0.0825975
-0.993251
0.324053
-0.405504
0.88588
-0.110311
0.682977
0.331094
0.182203
-0.622252
-0.787859
0.299825
-0.562955
-0.704955
0.304814
-0.667416
0.900904
0.191783
-0.194558
0.972134
-0.742877
-0.268038
0.739081
-0.0778887
-0.82039
-0.461216
0.746753
-0.662252
0.662327
-0.169831
0.274635
-0.273071
-0.112259
-0.573682
0.945973
-0.0406029
0.581333
-0.03185
0.531066
0.74182
0.402634
0.428048
0.6948
0.9094
-0.857331
-0.0668073
-0.376698
0.422221
0.98256
-0.236129
0.314637
0.537038
-0.0717205
0.274
0.357846
0.219098
0.540927
0.00763346
-0.407055
0.794264
0.00876228
0.736845
0.299807
0.724618
-0.303376
-0.768502
0.232007
0.0483324
0.504085
-0.297638
0.440205
-0.179043
-0.684641
-0.333592
0.455821
0.222492
-0.420669
0.578272
0.57314
0.584139
-0.442883
0.0400674
-0.250913
-0.307476
-0.457177
0.249412
0.313961
0.143113
-0.0633058
0.582697
-0.608704
0.200774
-0.19757
0.533932
-0.507232
0.966761
0.731944
0.375857
-0.809522
-0.641546
0.523818
0.487391
0.224121
0.645984
0.5383
0.32334
-0.19525
0.117399
-0.537037
0.894884
-0.594952
-0.639466
-0.766711
-0.4344
-0.841694
-0.552608
0.392435
-0.406261
0.312802
-0.676035
-0.10259
0.914704
0.752309
0.0312346
0.53179
0.554034
-0.0155811
-0.899028
0.541187
0.832558
-0.739153
-0.190232
0.555478
0.691496
-0.213885
-0.986728
0.795462
0.0780472
-0.289364
0.641655
0.262551
-0.894912
0.957456
-0.865507
-0.3998
-0.0519998
0.264666
-0.544426
0.826177
-0.152171
-0.603532
-0.96844
-0.620148
0.566723
0.101878
0.169517
0.408949
-0.495736
-0.957704
0.486996
0.948448
-0.604873
0.291966
-0.770756
-0.230976
0.929875
-0.154929
0.875467
0.751442
-0.0634331
-0.432258
0.897203
-0.531741
-0.210252
0.540367
-0.955879
-0.444597
-0.256086
-0.644386
0.808582
-0.00179066
0.760345
-0.660531
-0.129628
0.421358
0.171539
-0.90263
0.313089
-0.998927
-0.308873
0.799011
-0.971735
-0.955888
0.0319853
-0.673066
0.0902436
0.514764
-0.236978
0.0582197
-0.401869
-0.310626
-0.738285
0.667804
0.502772
-0.971031
-0.707992
0.398018
0.789023
0.959305
0.686947
0.11601
0.282397
0.0322073
0.879497
0.297487
0.318862
-0.159873
0.198647
0.228808
0.893575
0.248301
-0.130041
-0.746106
-0.467459
-0.605578
-0.56108
0.246759
-0.860798
-0.644332
0.370826
0.471738
0.526849
0.857595
-0.0785479
-0.169309
-0.296348
0.0969949
0.358765
0.546859
-0.985209
-0.443745
-0.487362
-0.103214
-0.744319
0.944084
0.428221
-0.651503
-0.179534
-0.562746
0.473857
0.5334
-0.217611
0.594916
0.213858
-0.301862
0.555086
-0.974691
-0.327919
0.729105
-0.45771
-0.708004
0.493171
-0.377964
0.766244
0.822762
-0.628753
0.0727764
0.765188
0.0803669
0.378049
-0.534287
-0.657105
-0.0416352
0.248904
0.424727
0.681547
0.436725
-0.1377
0.523515
-0.508221
-0.359159
0.0502548
0.230939
0.299241
-0.922835
0.849873
-0.494136
-0.0162146
0.326303
0.312385
0.836951
-0.987604
0.705549
-0.922589
-0.52382
-0.96684
0.219936
0.858065
-0.956453
-0.841908
-0.16955
0.687627
0.803297
-0.0572893
0.938785
-0.828772
0.977055
0.380826
0.997784
-0.287457
0.627311
0.867733
-0.768076
0.92415
-0.695198
0.324233
-0.452808
0.915245
-0.597397
-0.477417
0.0777138
0.469138
-0.21581
0.755697
-0.60083
-0.920313
-0.919988
0.916932
-0.412074
0.555774
0.198583
0.0636773
0.397007
0.384794
-0.322553
0.896949
-0.376219
-0.455658
-0.782613
-0.174236
0.173298
-0.628204
0.6373
0.751342
0.890822
-0.0859123
0.0628494
-0.370961
-0.346445
0.0358776
-0.918683
-0.103518
0.253823
-0.686387
-0.1055
0.503422
-0.658922
0.913731
0.981217
-0.909721
-0.632939
0.701155
-0.774608
-0.770149
-0.4288
-0.794963
0.45143
-0.107375
-0.273581
0.997071
0.440527
0.132329
-0.0154496
-0.310766
0.122212
0.278474
-0.0351648
-0.162636
0.885091
0.433557
-0.535052
-0.163033
-0.261752
0.178516
-0.484186
-0.45449
-0.595242
0.109719
0.938905
-0.105701
0.126089
-0.478788
-0.0571095
0.849729
-0.0306299
-0.841234
0.903872
-0.891422
-0.0173541
-0.193194
0.679181
-0.243386
-0.926973
0.347571
0.968073
0.338531
-0.363805
-0.582832
0.89221
0.597632
-0.951752
0.6593
0.101453
-0.24685
0.822858
0.268265
0.633687
0.0861089
0.333642
0.18719
-0.316355
0.38121
0.0410229
0.961798
0.549982
-0.284442
-0.749145
0.356703
0.480046
-0.94418
-0.700833
-0.0758338
0.0459889
0.715142
0.503017
-0.588193
0.175011
-0.403193
-0.561276
-0.126332
0.650042
-0.833887
0.562385
0.157937
-0.710875
-0.0304528
0.696521
-0.258923
-0.167777
0.0709885
-0.47538
-0.835979
-0.78433
0.282686
-0.266268
-0.523441
0.788058
-0.905778
0.806729
-0.390725
-0.0592129
0.230742
0.15841
-0.332349
0.562962
0.463308
0.341412
0.323725
-0.275024
-0.127289
-0.854263
0.0098778
-0.276974
0.939696
-0.775437
-0.506339
-0.446589
0.833193
-0.99976
0.0650345
-0.952804
-0.451169
0.653038
-0.0498534
0.304659
-0.292155
0.284232
-0.544758
-0.0992761
-0.863479
0.517759
0.586887
-0.328828
-0.381665
0.684023
0.0564281
-0.546957
-0.375747
0.773038
-0.642573
0.476147
0.262364
0.0988726
0.668378
-0.153916
-0.985576
0.633477
-0.727167
0.94009
0.0737839
-0.830709
0.918228
0.116489
-0.524574
0.606455
-0.660589
-0.124961
-0.453041
-0.54866
0.828924
-0.643825
-0.0044357
0.356788
-0.459269
-0.226591
-0.162355
0.180376
0.6603
-0.455348
-0.537077
0.150829
0.388014
-0.840069
0.806136
-0.903231
0.679895
-0.282664
0.84778
0.545216
-0.0889652
-0.437976
0.698023
0.301085
0.814266
-0.918546
0.962592
0.330177
0.00206116
0.405421
0.0268488
-0.0268457
0.983117
-0.515568
-0.692787
-0.77291
-0.188027
0.184816
-0.554422
0.0366209
-0.724478
-0.670226
-0.190426
0.854416
0.223042
-0.521644
0.370913
0.326221
-0.572974
0.0785188
-0.937012
0.000547164
0.646061
0.572073
0.189201
-0.668431
-0.233772
-0.694203
0.0949743
-0.946322
-0.83791
-0.927121
-0.0383513
-0.446716
-0.743565
-0.675097
-0.0305572
0.939259
0.0117596
-0.824822
-0.8867
0.993801
0.597354
0.692104
-0.0553368
-0.121745
-0.0977515
-0.285992
0.212796
0.635299
-0.160196
-0.0224026
-0.480801
-0.285712
0.718321
0.181466
0.168422
0.706609
-0.614961
0.366029
0.544603
-0.989631
-0.57077
-0.0710091
-0.18261
0.225802
0.286037
-0.98704
0.453679
-0.499708
0.0450105
-0.696718
0.84034
-0.517904
-0.58938
0.542871
0.845276
0.598471
-0.507489
-0.00745308
-0.171571
0.18703
0.445223
0.705816
0.829964
-0.529215
0.927029
0.029473
-0.402482
0.361197
0.00147069
-0.127753
-0.579638
-0.319294
0.637648
0.317865
0.519447
-0.849776
0.974134
-0.713986
0.572736
0.437769
-0.0604807
0.8323
-0.69509
-0.168351
-0.270105
0.333616
-0.520118
-0.398229
-0.64689
-0.115193
-0.941486
0.399411
-0.583595
-0.199829
0.800202
-0.592277
-0.678754
-0.671357
-0.981327
-0.363593
-0.0164261
0.166183
-0.39158
0.410559
-0.820759
0.282923
0.703267
-0.779476
0.37819
-0.0686134
-0.0796594
-0.3498
0.429706
0.995556
0.00306118
-0.625177
0.594297
-0.168946
0.743669
-0.491472
-0.54139
0.10944
0.723262
-0.91633
-0.613928
0.880926
0.120478
-0.703215
-0.155383
0.991934
0.869903
-0.0585018
-0.263276
-0.200175
0.424554
-0.439047
0.990922
0.289351
0.300756
-0.0864837
0.261685
0.159968
-0.0708538
0.822573
0.360209
0.980233
0.573334
-0.13721
0.657426
-0.0767377
-0.963077
-0.668353
0.00411653
-0.10863
-0.790535
0.850863
-0.467024
-0.427119
-0.645349
0.632556
-0.868346
-0.930177
-0.162828
0.179903
0.434048
0.479212
0.686134
0.331605
0.678502
0.784587
0.801708
0.783259
0.37443
-0.143342
-0.732423
-0.487514
-0.335425
-0.245553
0.504235
-0.720097
0.802692
0.415856
0.338754
0.262586
0.665655
-0.328729
-0.270434
-0.802056
-0.87433
0.312661
-0.852574
-0.883956
0.0611103
-0.0106023
0.42276
0.737718
0.245334
-0.987323
-0.288113
-0.0291578
-0.000969702
-0.287949
0.843165
0.358501
-0.9133
0.0895161
0.842106
0.394893
-0.314801
0.643119
0.15667
0.267353
-0.294261
0.649404
0.99306
0.677543
0.308898
-0.488418
0.861693
0.208164
0.890842
-0.452183
-0.320215
0.923662
-0.875312
0.937989
-0.727714
0.214707
0.866161
0.905663
-0.271994
0.99788
-0.370966
-0.121006
-0.278253
-0.160605
0.556811
-0.609624
-0.654969
-0.149025
0.357306
-0.0741099
0.694095
0.374237
0.366839
0.660178
0.938499
0.168533
-0.0603193
0.903896
0.0880127
-0.889948
0.195633
-0.428178
-0.893963
0.487187
0.0947676
0.997031
-0.924579
0.220597
-0.148052
-0.40811
0.300752
-0.0988369
-0.0239287
-0.61157
0.459029
-0.454995
-0.43123
-0.259383
0.498808
0.990183
0.759495
0.16403
0.482956
0.951058
0.177211
-0.712037
-0.211332
-0.993919
0.0790927
0.0743482
-0.808728
0.607207
0.0754531
0.158318
-0.963849
-0.873408
-0.560617
-0.346807
0.587666
0.546591
-0.715535
0.917425
-0.148175
-0.209446
0.652011
-0.886605
0.37039
0.84517
-0.113991
0.856005
0.446715
-0.687869
-0.503047
0.837749
-0.51858
-0.863767
-0.580931
-0.387512
-0.665988
-0.392527
0.569574
0.304275
0.173966
0.402303
0.296486
-0.124711
-0.264717
-0.986635
0.706698
0.0497936
0.892191
0.745521
0.576148
0.797838
-0.739503
0.930929
-0.736501
0.931217
0.718149
-0.468743
0.30458
0.447107
0.727987
0.588042
-0.0173104
-0.581005
-0.713911
-0.418922
-0.401785
-0.185245
-0.751258
-0.323978
0.952288
0.242638
0.215739
0.14747
-0.701699
-0.541021
-0.637176
0.862786
0.612711
-0.053935
0.966846
-0.0199544
-0.168864
0.129564
-0.62951
0.459004
0.557938
0.105121
0.861541
0.567567
0.956201
0.541613
-0.711056
0.397183
-0.19049
-0.753763
0.649492
-0.448845
-0.42463
0.691876
-0.775647
0.185527
0.0761495
0.300095
0.216227
-0.161421
0.0262357
-0.0497086
0.571259
0.551117
-0.12565
0.845594
0.176113
-0.986452
-0.17758
0.028761
0.716117
-0.529976
-0.327637
0.660805
0.979307
-0.29704
-0.947523
0.915122
0.559896
0.184457
0.600757
-0.646008
0.636176
0.288424
0.489194
-0.191154
-0.663812
-0.0583691
-0.16012
0.722513
0.36771
-0.218226
0.998283
-0.573438
-0.787114
0.516934
0.75142
0.407692
-0.381046
-0.437103
-0.337731
0.952719
0.611093
0.177282
-0.546863
-0.764185
0.409997
0.855836
-0.019072
0.622583
-0.208016
-0.308368
0.638649
-0.389308
-0.72452
0.422772
0.682885
-0.825706
-0.410064
-0.492194
-0.0363098
0.0494584
-0.998452
-0.817224
-0.591867
0.229849
-0.761612
0.218624
0.202075
-0.941709
0.378994
-0.183321
0.563334
-0.00553729
0.621157
0.0703172
-0.38028
-0.420906
-0.484871
0.722947
0.295228
0.978278
-0.416015
0.198411
0.555213
0.873324
-0.785858
0.000211866
-0.514895
0.768842
0.550176
-0.592993
0.0903495
-0.0267335
0.244369
-0.53098
-0.799284
0.667366
0.41557
0.372581
-0.222883
0.423321
-0.396998
0.608998
0.830491
0.456998
-0.285312
-0.583883
-0.794233
-0.33882
-0.768789
0.865696
-0.994094
0.704923
0.751042
-0.0265794
-0.881603
0.464971
-0.507155
-0.760109
-0.137063
-0.223039
0.303088
-0.424039
0.619536
-0.695076
0.419391
-0.420263
-0.609447
-0.116578
-0.709874
-0.93578
-0.619895
-0.129994
0.620473
-0.933748
-0.438319
0.134185
0.407199
-0.207544
-0.383949
0.722863
0.635848
0.402188
0.00964419
0.713763
0.605812
-0.480886
-0.766474
-0.925046
-0.516531
0.491665
-0.623726
0.754273
0.990512
0.215429
-0.329349
0.433168
0.192891
0.292989
-0.791106
-0.811864
0.448552
0.447795
0.6488
-0.988193
0.73538
-0.62395
0.196705
-0.622828
-0.644871
-0.229877
-0.131918
-0.825922
-0.117541
-0.703231
-0.788353
-0.286252
0.996034
0.558599
-0.682442
-0.930965
0.513975
-0.34905
0.893851
0.167273
0.40243
-0.637429
-0.26663
-0.207296
0.687164
0.447726
-0.363171
0.0893277
-0.118351
0.868387
0.504475
-0.142856
-0.511579
-0.977852
-0.417359
-0.286681
0.112444
0.129787
0.190523
0.145581
-0.223889
0.952352
0.307992
0.0465375
0.55618
0.400735
0.971218
0.627684
-0.353015
0.536473
0.258554
0.125327
0.869688
0.417547
-0.725969
-0.738442
0.0166165
0.689193
-0.343094
0.802013
0.879548
-0.832678
0.660964
-0.553061
0.482655
-0.018381
0.824516
-0.0100536
0.619891
0.896439
0.354768
0.186692
-0.152905
-0.43153
0.864982
-0.705527
0.539851
-0.817837
-0.912657
-0.496091
-0.167994
0.203749
-0.392705
0.137065
0.804226
0.202838
-0.398859
-0.362987
0.371889
0.352062
0.696528
0.0419118
-0.46883
0.520039
-0.216602
-0.355767
-0.0376759
0.68764
-0.629503
0.388328
0.61813
-0.441697
0.658255
-0.0553734
-0.588274
-0.933972
0.145604
-0.565619
0.115778
0.843995
-0.375951
-0.690564
-0.437779
-0.354242
-0.474563
-0.0271753
0.544541
0.197785
-0.753618
-0.919507
-0.330414
0.388995
0.622563
0.294397
-0.303038
0.755791
-0.831684
-0.606545
-0.478482
0.62302
-0.140714
-0.105276
0.316705
-0.112684
0.85133
-0.928646
-0.919348
0.270215
-0.162373
-0.673365
-0.631985
0.186479
-0.614298
0.931456
-0.798918
0.48584
-0.135258
-0.607733
0.583953
-0.639033
-0.625433
0.123837
0.199182
-0.268771
-0.196285
-0.00776477
0.153983
0.0119184
-0.906043
0.81229
-0.705149
0.23091
0.638868
-0.595912
-0.588134
0.287563
-0.621986
-0.292951
-0.238618
-0.881396
0.716495
-0.584631
0.612901
-0.291571
0.233983
0.214734
-0.322491
0.888794
-0.926744
0.989688
-0.0740682
0.936191
-0.672754
0.0779908
-0.292466
0.213174
0.86861
-0.994993
0.302002
0.622921
-0.893478
-0.401735
-0.795485
-0.0469183
0.479822
0.994663
0.380769
-0.562334
-0.216092
0.0886779
-0.102796
-0.950597
0.0269638
-0.552876
0.617026
0.0835651
0.953857
0.157994
0.969055
0.743806
-0.467196
-0.388334
0.234531
0.0794973
-0.877838
-0.315501
-0.503688
-0.632402
0.519008
0.821195
-0.546967
-0.174714
-0.398617
0.143951
0.0420024
-0.857518
-0.2396
-0.223796
-0.231682
-0.0129133
0.374024
-0.469452
-0.241293
0.805997
-0.763297
0.485159
-0.342236
-0.0196307
-0.616596
0.876867
0.674208
0.79089
0.68184
0.951593
0.444435
-0.0553881
0.316381
0.0728619
-0.750788
-0.503205
-0.595227
-0.806796
-0.187395
-0.184848
0.133139
-0.137614
0.215994
-0.465137
0.0386508
-0.484107
-0.192739
0.284019
0.303974
-0.172362
-0.515519
-0.221325
0.640667
0.358406
0.28
-0.959768
-0.465192
0.0290845
-0.322647
-0.021777
-0.513736
0.0565229
-0.965517
0.458256
-0.148779
-0.634309
0.801407
-0.0916437
0.210297
-0.077762
-0.786787
-0.192937
-0.0897723
-0.152058
0.812209
-0.0655832
0.88618
0.943444
0.773309
0.635703
-0.713468
0.177308
0.809524
0.833895
-0.460339
0.889667
-0.971748
-0.364688
0.110918
-0.0243645
-0.0714134
0.29369
0.0765976
-0.994686
0.561126
-0.790793
-0.978389
0.618846
-0.994058
-0.143578
-0.72776
-0.638295
-0.892485
-0.091718
0.355928
0.246145
-0.593019
0.194073
-0.785988
-0.385806
0.5798
0.429524
0.274753
-0.331688
-0.532692
0.455807
-0.166075
-0.5713
-0.895165
-0.180443
0.972779
-0.928997
0.396799
-0.29007
-0.953182
0.723187
-0.0767538
0.781517
-0.0148683
0.360864
-0.989014
-0.14383
0.241867
-0.885894
0.293753
-0.0301679
-0.884096
0.650162
0.0659063
-0.137239
-0.0624324
-0.159474
-0.856007
0.110136
0.455013
0.350384
-0.0172702
0.231565
0.00924061
-0.266742
-0.0550361
-0.041243
-0.106886
0.638767
0.924281
-0.902276
-0.687436
-0.943019
0.860986
0.81478
0.47604
0.514815
0.700653
-0.90311
-0.0406235
-0.9801
0.294693
-0.911408
-0.680415
-0.0233096
0.822818
-0.353675
-0.356507
0.510281
0.545592
0.379304
0.843697
0.283683
0.277452
-0.245057
-0.410288
0.022306
-0.672301
0.762733
-0.689981
-0.83781
-0.357997
0.900986
0.346914
0.551246
-0.819135
0.493502
0.518417
-0.237917
-0.564574
-0.492997
-0.16996
0.393492
0.690445
-0.951227
0.525204
0.79152
0.917449
-0.472741
0.263544
0.299793
-0.998161
0.82198
-0.444929
0.0751845
-0.425655
-0.915018
0.920698
0.662048
-0.383138
-0.56601
-0.0242364
-0.0196181
0.653444
0.581751
0.689274
-0.837527
-0.259011
-0.340602
0.357569
-0.195291
0.165227
-0.614916
0.627938
0.480796
-0.800951
-0.893584
0.696475
0.713226
0.0881587
0.760682
0.92593
0.990861
0.169293
-0.403428
-0.613413
-0.469671
0.813239
0.0844641
-0.832827
-0.18111
-0.688982
-0.10532
-0.443493
0.154941
0.318541
0.56478
0.123712
0.521283
-0.669672
0.912537
-0.918264
0.679758
0.582599
-0.902364
0.359739
0.133314
0.742487
-0.5973
0.320636
-0.938044
-0.351129
-0.104277
-0.524473
-0.107646
0.078324
-0.863579
-0.898589
-0.191965
-0.648594
0.394053
0.112184
0.271758
0.469401
-0.196288
0.46639
0.99254
0.743268
-0.720201
0.847264
0.44979
-0.0343375
-0.603267
0.75471
-0.386082
-0.367071
-0.333543
-0.104378
0.881377
0.192392
-0.854703
0.929916
0.762343
-0.46468
-0.197902
0.580774
0.718991
0.500101
0.055313
-0.184986
-0.142197
0.349619
-0.235242
-0.113605
-0.797098
0.942572
0.0247265
0.0542008
-0.266035
-0.4826
-0.619479
-0.415744
0.156298
-0.280555
0.964886
0.782025
0.747683
0.867678
-0.424149
-0.450295
-0.607687
0.0208329
-0.721884
0.62243
-0.868567
0.17832
0.0636005
-0.0601676
-0.964659
0.30902
-0.408793
0.872702
0.124605
0.266125
-0.472031
0.591003
-0.164704
0.579545
0.0038208
-0.497588
0.103276
-0.526384
-0.613567
-0.491552
0.569999
-0.0757025
0.624707
-0.60505
-0.177881
-0.237574
0.147981
0.324425
-0.989971
-0.278094
0.0573132
0.122789
-0.272536
0.291634
-0.16636
-0.588175
0.0652272
-0.0149082
-0.105959
-0.0155035
0.0125601
-0.190275
0.239464
0.773168
-0.074169
-0.600289
0.254487
-0.502153
-0.119543
0.0413483
-0.56603
0.139652
0.665645
0.4332
-0.730435
-0.149076
-0.533389
0.885295
-0.653287
-0.609707
0.743942
-0.743095
-0.806621
-0.1023
-0.169666
0.769415
0.491667
-0.6827
0.141328
0.264194
-0.351804
-0.745607
-0.0323096
0.97316
-0.838331
0.198334
-0.044012
0.247237
0.657282
0.439188
-0.660122
0.0305633
-0.64851
-0.430246
0.6194
-0.986266
-0.999619
0.272583
0.665739
-0.88643
0.875796
0.961148
0.916071
-0.653578
0.0871374
-0.108565
0.684322
0.83259
-0.460346
0.879279
0.524021
-0.571498
-0.10049
0.201815
0.56153
0.275782
-0.914963
-0.979517
-0.815623
-0.346602
-0.3406
0.440213
-0.147304
0.154284
-0.471895
-0.717635
0.961691
0.825032
-0.0285716
-0.0770669
-0.145382
-0.323047
-0.877942
-0.222853
0.545015
-0.552013
0.318587
-0.0180503
0.316204
0.194106
0.136238
-0.252772
0.964571
0.377808
0.0311616
-0.592861
-0.737192
0.640488
0.67461
-0.563937
-0.920578
-0.382597
-0.314896
-0.525314
-0.728057
0.766955
0.140463
-0.486102
-0.211432
0.194101
0.445751
-0.147917
0.542551
-0.614972
0.99617
-0.296501
0.208909
-0.681729
0.406492
-0.570292
0.484707
0.76986
-0.271011
-0.918674
-0.0547055
-0.541536
0.990344
-0.86989
0.263277
0.668575
-0.742344
-0.788686
-0.229892
-0.176769
0.248533
0.777277
0.845007
-0.609307
-0.591203
0.725366
0.487928
-0.50541
0.276984
0.571599
0.501469
-0.316725
0.00805112
0.828171
0.651711
0.578587
-0.164266
-0.804468
0.458211
-0.316465
-0.266518
-0.213178
-0.704927
0.270583
0.284905
0.822142
-0.029339
0.84265
-0.720943
-0.468593
0.907599
-0.479536
0.959518
-0.286912
0.437164
0.681835
-0.0261112
0.0190661
0.929122
-0.475309
-0.16225
-0.656266
-0.860246
-0.776079
0.955462
-0.189237
-0.0522361
-0.697508
-0.987933
-0.899043
0.868402
-0.312816
0.891996
0.766967
-0.774391
0.034725
0.941723
-0.742492
-0.540125
-0.0642029
-0.697598
0.319435
-0.00933213
0.175232
-0.178793
-0.0276834
0.237891
-0.581155
0.822766
-0.446866
0.308257
-0.243821
-0.896521
0.952532
-0.564605
-0.320471
0.672269
-0.184338
-0.184727
0.329707
0.346023
0.128292
-0.817663
0.861332
-0.0844924
0.265669
-0.179861
0.719266
0.223155
-0.876893
0.646465
-0.641184
0.977471
0.182272
-0.813857
0.458186
-0.703049
-0.865898
-0.646458
-0.801796
0.0274343
0.380199
-0.728771
0.747237
-0.820756
0.210928
-0.803394
-0.778027
-0.405908
-0.699637
0.0641789
-0.512549
0.796703
-0.11461
-0.0634157
0.596649
-0.138061
0.490417
0.0808422
0.715938
0.872889
-0.99181
0.563323
0.0581994
0.584894
-0.00487231
0.673829
0.335673
0.739061
0.952321
0.254112
-0.843123
0.673553
0.306548
-0.0933978
0.391007
-0.54103
-0.912848
0.261325
-0.884862
-0.269347
0.118105
0.392082
0.555638
0.992313
0.0741066
-0.283986
-0.417048
0.944828
-0.728835
-0.0207209
-0.886228
0.0298265
-0.53759
0.274165
0.85101
0.974328
0.573972
-0.83568
-0.638512
-0.321952
-0.562744
-0.753999
0.69302
-0.566682
0.9408
0.234059
-0.919327
-0.276061
0.308049
0.491655
-0.265945
-0.22683
-0.653036
-0.756494
-0.89766
-0.623673
0.184986
0.478013
0.573167
0.242528
-0.0731435
-0.616412
-0.240886
-0.494271
0.164546
0.79836
-0.437042
-0.793483
0.234126
-0.951122
0.762496
-0.312812
-0.107172
0.0176614
-0.76269
0.614975
0.108741
-0.33228
0.0736141
0.574006
-0.264282
-0.968938
0.754648
-0.62534
0.483179
-0.960785
0.17195
-0.606276
0.0701277
0.506379
-0.957755
0.144066
0.254934
0.625826
-0.739765
-0.628024
-0.685251
0.494341
-0.0379614
0.343411
-0.861725
-0.0342993
0.331329
-0.0356089
0.324965
-0.473793
-0.422254
-0.608268
0.0260975
0.904257
-0.476043
-0.249185
-0.681844
0.894489
-0.50861
0.835775
0.89788
0.473884
0.458514
-0.543947
0.947925
-0.540283
-0.00712863
0.73088
-0.321069
0.640389
0.840899
-0.701954
0.849533
0.576521
0.0759598
0.0712138
0.796401
-0.658305
-0.414255
0.28189
0.989021
-0.741356
0.422736
0.521968
-0.931423
0.503197
-0.608522
-0.135475
-0.080452
0.0670951
0.060417
-0.728778
0.0742037
0.0773037
-0.00635462
0.785873
0.0748018
-0.179923
0.394493
-0.794795
0.966408
0.232195
-0.126913
-0.764778
0.162887
0.114521
0.935645
-0.300861
0.568846
-0.482749
-0.754822
-0.824955
0.324329
-0.704095
-0.596569
-0.501111
0.347732
-0.666053
0.79379
-0.156424
0.748921
-0.695634
-0.664478
-0.190583
0.272007
0.371635
0.0551582
0.673876
0.396464
0.0648863
-0.09491
0.284517
-0.438108
-0.983412
-0.657338
0.250524
-0.411297
-0.942276
-0.719537
-0.932479
-0.916971
-0.541228
-0.938873
0.841476
0.80503
-0.837381
-0.900255
0.588752
-0.896903
-0.111386
-0.703274
-0.692796
0.0849545
-0.573344
0.785273
-0.783971
-0.573596
-0.81643
0.31637
-0.0864036
-0.244454
0.972262
0.848839
-0.128475
0.531325
0.600989
0.908352
-0.0707506
0.708786
-0.776534
-0.204672
-0.48933
-0.89499
-0.730386
-0.288207
0.480971
-0.564452
-0.342316
0.658566
-0.989649
-0.290592
-0.0717892
0.628655
0.669842
-0.66361
0.406696
0.908699
0.623975
0.582841
0.424382
-0.205653
-0.79254
0.956251
-0.0754756
-0.934469
0.278562
-0.918384
-0.270682
0.0973177
0.604113
-0.759697
0.912571
-0.687429
0.0112521
-0.170249
-0.119169
0.143594
0.434029
0.567397
-0.428202
0.150623
-0.134927
0.151354
-0.211338
-0.0792623
0.738367
0.766207
-0.224949
-0.0337399
0.997984
0.485374
0.744586
-0.349212
0.0694641
0.478579
-0.327662
0.776498
0.521227
-0.742288
0.196144
-0.258861
-0.181006
-0.164001
-0.549107
0.361632
-0.871486
-0.371522
-0.0744342
0.869583
-0.78936
0.301111
0.544685
0.515914
0.0933897
0.189127
0.215185
0.81424
-0.7073
0.275964
0.338274
-0.609777
-0.0357873
-0.0736085
0.145872
0.817026
-0.960047
0.196261
-0.104945
-0.717476
-0.831235
-0.935729
-0.891776
-0.1252
0.943622
-0.676173
-0.0995409
-0.902724
-0.768462
0.597049
-0.749087
0.696235
-0.662622
0.65663
-0.140042
0.682813
0.980779
0.415478
-0.199551
0.158842
-0.809751
0.549598
0.223766
-0.0354758
0.936858
-0.321914
0.0546619
0.374053
-0.85237
0.5315
-0.105665
-0.437128
0.402082
-0.118783
0.149532
-0.451447
0.0998165
-0.711009
0.960866
-0.400466
0.705382
-0.107802
-0.757766
-0.412684
-0.0749118
-0.38852
-0.0708077
0.0722797
-0.552329
-0.825013
0.665907
0.419609
-0.314447
-0.816104
-0.385844
-0.612796
0.223205
0.0181808
-0.396066
-0.77039
0.582284
-0.161471
-0.124027
-0.305639
0.682284
-0.640374
0.67457
-0.0168935
-0.247723
0.362362
0.271253
-0.552625
-0.52214
-0.0942323
0.819521
-0.0109655
-0.340007
-0.732798
-0.519815
-0.880112
0.315146
-0.452233
-0.642212
-0.940643
0.198071
-0.773911
-0.566642
-0.762201
-0.477312
-0.725009
-0.785093
-0.120138
-0.315406
0.473242
-0.917788
-0.074331
0.990252
-0.648953
0.752128
-0.979429
-0.730473
-0.364353
0.347618
0.422403
-0.0668726
0.932156
-0.974361
-0.31533
0.0306963
-0.925719
0.236564
0.702872
-0.728061
0.363058
0.277066
-0.962441
0.604097
0.626533
0.0568289
0.951387
0.970571
-0.769493
0.54145
-0.581609
0.0597214
0.937791
-0.99236
0.674336
0.677734
0.372779
0.00710807
-0.341097
-0.128199
0.44811
0.0598682
0.436909
-0.136571
0.440326
0.591548
-0.275954
0.249752
-0.364637
-0.284451
0.51954
0.973748
0.295573
-0.470774
-0.48227
0.971898
0.336613
0.239936
-0.700851
0.739945
0.561088
-0.432072
0.810254
0.328281
0.816347
0.42208
0.269599
-0.16475
-0.896155
0.900572
0.900466
0.263937
-0.221507
0.50597
-0.674681
-0.470304
-0.991159
0.993895
0.439622
0.513061
0.0188219
-0.587254
0.73412
0.728881
0.608945
-0.578219
-0.963047
-0.019263
-0.611972
-0.286767
-0.414114
-0.714834
0.66494
0.467501
0.750738
0.0684583
0.942268
0.66686
-0.503264
0.148273
-0.131068
0.215188
-0.844597
0.205978
0.37611
-0.760399
0.0538312
-0.507461
-0.840794
0.130665
-0.498963
-0.797404
-0.0189776
0.945086
-0.865274
-0.646837
-0.977618
-0.605403
-0.686615
0.0996742
-0.985066
-0.728549
-0.272816
0.541396
0.0601804
-0.606497
-0.228318
-0.402066
-0.179384
0.230187
-0.527433
0.644939
0.840884
-0.308146
-0.920197
-0.22208
0.358357
-0.533764
-0.263322
-0.286744
-0.666224
0.294408
-0.276845
0.696458
0.901384
0.329189
0.361669
0.253849
0.975534
-0.725793
-0.805636
0.618963
0.944037
-0.296175
-0.40228
0.255871
-0.242378
-0.871928
0.0424671
-0.396891
0.252433
-0.473479
-0.756313
0.943764
-0.967219
-0.409479
0.0174465
-0.0507863
-0.605256
0.497438
-0.0592736
-0.1612
-0.824905
0.341035
-0.796254
0.0705009
0.777315
-0.822959
-0.242498
-0.890746
0.785858
0.835507
0.079028
-0.43792
-0.346674
-0.736819
0.0307539
-0.66379
0.410645
0.869515
0.623432
0.934481
-0.71888
0.518116
-0.691367
0.419879
-0.674498
-0.53492
0.961008
0.463618
-0.692265
0.447826
-0.658691
0.662247
-0.411734
-0.172728
-0.48384
-0.290956
-0.343204
0.715941
0.511264
0.117657
-0.592648
0.677411
0.998255
0.0188976
0.380651
-0.734325
0.762229
0.711022
0.411195
0.468772
-0.32951
-0.636635
-0.456569
0.45858
0.554327
-0.591346
0.623228
-0.724281
0.485748
-0.342844
0.502311
0.825067
-0.301076
0.930965
-0.906324
-0.676072
-0.560648
0.695863
0.521843
-0.915939
0.890775
-0.734695
0.24727
0.640333
-0.49362
0.569748
-0.112584
-0.0975679
0.794243
0.755758
0.840192
-0.510233
-0.968727
0.586307
0.753673
0.654031
0.387619
-0.977108
0.0328342
-0.216482
-0.343772
-0.845637
-0.769773
0.572536
-0.495622
0.95645
0.636424
-0.997475
0.206464
-0.306163
-0.516136
-0.306754
0.70244
0.121006
0.872804
-0.928412
0.0125383
0.367563
-0.297188
-0.125368
0.318903
0.1576
0.912512
0.372239
0.50902
0.469562
-0.898874
0.226163
-0.278151
-0.489506
-0.896645
-0.122702
-0.553154
0.984685
0.145593
0.578902
-0.469922
0.994864
-0.149606
0.234396
-0.414456
0.0222267
-0.424698
-0.115511
-0.100452
-0.250228
0.600924
0.798811
0.624041
0.503913
0.253981
-0.758341
0.0815877
0.857329
-0.719646
0.354912
-0.231686
0.211423
0.116601
0.0150615
0.229593
0.630612
-0.00683246
-0.746979
-0.350457
0.635021
-0.266212
0.865212
-0.798266
-0.249347
-0.649715
0.652913
-0.729412
0.93828
0.633844
0.495263
-0.850333
0.389181
-0.30769
0.350556
0.664772
0.28965
-0.405546
-0.839432
0.761958
-0.557501
0.837905
0.867542
-0.660544
0.778544
0.051952
0.731914
0.930917
-0.222478
-0.377937
0.392954
-0.279472
-0.148806
0.418107
0.0238807
-0.160486
-0.963507
0.91259
0.41233
-0.728726
-0.666827
0.164457
0.863951
-0.114665
-0.968558
-0.403935
0.454095
-0.399844
-0.864722
-0.794883
-0.321975
0.803392
0.340555
-0.222167
0.911843
0.877986
0.833252
-0.975721
0.266432
-0.445822
0.0284898
-0.798814
-0.961438
-0.183562
-0.391205
-0.234031
-0.234351
-0.440647
0.215178
0.973297
-0.941891
-0.0792379
-0.257132
-0.548054
0.601897
0.186027
-0.528324
0.0229621
-0.562543
-0.921114
0.441857
0.899336
0.430818
-0.793359
0.170622
-0.718106
0.559703
-0.54547
-0.521503
-0.292585
-0.723209
0.444491
0.220621
-0.455134
-0.154214
0.323576
0.995374
-0.212302
-0.0762883
-0.000735714
-0.126296
-0.682215
0.975206
0.450401
-0.215233
-0.857566
-0.867248
0.357206
0.890946
0.235347
-0.0824718
0.583486
-0.560481
0.331603
-0.315306
0.988274
0.850845
0.41232
-0.470691
0.000551859
0.849006
0.32608
-0.752714
0.748171
0.0763654
-0.047222
0.925044
0.246579
0.939863
-0.192385
-0.673313
-0.591827
-0.162529
0.94923
0.659028
0.339918
-0.0459652
-0.873034
0.0433109
0.782817
-0.132356
-0.978631
0.254771
-0.318622
-0.653986
-0.354663
-0.245125
-0.456241
0.352771
0.812754
-0.151698
-0.635261
0.944889
-0.991994
-0.383895
0.506575
-0.538734
-0.383019
0.159326
-0.175393
-0.572331
-0.570642
0.898134
0.804522
0.761501
-0.876902
0.0407056
-0.382616
-0.586257
-0.360373
-0.370172
0.577525
-0.436574
0.0826173
0.427917
-0.115197
-0.917819
-0.0435727
0.0256713
-0.80315
-0.343297
-0.749297
0.785827
0.272446
-0.917217
-0.727573
0.588835
0.692715
0.0699609
0.475225
0.237697
-0.973221
-0.479137
-0.626187
-0.522342
-0.426885
-0.364273
-0.443639
0.389707
0.578435
0.646189
-0.572986
0.0530875
0.437804
-0.273343
-0.545896
0.873768
0.996692
0.112403
0.680397
-0.781373
-0.301915
0.307998
-0.425659
-0.263094
-0.825035
-0.551976
0.0971573
-0.439318
-0.694458
-0.19109
-0.0250993
0.031722
0.00388738
0.788486
0.117647
-0.858624
-0.229807
0.431687
-0.583903
-0.173625
0.402841
-0.149632
-0.760109
-0.926108
0.0425068
0.826756
-0.648491
-0.796992
0.573437
-0.963673
0.119067
0.260655
0.524714
-0.795215
-0.317367
-0.470423
0.833685
0.877815
0.128278
-0.657461
-0.415489
-0.688852
0.258915
0.437555
-0.636517
0.420303
0.285639
-0.611729
-0.242167
0.0146856
-0.534617
-0.848494
-0.75957
-0.690337
0.566722
0.494131
-0.803494
-0.72393
0.556747
-0.476164
0.37176
0.570556
-0.078493
-0.858451
-0.0543091
-0.801465
0.717267
-0.128003
0.823445
-0.684067
0.0587647
0.0236684
-0.541492
-0.125433
0.374356
0.456355
-0.0261075
-0.0863144
0.601139
0.0984149
0.971262
-0.734201
0.423364
0.843323
-0.19656
0.933817
0.984289
-0.691147
0.888858
0.817208
-0.574949
-0.688433
0.253947
-0.684284
0.665518
-0.760364
-0.794701
0.0210168
-0.591451
-0.354759
-0.745917
0.790261
-0.476155
-0.446694
-0.749759
-0.214755
-0.927821
0.0522733
0.430362
-0.571409
0.37748
0.735917
-0.336048
0.88181
-0.418162
-0.362263
0.648042
0.327465
-0.79594
0.0583462
0.785784
-0.661605
0.828228
-0.0537937
-0.341059
-0.746017
0.639579
-0.877359
-0.78264
0.715655
-0.574294
-0.0160654
-0.410138
0.541647
0.775112
0.143127
0.806982
0.596168
0.490776
0.615496
0.0382567
-0.636061
0.0522523
0.809479
-0.288981
-0.34408
0.868032
0.539856
-0.926652
-0.193542
0.518172
-0.146921
-0.491093
-0.611565
0.0670102
0.863369
-0.341186
0.355351
0.658084
-0.766366
0.11098
-0.0897244
0.775566
0.697775
0.686526
0.566658
-0.766029
-0.397176
0.594203
0.216967
-0.268141
-0.774807
0.349982
-0.162243
0.110382
0.464709
0.291853
-0.0766626
0.651457
-0.379273
-0.360383
-0.973208
0.148124
0.14241
-0.304608
-0.680094
-0.862428
0.805364
0.0725214
-0.407225
-0.960381
0.660147
0.807718
0.8974
-0.0044129
-0.803703
0.408057
-0.269622
-0.645469
0.192628
-0.705241
-0.909283
0.64708
-0.662283
-0.437089
-0.443126
-0.829114
0.0129902
0.0702407
0.259069
-0.548835
-0.307349
0.740257
-0.0791024
0.115973
0.859784
-0.0659166
-0.952808
-0.820777
0.417119
-0.374606
-0.748091
0.392025
-0.253803
-0.774897
0.801391
0.587886
-0.518087
-0.723936
0.340534
0.33854
0.0753586
-0.204562
-0.228599
0.761862
-0.118956
-0.716404
0.0791205
-0.554116
0.681
-0.49477
0.177997
0.835341
0.77189
0.926702
-0.897659
-0.479493
-0.296789
0.684483
-0.587032
0.803335
0.334955
0.86926
-0.479781
-0.651463
0.668742
-0.919348
-0.544179
-0.407389
-0.321018
-0.922911
0.959353
0.206161
0.760127
0.537326
-0.793764
0.302023
-0.845487
0.193996
0.172838
-0.84494
0.461043
0.564352
0.0952701
0.734571
0.601448
0.275616
0.0695065
0.709279
0.995617
0.675361
0.715045
-0.711769
0.554954
0.325381
-0.99242
0.654975
0.0543158
0.318884
-0.0485076
0.213076
0.754966
-0.365051
0.730726
-0.58169
0.762232
0.417539
0.93443
-0.514067
-0.629792
-0.719908
-0.676179
-0.457527
-0.509185
0.106464
-0.0516244
-0.101406
0.580137
0.377417
-0.972415
0.5152
-0.147765
-0.737814
-0.14765
-0.132613
0.774983
-0.019137
0.179488
-0.623469
-0.296853
0.378485
-0.540362
0.845857
0.655259
0.807859
0.785511
0.254272
-0.462293
0.042018
0.550936
0.849745
0.756721
0.389362
-0.582849
0.733394
-0.407463
0.0315874
0.153999
0.07476
-0.909611
-0.0795832
-0.663901
-0.630381
-0.867451
0.94967
-0.885016
0.132431
-0.920323
0.897509
-0.757791
-0.101823
0.389099
-0.132103
0.105669
0.824962
0.952564
0.81286
-0.821306
-0.497576
-0.0141119
-0.0387846
-0.77208
0.180437
-0.77971
0.317405
0.720098
0.339044
0.728371
-0.580897
-0.812967
-0.111935
-0.345678
0.840733
-0.724785
0.931304
0.611758
0.535641
0.95253
-0.847339
0.398086
0.319383
0.368857
-0.939859
-0.654151
-0.822718
-0.739144
0.980239
0.437155
0.154299
-0.985775
0.564061
-0.136089
-0.44921
-0.372054
0.1062
0.327345
0.705007
-0.320222
0.856895
0.836881
0.786788
-0.157068
-0.803384
-0.815235
0.158718
0.0644066
-0.673114
0.656148
-0.322686
0.697699
-0.324518
0.373893
-0.498979
-0.515153
-0.760129
0.119535
0.647033
0.440957
-0.683745
-0.302621
-0.0753704
0.80773
-0.821252
-0.933261
-0.411483
0.297199
0.275265
-0.822667
0.379147
0.12221
0.802191
-0.898471
0.510279
0.65544
-0.487579
-0.249069
-0.244162
0.143657
-0.381836
-0.314884
0.504793
0.440559
-0.129738
-0.746235
-0.883451
0.600949
0.201962
-0.882649
-0.199225
-0.940704
-0.928647
0.820615
-0.279229
0.915203
0.106198
0.35944
-0.767756
-0.850037
0.537531
-0.631083
-0.301398
0.239794
-0.897058
0.218327
0.146513
0.897682
-0.313017
0.782458
0.531573
-0.130247
0.78098
0.88042
0.654019
-0.0715237
-0.571184
0.426919
-0.932974
-0.294147
0.697474
0.54001
-0.666782
0.956805
-0.288383
-0.465143
0.720014
-0.162436
0.0638618
0.889231
-0.377446
0.107882
0.84037
0.950789
0.512128
0.0372501
0.376718
0.789837
-0.0694105
0.0434566
0.039451
-0.258177
0.0361282
0.666342
0.799249
-0.259959
0.564334
-0.848144
-0.649733
-0.604496
0.964248
-0.173018
-0.244706
0.590146
-0.121067
0.925541
-0.469827
-0.87764
-0.65964
-0.90952
0.206244
0.734864
-0.247921
0.759805
0.776172
-0.115587
0.790174
0.94478
0.213095
-0.562403
-0.974312
0.225512
0.399725
0.532526
0.277788
-0.26123
-0.898431
-0.22837
0.967316
0.42973
-0.833736
-0.667883
0.247603
0.399248
0.991164
0.921066
-0.40772
0.580006
0.30867
0.57154
0.573122
-0.866273
0.13842
-0.000382453
-0.369367
-0.835728
0.271793
0.229362
0.454831
-0.0308285
0.402461
-0.294555
0.796574
0.976921
-0.7941
-0.984772
0.197887
0.361752
0.0674287
0.502662
0.658016
-0.560015
-0.0567178
0.644299
0.952602
0.724174
-0.599574
-0.479659
-0.167261
0.193395
-0.488785
0.779201
0.274107
0.630461
0.932981
-0.0503346
-0.170292
0.310293
0.745416
0.398208
0.989452
0.800416
-0.747894
-0.627572
0.408989
-0.410592
-0.806847
0.0482205
0.234302
-0.534396
0.64418
-0.044167
0.146775
0.707139
0.5154
-0.188185
-0.39664
-0.755772
0.309988
0.143429
-0.670414
0.338661
-0.891871
0.115137
0.0502295
-0.75402
-0.471044
0.833662
0.577402
0.999495
0.825368
0.998175
0.49917
0.831102
-0.727254
-0.833704
-0.283093
0.71151
-0.251638
-0.0389364
-0.439111
-0.910399
0.258011
-0.371058
0.786328
-0.253192
-0.930146
-0.354841
0.711762
0.899922
0.22852
-0.806101
0.251842
0.198418
0.888644
0.360101
0.492079
0.414273
0.150956
-0.714156
-0.605029
-0.785073
0.59826
-0.457393
0.502833
0.798514
-0.0316534
-0.911669
0.787929
-0.104549
-0.654988
0.985719
-0.477478
0.516635
-0.990467
-0.133322
0.821346
-0.567309
-0.0960437
0.151082
-0.770708
0.370291
0.0750516
-0.757159
-0.00655576
-0.481143
-0.112395
0.49691
0.152307
-0.671726
0.473773
-0.999563
0.158824
0.523146
0.292911
-0.646129
0.190674
0.660638
-0.57801
0.702001
-0.420178
-0.203407
-0.389113
-0.251242
0.773284
0.237469
0.0189698
0.387726
0.189082
-0.606161
0.932028
-0.405519
0.837369
0.234726
-0.135141
-0.949315
-0.772665
0.333164
-0.566437
-0.684152
-0.536491
-0.764472
0.106859
-0.940876
0.647711
0.12313
-0.287617
0.797719
0.0419523
-0.614684
0.0828242
0.478856
0.011932
0.388306
-0.196013
0.748996
-0.131601
0.195947
-0.720764
-0.882168
-0.220996
-0.61174
-0.270636
-0.388414
0.921828
-0.245983
-0.386695
-0.926861
0.0893605
-0.22333
-0.24147
0.366963
-0.336467
-0.882203
-0.151883
0.713309
0.171347
-0.0950616
-0.0217687
0.258649
0.674526
-0.131566
-0.0684249
-0.677567
0.677398
-0.277267
-0.218247
-0.238453
-0.199181
0.486398
0.865517
-0.0109856
0.805571
0.531485
0.0621261
-0.16893
0.235385
0.208491
0.397706
-0.639383
0.708496
0.191141
-0.929859
0.927718
-0.592492
0.364726
0.867418
-0.812334
0.335183
0.788729
-0.514733
-0.0422084
0.449391
0.0753545
0.473062
-0.17555
0.843642
-0.936646
0.46655
-0.926231
0.650027
0.249008
-0.241146
-0.496581
0.998588
-0.628715
-0.174466
0.538915
0.284271
-0.47371
-0.808264
-0.99825
0.316659
-0.46231
0.758184
-0.912727
-0.822969
-0.537363
0.218413
0.375561
-0.818699
-0.237511
0.495938
0.294282
-0.299147
0.811719
0.87721
-0.874727
-0.0652128
-0.120913
-0.842521
-0.960845
0.639112
0.712076
-0.851
-0.69111
0.660099
0.140479
-0.36638
-0.896061
0.623528
-0.928822
0.591255
0.631015
-0.424428
0.0872653
-0.836639
-0.0319507
-0.826849
0.74528
-0.0483078
-0.339167
-0.658379
-0.82349
-0.732493
0.15012
-0.467158
0.954481
0.574849
-0.897292
0.123422
0.959985
-0.182623
0.393928
-0.0203613
-0.0186827
-0.1454
-0.853718
0.35874
-0.377072
0.46721
-0.583054
0.124061
0.00175283
-0.444633
0.071756
0.711002
0.860702
0.266031
-0.640632
-0.564276
0.946438
0.45577
0.105601
-0.589721
0.0277315
-0.203452
0.553066
0.75176
0.400364
0.40731
0.283492
0.632232
0.120196
-0.143742
-0.183985
0.10787
-0.835875
0.916411
0.146423
0.87001
0.220587
-0.962356
-0.211026
0.0828128
0.0160357
-0.354456
-0.926898
-0.91643
0.106287
0.500371
0.796877
-0.699446
0.525655
0.50045
-0.426416
-0.861993
0.167306
0.736746
0.724382
0.337072
-0.747078
0.925298
-0.410243
0.707356
0.396166
0.396565
0.283618
-0.578273
-0.2283
-0.0860016
0.975934
0.370211
0.630123
0.634957
-0.762705
0.181761
0.917181
-0.0510362
-0.652868
-0.806794
0.554838
-0.926933
0.00415515
0.384977
-0.810806
0.54826
0.149348
0.725097
-0.111938
-0.886773
0.267158
-0.550888
0.620961
0.394013
-0.0835481
-0.725808
-0.134179
-0.284875
-0.925821
0.766457
-0.00514344
-0.259871
0.355956
0.328247
0.0970063
-0.182165
0.897006
-0.842137
0.0659028
-0.0950341
-0.233521
-0.900798
0.146441
-0.431773
-0.337645
0.905839
-0.308268
0.439881
0.9517
0.202917
-0.141178
0.485568
-0.452952
0.952733
-0.905163
-0.678833
-0.972104
0.252315
-0.218992
-0.878183
-0.843569
-0.00677964
-0.374556
-0.544926
-0.436431
-0.754759
0.400372
-0.0733843
-0.973012
0.493832
0.213822
-0.275671
0.393152
0.955914
-0.223901
0.255203
0.0287288
0.0663573
-0.18513
-0.683031
0.754434
0.203244
0.55148
-0.881291
-0.581341
0.606327
0.839408
-0.0146352
0.430866
0.237464
-0.671257
0.532258
-0.251049
0.342794
-0.0630003
0.965844
0.958057
0.453058
-0.00701421
-0.201187
-0.0622489
0.820339
0.305683
0.753216
-0.986031
0.780516
-0.958469
0.93135
-0.643785
-0.15611
-0.122404
-0.780251
0.907942
-0.271034
0.916713
0.314436
-0.853431
-0.624795
-0.948424
-0.921836
-0.685305
-0.945073
0.908063
-0.54287
-0.983871
0.295643
-0.572003
-0.559605
-0.994374
0.864452
0.48431
0.190731
-0.790639
0.545507
-0.111569
0.0306121
0.805065
0.310277
-0.742656
-0.500794
0.956245
-0.649714
0.87197
-0.932774
-0.80338
0.690929
-0.978072
0.443628
-0.595521
-0.119233
0.908907
0.858852
0.105339
0.783031
0.613383
0.928971
-0.991442
-0.538038
-0.801798
0.966868
-0.58437
-0.493333
0.400397
0.706826
0.858648
0.223692
-0.0793689
0.583094
0.601286
0.578776
0.196198
-0.0128599
0.649168
-0.531757
-0.103492
-0.0292128
0.371432
0.788994
-0.868874
-0.851302
0.537475
-0.340765
-0.962504
0.337492
-0.765308
-0.928689
0.443433
0.747791
0.840016
0.980972
-0.310885
0.262332
0.823159
-0.991027
0.0204193
0.654638
0.272492
-0.998086
-0.329798
0.170426
-0.729353
0.721827
-0.582492
0.400906
0.600169
0.515631
-0.0246586
0.728062
0.783036
-0.504742
0.574279
-0.852784
-0.412498
0.801879
-0.139478
-0.196055
-0.274019
-0.750628
0.685132
-0.479473
-0.815419
-0.40425
0.383896
0.520259
0.896561
0.169971
-0.347379
-0.305614
-0.274761
0.756366
0.0215987
0.820266
-0.451753
0.491878
0.109804
0.578866
-0.654255
0.608461
0.339345
-0.981396
-0.674444
-0.0344815
0.475505
0.67324
0.0428672
-0.109051
0.474346
0.234705
-0.16604
-0.654077
-0.126563
-0.170548
-0.355062
-0.634054
-0.370565
-0.280437
-0.0191838
-0.230081
0.956055
-0.99584
-0.487482
-0.374726
-0.747972
0.320711
-0.793889
0.788413
0.111298
-0.47654
-0.435481
-0.411537
0.786011
-0.442738
0.362119
-0.569768
0.187742
-0.596479
-0.72668
0.103376
-0.168461
-0.17898
0.290106
-0.569793
0.0644038
-0.869448
0.304419
0.30566
0.618818
0.229953
0.0834245
0.346716
0.740292
0.269077
-0.702093
0.718847
-0.996101
-0.882069
-0.0019525
-0.0787358
0.669339
-0.372159
-0.18399
0.613839
0.566437
-0.0255193
0.544305
-0.730169
0.680449
0.99587
-0.0308902
0.939215
-0.973716
-0.0374315
-0.613517
0.857177
0.0940441
-0.0912329
-0.491103
0.210122
0.493865
0.136124
0.916513
0.776176
-0.457756
0.976994
-0.55452
-0.567482
0.881367
0.150478
0.677432
0.497
0.721569
0.38945
-0.624778
0.745921
-0.0552432
-0.72343
-0.966077
0.740711
-0.0307515
0.767092
0.329488
-0.864843
0.522027
0.643634
-0.0983519
-0.663385
-0.0909456
-0.702693
0.998912
0.547207
-0.36845
-0.829372
-0.284313
0.366545
-0.934827
0.11484
-0.684144
0.585101
0.806773
-0.568398
-0.948197
0.355105
0.263924
-0.183893
0.811544
-0.913898
-0.267267
-0.795798
0.420833
-0.923679
0.332266
-0.932519
0.191953
-0.529538
-0.462258
0.255416
-0.260932
-0.642964
0.575853
-0.146284
0.522683
0.616482
0.787807
0.552325
0.060152
-0.0419474
0.135287
0.135093
0.246014
-0.921555
-0.00795258
-0.346101
0.794421
-0.00409371
-0.79243
0.254412
-0.494973
-0.957024
-0.534871
-0.963527
0.392227
-0.952584
-0.701579
-0.885025
0.363934
0.967572
0.603042
0.278593
-0.507923
-0.864664
-0.351011
0.571065
-0.0299984
0.66302
0.0772288
0.93471
0.780844
-0.71105
0.627825
-0.0276236
-0.899487
-0.201722
0.716986
-0.00596836
-0.0678238
-0.215321
-0.775409
0.187544
0.0910202
-0.994963
-0.255483
-0.190999
-0.16804
0.312721
0.17294
0.54538
0.769422
0.688532
0.590178
0.377915
-0.432598
-0.286038
0.686531
0.12325
-0.767242
-0.987013
-0.85202
0.109092
-0.115513
-0.157084
-0.290641
0.801687
-0.663635
0.820564
0.0100532
-0.750121
0.1396
0.0228476
-0.0998338
-0.238882
0.163044
0.67644
0.818877
-0.253452
0.355696
0.93458
0.556182
0.843697
0.0417665
-0.555464
0.84577
0.536168
0.069613
-0.960174
0.930231
0.2265
0.111031
0.857609
0.0224091
-0.700938
0.195057
-0.0270837
0.355649
-0.00262247
0.457045
-0.385062
-0.804799
0.469368
-0.703204
0.570918
0.421782
0.867685
0.259867
0.207487
-0.736477
-0.363326
-0.621609
-0.0161518
0.906455
0.670367
-0.695654
0.472878
0.305282
-0.541664
0.362114
0.670609
-0.270991
-0.246923
-0.347895
-0.715393
-0.847378
0.851314
0.143592
0.355053
0.536752
-0.0749139
0.227373
-0.896213
0.172484
0.0776709
0.606545
-0.569715
0.954727
0.92162
-0.299098
0.0268796
-0.023694
-0.739703
-0.671187
0.586733
-0.379376
0.9705
-0.0830699
-0.334745
0.631063
-0.673505
-0.911721
0.653202
-0.501793
-0.627285
-0.0160323
0.650436
-0.750385
0.440169
-0.0465743
0.0272534
-0.406772
-0.0712002
-0.904032
-0.801457
-0.164017
0.0541143
-0.938429
-0.153858
-0.336458
-0.519677
-0.459427
0.171028
0.0246929
0.707323
-0.670963
0.402575
0.200787
-0.673729
0.553641
0.15599
0.912611
0.748241
0.206136
-0.776083
0.229409
-0.864563
-0.908445
-0.765347
0.0111961
0.622727
-0.115828
0.0865274
0.246106
-0.902527
-0.783675
0.203762
0.181753
0.154705
0.552857
-0.70127
0.0422014
0.328387
-0.0649953
0.406199
0.319764
0.725668
0.117574
-0.604521
-0.675102
-0.25239
0.606565
-0.302092
-0.309868
0.27132
-0.254793
0.92519
0.492478
0.382249
-0.968544
-0.596257
-0.209052
-0.370289
0.832596
-0.081608
-0.399131
0.424692
0.695156
-0.127889
-0.541038
0.902649
0.53037
0.716589
0.28606
-0.684878
-0.97905
-0.471073
0.63213
-0.491897
-0.0070394
0.225811
0.720953
-0.299549
0.830384
0.136268
-0.618975
0.0364269
0.695764
-0.674419
0.0673163
0.124292
-0.630072
-0.157372
-0.0468812
0.917377
-0.620883
-0.902893
-0.666451
-0.082857
-0.356284
0.372932
0.705668
-0.789194
-0.222325
0.953236
0.971441
-0.575601
0.155785
-0.60455
0.931541
0.7334
0.180662
0.312425
-0.379389
0.858443
0.0660228
0.563426
0.0782198
-0.619011
0.957958
-0.247113
-0.114715
0.362686
0.139769
-0.818956
-0.611383
-0.908187
-0.101255
0.404684
-0.747139
0.900596
0.535977
0.453538
0.791452
0.290481
-0.386206
0.777934
-0.422096
0.589072
-0.662193
-0.485803
0.873964
-0.0371562
-0.633851
-0.622253
0.213516
0.733328
-0.400034
0.583032
-0.525517
0.959398
-0.643359
-0.0537625
-0.633654
0.770134
-0.986167
0.450271
-0.489828
-0.321409
0.71705
0.586341
-0.699456
0.33439
-0.326301
0.865984
0.445562
0.268811
0.75018
0.405343
-0.12864
0.302492
0.519991
0.422984
0.695151
0.43592
0.188103
0.556568
0.550408
-0.137077
-0.70211
0.115051
0.429271
0.0590405
-0.299317
-0.95286
0.324283
-0.571596
0.0584584
-0.334492
-0.0959619
-0.757518
0.465353
-0.774009
0.633926
-0.774637
-0.925696
0.941962
0.315593
-0.0451003
0.577124
-0.653583
0.454872
0.952451
0.995293
0.152919
0.68214
-0.0756913
0.265844
0.27516
-0.330252
-0.11141
0.261335
-0.221048
-0.765616
0.997579
0.341673
-0.379854
0.00928142
-0.647938
-0.566859
-0.0257864
0.025743
0.731981
0.363037
0.127197
0.924409
-0.156774
-0.348263
0.975875
0.843412
-0.838426
-0.367006
-0.829643
-0.855257
0.58572
-0.707565
0.793589
-0.185013
-0.0159341
0.452047
-0.763268
0.976457
-0.633648
-0.617698
-0.945306
-0.177658
-0.210929
-0.971103
0.639685
0.277047
-0.296928
0.0562807
0.921145
0.382565
-0.872541
-0.803367
0.410922
-0.73812
0.127949
-0.610074
-0.905065
-0.430878
-0.0677537
-0.806318
-0.144324
0.478714
-0.942712
-0.706913
-0.0806637
0.594916
-0.273704
0.594283
0.793644
-0.744107
-0.548439
-0.803575
-0.21382
0.732354
-0.97903
-0.411807
0.300297
-0.360634
-0.390462
-0.277134
-0.40494
0.0926228
-0.533272
-0.377228
-0.977393
-0.443304
0.968448
-0.362613
-0.848118
-0.94599
-0.240449
0.0481026
0.150065
-0.97788
-0.667881
0.321315
-0.886688
0.905
0.425648
0.547751
0.190493
-0.621793
0.963298
-0.580592
-0.898362
-0.313012
-0.981331
0.936245
-0.938159
0.671877
-0.602663
0.565635
0.925564
-0.510036
0.566088
-0.969631
0.457224
0.433047
-0.174984
-0.954454
-0.212828
0.243255
0.965618
-0.260887
-0.476063
0.702967
-0.509178
-0.482531
-0.52841
-0.575943
0.883984
0.969312
-0.775271
0.344368
0.215496
-0.312344
-0.35963
-0.337016
-0.754496
-0.616541
0.882377
0.97815
0.159918
0.715343
0.454243
-0.0591508
0.798267
-0.23574
-0.338435
0.697831
-0.0837611
-0.22337
-0.409358
-0.938845
0.0484879
0.331056
-0.773623
0.806957
-0.303712
0.842456
0.746005
0.0514419
0.542308
0.740843
0.298602
-0.627405
0.352937
0.272313
-0.666106
-0.418401
-0.851041
0.354614
-0.907265
-0.680801
-0.853992
0.606913
0.665991
-0.803578
-0.759966
-0.0760827
0.197816
0.151617
0.0271794
-0.659363
0.789465
0.0647128
0.973883
0.472497
-0.380086
0.46221
-0.980674
0.0426068
-0.885396
-0.645135
0.847601
-0.308569
-0.726281
0.197707
0.47847
-0.899087
0.202646
-0.772891
-0.81742
-0.73688
0.75147
-0.731564
-0.755953
-0.0385969
-0.0280296
0.0282558
0.251222
-0.66576
0.586996
-0.892365
0.850874
0.0947645
-0.446768
-0.590984
-0.867962
-0.951569
0.21645
-0.28413
-0.785307
-0.595616
-0.888185
0.388037
0.687341
0.195124
-0.696872
-0.984164
0.387282
0.592306
0.293834
-0.623103
-0.519603
-0.802995
-0.441757
-0.456688
-0.148436
0.371057
0.715139
0.387863
-0.951337
0.675671
-0.0963927
-0.930648
0.576875
-0.712618
0.906048
-0.966996
0.247422
-0.924244
-0.114799
0.601602
0.652307
0.61089
-0.784294
-0.568268
-0.68672
-0.322019
-0.326249
-0.596921
0.250208
0.888686
0.415606
-0.701305
0.86114
0.960138
-0.336804
0.202981
-0.479126
-0.0949362
0.447215
0.00623689
-0.965441
0.229738
-0.305768
-0.339605
0.571938
-0.750922
0.847742
0.898816
-0.120402
-0.85761
0.0208468
-0.786106
-0.637083
0.40943
-0.963374
-0.336564
-0.191519
-0.51305
-0.399613
0.287002
0.326768
0.479062
0.0216671
0.328317
-0.935248
-0.870386
0.844276
-0.0846642
-0.881967
-0.484651
-0.818928
-0.67383
0.381386
-0.408512
0.227467
-0.320297
-0.805402
-0.965906
0.26476
0.545847
-0.260365
-0.373799
-0.837545
0.0803412
-0.872172
-0.442907
0.458839
-0.0475669
-0.357015
-0.123596
0.509596
-0.222563
0.205798
0.580875
-0.479159
0.516075
0.91451
0.90073
0.836764
-0.843513
-0.238169
-0.139845
-0.522487
-0.469427
-0.147628
-0.537321
-0.234737
0.47045
-0.191612
-0.624934
0.65296
0.397776
-0.35107
-0.0359283
-0.328394
0.785454
0.0222553
-0.616419
-0.841278
0.126866
0.0991868
-0.294935
-0.0350769
-0.577761
0.263001
0.602454
-0.889891
-0.283873
0.511839
-0.394981
0.366284
0.218879
0.393059
-0.0308126
-0.84652
0.0491869
0.0609043
0.545056
-0.450967
-0.212379
0.86221
0.159216
0.187475
-0.428899
-0.983622
0.380354
-0.559646
0.310587
0.56283
-0.95149
-0.00152869
-0.976924
-0.612161
-0.579655
-0.299981
-0.332584
0.771465
-0.420967
-0.839445
0.773038
0.0127276
0.492273
0.990743
0.207338
0.874741
-0.198243
0.910229
0.0093064
-0.14363
-0.618441
-0.290358
0.937374
0.624149
0.895666
0.945754
-0.651098
-0.681199
-0.805834
-0.904741
0.507014
0.230009
0.769462
0.842915
0.859571
0.900358
-0.880807
-0.365626
0.361333
-0.944721
-0.52284
-0.264315
-0.247933
-0.321922
-0.386641
-0.678036
-0.00175578
0.116392
-0.731207
0.000271471
0.858426
0.983294
0.0651283
0.278425
0.990015
-0.05939
0.864295
0.375351
0.327334
-0.32027
-0.7691
-0.00582136
0.168445
-0.625462
-0.951014
0.734632
0.887188
-0.00253255
0.000813138
-0.364292
-0.234439
0.965485
0.620861
0.744141
-0.631586
-0.803075
-0.248872
-0.519372
-0.164744
0.857716
0.0182679
-0.095114
0.876038
0.652919
-0.397368
0.17276
0.0538435
0.481117
-0.026892
-0.844306
-0.96364
0.892175
-0.245785
0.207755
0.761994
0.654831
-0.928639
-0.181557
-0.486531
-0.032918
0.8561
-0.945733
-0.506517
-0.737069
-0.631436
0.809493
0.485326
0.180018
0.0108298
-0.291927
-0.715536
-0.357129
-0.330477
-0.299101
0.332909
0.879786
-0.708511
0.629757
-0.132635
-0.968032
-0.927776
-0.898259
0.423999
0.979963
0.578651
0.250182
-0.725125
0.415575
0.455086
0.996938
0.472302
-0.839616
-0.155842
-0.119124
0.76352
0.902702
0.365049
0.280789
-0.286597
-0.283933
-0.383902
0.428517
-0.982951
0.187488
0.346259
0.570267
-0.334507
-0.10773
0.271178
0.929293
0.279706
0.835727
0.584004
-0.126851
0.533279
-0.354603
0.203869
0.192059
0.17253
-0.991439
0.929715
0.0785751
0.584415
0.022626
-0.506735
-0.168485
-0.817343
0.907546
-0.78383
0.0370685
-0.094365
-0.983804
-0.315535
-0.795316
0.489013
0.0582665
-0.320763
-0.593642
0.806676
0.6543
-0.530816
-0.835924
0.314197
-0.20692
0.218174
0.681034
-0.203473
-0.161675
0.868068
-0.100791
-0.839766
-0.377908
-0.885726
-0.522034
-0.599009
-0.48215
-0.535066
0.727202
-0.760842
0.380835
0.221223
0.332075
-0.237217
0.796425
0.869116
0.134218
0.321161
-0.927345
0.12319
0.173376
-0.797693
0.957565
-0.105239
0.731999
-0.956802
0.50978
-0.166807
-0.99811
0.727337
-0.296919
0.00920632
-0.479043
0.965608
0.845865
0.175365
-0.0317171
0.126939
0.44722
0.890478
-0.129259
-0.487121
0.641359
0.631672
-0.138651
0.0495814
-0.171265
0.797041
0.348467
0.125359
0.172944
-0.825515
-0.533139
0.851307
0.474995
-0.70936
-0.944317
0.682275
-0.0214291
-0.879272
0.624286
-0.235159
-0.372799
0.0704641
0.0490429
-0.554705
0.538052
-0.563921
0.0518406
-0.39747
-0.649024
-0.198991
0.196728
-0.608815
0.954684
0.409199
0.896596
0.0154022
-0.16464
-0.693136
-0.933617
-0.778249
0.702981
-0.369094
-0.915914
-0.764026
-0.250888
-0.975198
0.280949
0.692515
0.106441
0.869204
-0.332655
0.356733
0.801569
0.943153
-0.19133
0.450478
0.242467
-0.208451
0.11735
-0.373224
0.139777
-0.790603
0.409489
0.470588
0.101717
0.951279
0.223253
0.510877
-0.860933
0.0538034
-0.451213
-0.905457
-0.828696
-0.988644
0.832986
0.104536
0.334717
0.973473
-0.450648
-0.694042
-0.748365
0.578996
-0.685192
0.194972
0.286775
0.464717
-0.454441
-0.0358913
0.290671
-0.201215
-0.356718
-0.578516
-0.378959
-0.149919
-0.919136
-0.509683
-0.836747
-0.153938
0.489786
0.992965
-0.839213
0.600771
-0.316477
0.182342
0.800727
0.217783
-0.544185
-0.375924
-0.00460383
0.859167
-0.351965
-0.129869
0.202177
-0.0805569
0.873474
0.612913
-0.958802
0.0599911
-0.222648
0.578496
-0.16356
-0.105438
0.812765
-0.589438
-0.31153
0.800463
0.0501446
0.666671
0.658199
-0.456801
-0.708675
-0.141047
-0.202795
0.843462
0.606865
0.779538
-0.292424
0.360255
0.118379
-0.531091
-0.634498
-0.865537
0.795564
-0.425684
-0.0750492
0.0678595
-0.547772
0.136354
0.240981
-0.0840605
0.354701
0.202492
0.672893
0.352104
0.404792
-0.755427
0.887063
-0.728223
-0.464155
0.725112
-0.925532
-0.59933
-0.0343999
-0.262344
0.701336
-0.429606
-0.417947
0.463068
-0.460769
-0.893362
-0.0718892
-0.022181
-0.227443
-0.417463
0.466358
0.941731
-0.898984
0.0921182
0.820554
-0.132923
0.90377
-0.714678
0.762588
-0.0173836
-0.813555
-0.768368
-0.660208
0.41035
-0.542936
-0.730501
0.460858
0.919023
-0.751772
-0.928781
0.986959
-0.310726
0.957449
-0.347135
0.455713
-0.674798
0.0939754
0.694413
-0.649552
0.114609
-0.430473
0.403926
-0.753567
0.840772
-0.120735
-0.178202
0.119959
-0.492024
-0.00575338
-0.62957
0.678814
-0.183048
0.771067
-0.122132
0.915742
0.322929
-0.870019
-0.967264
-0.0122748
-0.024408
0.799643
-0.690131
0.694292
0.31204
0.83191
-0.0542752
0.342336
-0.252584
-0.833458
0.464857
-0.424551
-0.0231313
0.863168
0.23896
0.546314
0.100309
-0.481284
-0.142745
-0.120067
0.647646
0.819612
-0.698748
0.199316
0.786488
0.201216
-0.13219
-0.283988
-0.934427
-0.850955
0.928564
-0.794706
-0.567053
-0.530085
0.146795
0.448084
0.0865542
-0.487165
0.448966
-0.659168
0.155999
-0.782776
-0.363497
-0.286604
0.814559
0.61714
-0.493742
-0.400153
-0.313302
0.292543
0.619199
-0.099358
-0.765247
0.499666
-0.253393
-0.505865
0.732734
-0.684344
-0.998746
-0.509937
-0.261997
0.956472
0.11594
-0.652801
-0.475314
-0.352499
0.791235
0.357028
0.715601
0.110071
0.347653
0.714531
0.569917
0.649222
0.0730511
0.600731
-0.649216
-0.214802
0.318257
0.17257
0.787998
-0.0329628
-0.506586
0.403211
0.384688
0.499048
-0.700721
-0.677698
-0.234014
0.380895
0.790514
0.31054
-0.918104
-0.808089
-0.203996
-0.0979587
-0.0928076
0.0967092
0.179641
-0.650475
-0.737905
-0.645129
0.157809
0.640912
-0.66301
0.904109
0.743814
0.41226
-0.399823
-0.740736
-0.235831
0.61502
-0.00403199
-0.5283
0.0594862
-0.987284
0.132988
0.291529
-0.241268
-0.155127
0.409941
-0.354094
0.673198
0.714911
0.219645
-0.354079
0.0179317
0.99181
0.52556
0.596464
-0.630745
-0.978935
0.731631
-0.333019
0.57094
-0.919567
0.328153
0.32715
-0.988764
0.44822
0.0306597
0.298517
0.532015
-0.186694
-0.274852
0.736828
0.598242
-0.799439
-0.824361
-0.0692065
0.727297
0.990731
0.237307
-0.284856
0.498921
-0.940185
0.53485
0.316566
-0.861751
-0.62456
-0.464246
0.884578
-0.288166
-0.850327
-0.12994
-0.458395
0.729664
0.331425
0.824224
0.554762
0.813076
-0.897562
0.37484
-0.460399
0.0777774
0.882764
-0.854029
-0.66893
-0.389263
-0.551149
0.687789
-0.34464
0.829781
0.345258
-0.587887
0.482024
0.233577
0.483746
0.702406
-0.747588
-0.559629
0.0185007
0.584739
0.98344
-0.941208
0.984548
-0.560676
0.410595
0.342944
0.178403
-0.10022
-0.392668
0.4675
0.790499
0.285404
-0.642269
0.584052
-0.0465666
0.50177
0.00616166
-0.801956
0.338016
-0.0284705
-0.19902
-0.76961
0.342745
0.0459869
-0.226167
0.701485
0.433162
0.438759
-0.22072
-0.96504
0.972413
-0.183733
-0.203298
-0.302149
0.488642
-0.762492
0.560462
-0.291101
-0.318566
0.728453
-0.917225
0.541968
-0.819126
0.0845515
0.0886429
-0.145468
-0.71007
-0.462878
0.940511
0.476231
-0.952574
0.765984
0.658214
-0.622443
0.131098
0.18729
-0.349404
0.885983
0.13336
0.930529
-0.361004
-0.202131
-0.690757
-0.372144
0.0767469
0.897227
0.466751
-0.025678
0.125765
0.0335028
-0.883159
0.393158
-0.61265
-0.595322
0.307657
0.927369
-0.138893
-0.709895
0.169399
0.0347641
-0.638946
-0.493356
-0.718029
-0.0555446
0.712581
0.886577
0.548491
-0.490662
-0.300793
0.0069845
0.126305
-0.22137
0.332941
-0.891863
-0.702993
0.881701
-0.918885
-0.648329
0.857079
-0.54207
-0.350245
-0.36391
-0.833875
-0.791222
-0.15618
-0.186287
-0.162069
0.907789
0.114857
-0.970948
0.189452
-0.285585
-0.220646
-0.485106
0.66899
0.85381
0.824763
-0.42417
-0.325389
-0.477061
0.211847
-0.707044
0.465554
0.424122
0.736652
0.143184
-0.526824
-0.11402
-0.0664151
-0.714485
-0.922327
0.91894
-0.418992
0.468307
0.561783
-0.0465292
-0.221311
-0.0468322
0.211168
-0.774394
0.797455
-0.911796
-0.829583
0.859654
-0.667342
-0.942773
0.856675
0.22792
0.689296
-0.531727
-0.797197
0.598157
-0.555005
0.570598
0.658373
-0.774665
0.694685
-0.195218
-0.0464984
0.0134744
-0.329731
0.515961
0.438581
-0.278594
-0.102016
0.486879
-0.798957
-0.980095
-0.103804
-0.845271
-0.688696
-0.286545
0.055209
-0.458376
0.209149
0.41166
-0.536633
-0.110527
-0.0435527
-0.69118
-0.53107
-0.905084
-0.213753
-0.824508
-0.255313
0.15595
0.163342
-0.217378
-0.454459
-0.50031
0.545338
0.268101
0.985204
-0.684103
-0.742155
0.449443
0.162975
-0.713774
0.651713
-0.21492
-0.324912
0.935239
0.190459
0.289368
-0.502233
-0.0204098
-0.39761
0.586094
-0.230686
-0.730932
-0.00756329
-0.665619
-0.909761
0.555849
-0.362732
-0.610818
-0.226989
0.0663364
0.75987
-0.450464
0.91859
0.637047
-0.340794
-0.507671
-0.0349116
-0.758888
0.663858
0.460792
0.901917
-0.0990698
0.543488
-0.64465
-0.271269
-0.927445
0.414939
-0.884071
-0.333133
0.116598
-0.876076
-0.647471
0.423894
0.359387
0.899239
-0.708737
-0.730803
0.864854
0.755941
0.153369
0.0391041
0.284892
-0.96235
0.389831
-0.369155
0.072431
0.0233703
-0.149082
0.00437069
-0.558193
-0.46766
-0.629282
0.570949
0.775402
0.858192
-0.488333
0.154353
-0.37003
-0.00347237
0.744283
-0.102544
0.116236
0.134224
-0.753835
-0.260696
-0.514864
0.558857
-0.566656
0.682156
-0.487055
0.401031
0.387082
-0.761556
-0.0822212
0.491386
-0.515581
-0.995977
-0.601712
-0.927646
-0.516272
0.133611
-0.422998
-0.0758973
-0.594313
0.78234
-0.427689
0.447731
0.85038
-0.196732
0.0891272
-0.641514
0.0737442
-0.189608
0.806687
-0.856628
-0.995338
0.986962
0.363835
-0.851075
-0.666621
-0.674672
-0.566116
-0.894413
0.775691
-0.375928
0.169885
0.810093
0.342346
0.401197
-0.373559
-0.191922
0.368091
-0.998753
-0.17756
-0.643687
0.0994237
0.330321
-0.365108
0.342174
0.623506
-0.40102
0.917599
0.0194384
-0.0585996
0.572005
-0.873814
-0.132683
-0.850714
0.599588
0.963887
-0.378643
0.92352
0.925869
-0.111256
-0.46988
0.644053
0.402931
0.514585
0.106622
0.133913
0.608711
-0.770689
-0.0346321
-0.226477
0.441596
0.781122
-0.722834
-0.249648
-0.781431
0.337232
0.148793
0.459314
-0.104715
0.420468
-0.328307
0.562777
-0.13154
0.334671
0.939586
0.570711
-0.177845
0.630553
-0.501352
-0.684976
-0.135886
-0.622785
0.327117
0.277909
-0.409583
-0.920885
-0.481976
-0.857592
-0.494045
-0.746922
-0.036492
0.901399
-0.371368
0.889801
0.828206
-0.476369
-0.815485
0.884734
0.791935
-0.873507
-0.694233
-0.456784
0.992904
-0.335091
-0.626978
-0.0170965
-0.812789
-0.700869
0.204323
0.329882
-0.249775
0.0866182
-0.96806
-0.796641
0.0690861
-0.966657
0.637107
0.699913
-0.762837
-0.198887
0.0625646
-0.520196
0.559817
-0.0748746
-0.614502
0.248372
0.288042
0.238394
-0.385013
0.0601921
0.218869
0.269857
0.180234
-0.128978
0.451712
0.0160595
0.0170369
0.330425
-0.0378395
-0.461231
0.444849
-0.792287
0.414554
0.433886
0.431692
-0.775275
-0.399905
0.308431
0.793488
0.764692
0.534552
-0.417162
-0.900208
0.331413
0.980855
-0.186592
0.524231
0.266636
0.00774729
0.899895
0.575459
0.37226
-0.520703
-0.549171
-0.55331
0.600787
-0.0603763
-0.291301
0.957312
-0.153567
-0.0127093
-0.543697
0.1686
-0.0595189
-0.76384
-0.761743
0.709163
-0.54883
0.436249
-0.567525
-0.0610327
0.955184
0.0383528
-0.995694
0.531343
0.18345
0.645954
-0.37742
0.210601
0.746599
-0.686075
-0.216877
0.374841
-0.368014
-0.904906
-0.0836698
0.899753
0.280453
-0.961984
0.336104
-0.131137
0.051837
-0.658268
0.882642
-0.244694
0.137409
0.573614
0.741263
0.351561
-0.814334
0.152877
0.0162016
-0.144297
0.407068
0.819328
0.380809
-0.992305
0.724153
0.248505
0.954574
-0.0854654
-0.213931
0.499171
-0.404106
0.446481
-0.802545
-0.437572
0.0621604
-0.366834
0.964944
0.745757
0.355068
0.610911
-0.39376
0.698037
0.938034
-0.448197
-0.464201
-0.704029
-0.543782
-0.480599
-0.513851
-0.219604
0.334793
0.785105
-0.813899
0.68961
-0.347727
-0.0489604
0.151556
-0.361119
0.0177693
0.500378
0.447131
-0.330149
0.581147
0.309329
-0.524115
0.530568
-0.865968
0.707094
-0.841163
-0.223939
0.859969
0.455305
-0.127998
0.497241
0.203933
-0.921672
0.243228
0.509086
-0.965015
0.843459
0.93794
-0.354769
0.411953
-0.105657
-0.952602
0.317531
-0.618872
-0.506305
-0.386741
0.486006
-0.368746
0.445304
-0.498577
0.0345314
0.111633
-0.518648
-0.546516
-0.363162
-0.240371
0.882392
-0.441514
0.0958695
-0.729356
0.495406
0.306341
-0.199183
-0.291446
-0.724514
0.637573
-0.500115
0.776925
0.579876
-0.708926
0.409587
-0.608695
-0.730882
0.277682
-0.0896444
0.165181
0.932787
0.0629933
-0.611068
0.535586
0.918296
0.532921
0.721146
-0.896871
0.443707
0.812864
0.516703
-0.848312
-0.523991
0.390092
-0.452813
0.745091
-0.462965
0.744989
0.447151
-0.262754
0.352515
0.24704
0.0453816
-0.62789
-0.500733
-1.00911
-0.060763
0.617609
0.567501
-0.43608
0.265635
-0.91477
-0.761987
0.436317
0.35207
-0.509382
0.304923
0.347656
0.510038
0.617347
0.110792
-0.276089
-0.237934
-0.861393
-0.675841
0.77919
-0.0351964
0.830025
0.556158
-0.564362
-0.349554
0.648251
-0.842975
0.68963
-0.734633
-0.647327
-0.0358481
-1.00216
-0.267356
-0.0553445
-0.154997
0.370523
0.361935
0.502236
0.870018
0.111676
0.214691
-0.305948
-0.432762
-0.689035
-0.115576
0.809226
0.770248
-0.874641
-0.881957
-0.471188
0.764255
-0.614201
-0.92481
-0.856438
-0.853084
0.408042
0.326664
-0.33793
0.0849585
-0.462339
0.307064
-0.0056921
-0.176413
0.236098
0.435244
0.62431
0.939705
0.350134
-0.765443
0.236454
-0.34072
0.839703
-0.572408
0.862325
0.512036
-0.499854
0.928591
-0.273513
-0.861013
-0.752778
0.470381
0.231547
0.469326
-0.754874
-0.522033
-0.359571
-0.942944
-0.508307
-0.346447
-0.69768
0.849148
-0.686257
0.91798
-0.460338
0.625693
-0.135244
0.802295
0.707809
0.885244
0.203467
-0.993248
0.353216
0.509696
0.262396
0.945302
-0.16452
0.333322
-0.0922122
0.699278
0.753576
-0.56061
-0.48062
-0.784011
-0.0568141
0.0312943
0.236499
-0.0380765
-0.52978
-0.62139
0.254393
0.285088
0.355391
-0.891644
-0.598319
0.0564494
0.559558
-0.0155208
0.342333
-0.917525
-0.206027
-0.607193
0.0640123
-0.486653
0.47323
-0.980349
-0.416568
-0.204261
0.204978
-0.534045
-0.817709
-0.593328
0.0360258
-0.079645
0.064359
-0.877997
-0.472273
0.629779
-0.336391
-0.359965
0.130885
0.686526
-0.513542
-0.379611
0.814793
0.44217
0.28905
0.222422
-0.792881
-0.32232
-0.567983
-0.652606
-0.536184
-0.114769
0.678979
-0.619962
-0.76254
-0.132092
0.391606
-0.470124
0.452231
0.401037
0.337119
-0.724905
0.889894
-0.474559
0.398382
-0.900051
-0.264286
0.495753
0.0612809
0.926218
-0.918656
0.199366
-0.0327338
0.313244
-0.878931
0.00534913
0.128438
0.697163
0.691391
-0.515766
-0.659304
-1.00492
-0.685149
-0.0395798
-0.101552
0.386675
0.900052
0.483325
-0.25805
0.324389
-0.357832
-0.961935
-0.626768
0.168878
-0.349855
-0.7962
-0.916832
0.320801
0.305249
-0.420752
-0.350364
-0.753098
-0.598667
-0.0391578
-0.159434
-0.671218
-0.433206
-0.500237
-0.940839
0.613177
0.249751
0.582137
0.293559
0.970083
-0.42914
-0.637906
-0.549808
0.775798
0.545514
-0.66284
0.50848
-0.077795
0.0707328
-0.996328
-0.817515
-0.174575
0.667692
0.239591
0.665061
0.263175
-0.60743
-0.00870424
-0.890463
0.618634
0.314638
0.630116
-0.27075
0.848357
0.869407
-0.825748
-0.387641
-0.400471
-0.513623
-0.514689
-0.609061
0.50473
-0.201441
-0.685228
0.152677
-0.147459
0.974439
-0.0565829
-0.274514
0.788163
-0.694399
-0.319157
-0.386298
0.132881
0.832373
-0.317845
0.970264
-0.481881
0.808396
-0.532725
-0.97028
-0.266387
-0.643171
-0.125357
0.878163
0.497626
-0.510408
0.0242755
0.530286
-0.764155
0.0946104
-0.973637
-0.466848
-0.391579
-0.81414
-0.527651
0.835835
-0.713879
-0.589156
-0.880276
-0.41293
-0.213491
-0.86955
0.771292
-0.0949638
-0.346702
0.434609
-0.861785
-0.139788
0.720626
0.210465
0.395442
-0.582041
0.0795316
0.808597
0.0424253
0.67272
-0.0280188
0.111507
0.650563
-0.551849
-0.941334
-0.827037
0.298424
0.685767
0.198603
0.489837
-0.786344
0.11854
-0.76479
0.890978
0.521017
-0.541522
0.227307
-0.0510892
0.741996
0.107792
-0.704965
0.556337
0.566662
0.473265
0.358307
0.875567
-0.641317
0.941125
0.940028
0.34732
0.871242
0.119419
-0.59218
-0.0429482
-0.876912
-0.201347
-0.892783
0.185882
0.917843
0.502428
-0.698721
-0.340583
-0.813462
-0.83986
0.941706
0.353868
0.368593
0.889041
-0.166357
0.271215
0.244068
0.529629
-0.624063
-0.635183
-0.365057
-0.565552
0.353307
0.620202
0.695379
-0.0927934
0.695842
0.247859
0.332145
0.237274
0.0344085
-0.723183
-0.0402154
-0.731555
0.285771
-0.00817983
0.586155
-0.704335
0.628373
0.207358
-0.627113
-0.779437
-0.930947
-0.494684
0.813621
-1.0031
0.507311
0.71654
-0.688799
0.294161
-0.819174
0.0279077
-0.750187
-0.023585
0.602408
0.365526
-0.492613
-0.516766
-0.830407
-0.574939
-0.577868
0.159186
0.729331
-0.106769
0.957411
0.71546
0.962839
0.125776
0.096223
-0.0693277
0.328681
-0.411564
-0.00773781
-0.808748
0.0321415
0.276127
0.233715
0.893313
-0.304917
-0.767844
-0.448446
0.289482
0.707027
-0.781868
0.273072
-0.427086
0.903043
-0.211392
-0.4356
-0.679621
-0.549142
-0.146686
0.315362
0.255374
0.291421
-0.416623
-0.361414
-0.453826
0.800615
0.608013
0.430206
0.0318284
-0.650496
-0.776363
0.599656
0.496445
0.610542
-0.0102172
0.794293
-0.863335
0.207709
-0.0906204
-0.342984
-0.515018
-0.857225
0.313702
0.891945
0.673953
0.0383639
-0.83988
0.94576
0.0416963
-0.713512
0.117537
-0.245081
-0.493508
-0.668855
0.565232
0.625428
-0.574875
0.501162
0.714798
0.169064
-0.313525
-0.601451
0.968441
0.559905
-0.574354
-0.230346
-0.160548
-0.251271
-0.576988
0.472193
0.791941
0.192237
-0.345665
-0.10987
0.360684
0.0190074
-0.459259
-0.0829835
-0.671767
-0.775943
-0.998357
0.0978629
0.212925
-0.963789
0.365795
0.164262
-0.994018
0.0539431
0.566837
0.276222
0.729782
0.205833
0.0882958
-0.873678
0.167473
-0.404148
-0.0676388
-0.910467
-0.124838
0.634521
0.808579
0.404341
-0.161012
-0.910538
-0.300497
-0.896441
0.580438
-0.632058
-0.896709
0.766391
-0.564455
0.489852
-0.0146178
-0.881463
-0.325626
0.826519
0.47553
-0.822904
0.297148
0.0417254
0.453633
0.734817
0.221607
0.0353284
-0.786518
-0.440284
0.915931
-0.445149
0.599037
-0.215537
-0.632651
-0.835615
-0.830918
-0.151969
0.359003
0.0141377
-0.324646
-0.0375904
-0.529929
-0.795562
0.229873
-0.0631206
0.40807
0.779195
-0.39784
0.330531
0.345332
-0.391672
-0.481738
1.00338
0.609172
-0.49601
0.0198333
0.885778
-0.614594
-1.00684
-0.491668
0.707489
-0.992183
-0.120245
-0.544492
0.188623
0.897736
-0.0648142
-0.589732
-0.384067
-0.873503
-0.644242
0.481096
0.478284
0.530977
0.0273135
-0.762172
-0.445106
0.0915287
0.435308
0.222098
-0.144044
-0.280914
-0.987197
-0.314995
0.0996473
0.294627
0.545633
-0.528545
-0.640755
0.537792
-0.56848
0.00670553
0.943243
-0.693714
0.708636
-0.569979
0.731332
0.708153
0.233704
0.276813
-0.389545
0.460133
-0.0325666
0.941848
0.927078
0.934639
-0.165023
-0.233485
0.791505
-0.277272
-0.00441856
0.421812
-0.537465
0.0196961
-0.259907
-0.349047
0.969693
0.644232
0.28666
-0.557983
-0.40797
0.627503
-0.215327
0.773341
-0.823344
-0.271519
-0.86819
-0.251977
-0.566255
0.117045
-0.140884
0.877186
0.325212
0.73745
0.930771
0.383322
-0.496407
0.918856
-0.970275
0.975338
0.832323
0.550774
-0.136474
-0.111284
-0.594431
-0.812616
0.880986
-0.181708
-0.164677
-0.993749
0.223797
0.0679299
-0.792457
0.648932
0.429965
-0.0885959
0.39348
0.020011
0.34951
0.553908
-0.952242
-0.674199
-0.727946
0.915441
0.272606
0.206546
1.05418
0.370515
-0.778528
-0.379145
0.00347216
-0.911419
-0.579091
-0.422166
-0.520238
-0.94034
-0.589654
0.675431
-0.241096
0.308807
-0.471929
0.489141
-0.0842927
-0.666041
-0.486267
0.610071
0.424969
0.0788356
0.113429
0.754896
-0.00268383
0.630717
-0.07688
0.0123668
0.0936465
0.183243
-0.934809
-0.716943
0.76686
-0.624064
-0.0354285
-0.682485
0.423557
-0.911782
-0.585702
0.114646
-0.409946
0.21804
-0.610309
-0.737672
0.514226
0.501605
-0.196336
-0.629826
0.662019
-0.695169
0.933902
0.661215
0.714113
0.129712
0.385268
1.04053
-0.906615
0.00473018
-0.324993
-0.767541
0.721408
-0.72365
0.752986
0.219147
-0.0530854
-0.599731
0.386686
0.35799
0.926434
-0.367529
0.327831
-0.937754
-0.290229
0.138608
-0.346411
-0.901946
0.241817
-0.38036
-0.426922
0.0785916
0.622445
-0.912789
0.378808
0.484446
-0.981529
-0.157624
-0.226581
0.781495
-0.405865
-0.252087
0.279937
-0.525023
0.572733
-0.180664
0.963616
0.225479
0.179875
-0.0646238
-0.37139
-0.268433
-0.0166473
0.608368
0.553001
0.0534604
0.241692
-0.736133
-0.582453
-0.932367
-0.290949
0.389951
-0.547579
-0.0488878
-0.692953
0.618405
0.779064
-0.194911
0.807056
0.716237
-0.408267
-0.788945
0.522783
0.490506
0.702907
0.0142786
0.0710988
-0.556775
-0.332964
-0.572616
-0.52618
-0.153444
-0.711019
0.590327
-0.258116
0.237016
-0.392813
0.361539
0.946725
0.897284
-0.649107
-0.458549
-0.582326
0.81544
1.01278
-0.522167
-0.708134
-0.321705
-0.00900235
0.33525
0.546697
-0.0275246
0.908656
-0.226617
0.330025
0.124584
0.970713
-0.711282
0.512724
0.0468948
0.107866
-0.388924
0.348804
-0.270654
-0.0690687
0.690702
0.163967
-0.753859
0.634889
0.866556
-0.0660178
0.436341
-0.453817
0.318232
-0.653259
-0.332479
-0.282
-0.818996
0.273827
-0.302297
0.504823
0.466979
-0.245814
-0.960389
-0.0482981
-0.804964
0.989893
0.0501683
0.705442
-0.139302
0.776851
-0.904079
-0.820488
-0.197956
-0.568325
0.353663
0.812195
-0.73796
0.740839
0.851484
-0.216533
-0.584659
-0.206777
0.427349
-0.0721673
0.51539
0.282641
0.335619
-0.418501
-0.769691
-1.00672
0.172517
-0.844078
-0.944312
0.587551
0.298199
-0.161848
-0.361786
-0.270131
0.0632973
0.618345
0.845583
-0.639863
0.840609
0.184541
0.192107
-0.935746
-0.150278
0.817963
-0.340567
0.402419
0.649609
0.902153
-0.871286
0.201431
-0.402439
-0.820687
0.082205
-0.8617
-0.823222
0.075644
-0.94177
-0.310416
0.258583
-0.144828
-0.921468
0.723749
-0.336277
-0.0254333
0.379531
-0.0441207
-0.740784
0.848239
-0.695844
-0.425578
0.858148
0.270332
0.327108
0.0622714
-0.239683
-0.0704689
-0.936284
-0.211072
-0.834105
-0.889915
0.757531
-0.0483722
-0.683513
0.620805
0.0380013
0.0570422
0.124544
0.797197
-0.30315
0.764789
0.462702
-0.860086
-0.87506
0.432164
0.478736
-0.735822
0.498508
-0.181835
-0.304165
-0.33014
-0.865905
-0.0815483
-0.260215
0.056349
-0.576044
-1.00657
-0.756313
0.752011
0.790626
-0.614491
0.0412206
-0.530497
0.119376
-0.775041
-0.361489
-0.428564
0.0350485
-0.187762
0.785151
0.317241
-0.818275
0.822336
0.287218
-0.379397
0.659357
-0.799141
-0.336876
0.811057
-0.428112
0.840781
-0.0861527
-0.190091
-0.363712
-0.345428
-0.60896
0.407341
0.801844
-0.894024
0.855494
-0.370338
-0.675819
-0.35629
-0.0950823
-0.36005
0.150622
-0.833761
0.306473
0.385603
0.663358
0.899791
0.196447
0.188674
-0.0249157
-0.887666
0.269191
-0.197733
-0.343753
-0.000951935
-0.381228
0.0108409
0.865054
-0.423127
0.237155
0.787698
0.538649
-0.258674
-0.716889
-0.146341
-0.418812
-0.605921
-0.52532
-0.30374
0.630128
0.674351
-0.408128
0.080186
0.770575
-0.967433
-0.833175
0.350543
-0.204856
0.99788
0.0211903
-0.631689
0.152847
0.375407
0.132013
0.511285
0.764046
0.140598
-0.404582
0.286578
0.389642
0.858396
-0.56049
-0.516169
-0.117925
0.448206
-0.120908
0.0724054
-0.8064
0.854626
0.261414
0.793941
-0.061554
-0.516352
-0.628823
-0.618827
-0.693602
0.711977
-0.370842
-0.659813
-0.524311
0.879963
-0.898209
-0.704978
0.271643
-0.306171
0.807688
0.154863
-0.629172
0.00725463
0.195603
0.178358
0.783334
0.902332
0.917644
-0.0376648
-0.444425
-0.0190741
-0.350773
0.133731
0.319398
0.851856
-0.622583
0.116053
-0.665936
-0.024746
-0.0593508
0.477967
0.934672
0.852133
-0.0239303
0.272296
-0.523635
0.0487761
-0.052323
0.398815
0.144248
-0.566343
0.281738
0.249883
-0.122601
-0.318512
-0.724826
-0.665903
0.221713
0.565714
-0.134095
0.686032
0.647563
0.550476
0.508237
0.236293
0.745218
0.275687
-0.0327475
-0.946018
-0.884787
0.597911
0.382243
-0.702057
0.146523
-0.0297686
0.2788
0.683393
0.279874
0.715545
-0.626638
-0.055074
-0.728066
-0.760295
-0.928669
-0.149337
-0.926968
-0.586987
0.0274933
0.0236818
0.992779
-0.528055
-0.695889
0.98211
-0.286627
0.0659509
0.717221
-0.322714
0.22095
0.771398
0.462974
0.112712
-0.710056
-0.443631
-0.379257
0.370358
-0.919466
-0.588144
-0.988113
-0.0435612
0.754897
0.779397
-0.0201549
0.407042
0.727685
0.961909
-0.311845
0.394489
0.537348
0.790575
-0.775941
0.624285
-0.497328
0.706106
0.256638
0.118549
0.192403
0.29136
0.943475
-0.540649
-0.882884
-0.458234
0.529503
0.549072
-0.0474704
0.373779
-0.99919
0.944693
-0.689046
-0.126388
0.482137
0.492912
0.494465
-0.046379
0.0133097
0.553314
-0.630097
-0.799772
0.707607
0.335169
-0.332084
0.311764
0.349271
-0.743905
0.619561
0.922272
0.442967
0.266403
-0.609901
-0.609868
0.14853
-0.102912
0.301529
-0.615905
-0.302032
-0.0732974
-0.39551
-0.680056
0.127249
0.756135
-0.524808
0.997511
-0.00919308
-0.252747
-0.703998
-0.0274836
0.880296
0.219608
-0.772903
0.781948
-0.3513
0.94302
-0.0919801
0.121683
-0.803725
-0.577565
-0.924042
-0.406734
0.209641
-0.368287
-0.980774
0.386149
-0.785522
-0.740293
-0.748745
0.746201
0.480113
0.243536
-0.410649
-0.561177
-0.552937
-0.888204
0.979688
-0.908145
0.102707
-0.224199
-0.37141
-0.959389
0.187711
-0.530447
0.103981
0.604258
-0.219721
0.037763
-0.271054
-0.717235
-0.0138084
0.168505
0.474717
0.994618
0.276829
-0.156867
0.75124
0.0649988
-0.818083
0.789457
-0.214212
0.00537041
-0.426265
-0.280629
-0.209021
0.0683097
-0.644732
0.615767
-0.919947
0.312955
-0.752909
0.394633
0.656611
-0.136796
0.365271
0.659446
0.171379
0.465631
-0.885205
0.714035
0.339018
0.45988
-0.424286
-0.774704
0.531605
-0.00368807
0.839572
-0.147289
0.668386
-0.35299
-0.472459
0.689208
0.600136
0.30023
0.557976
0.828971
0.0199202
0.920049
0.587125
-0.733999
0.077781
-0.0938985
-0.854385
0.464462
0.84913
0.40142
-0.372725
-0.198442
-0.276694
0.543211
0.861413
0.382476
0.891882
0.522736
-0.928787
-0.930328
-0.56759
0.272744
0.161345
0.336751
-0.0129053
0.685592
0.131903
-0.0628698
-0.836424
0.510506
-0.82766
0.128797
-0.149322
-0.415312
-0.124864
-0.460005
-0.669507
-0.939466
-0.690665
-0.593553
-0.509881
0.70536
0.374792
-0.747267
-0.010147
-0.732356
0.115192
0.0124357
0.631053
0.597418
-0.374186
-0.673828
-0.713023
0.53573
-0.183336
0.717818
-0.199639
-0.335051
0.0890446
0.778992
0.353563
-0.552924
-0.636833
-0.214621
-0.775193
-0.0974932
0.145428
0.905606
0.378605
-0.0139323
0.896947
-0.389314
0.00303411
-0.864139
0.0687528
0.305732
0.390654
0.370083
-0.822206
0.524494
0.267047
0.730387
-0.273559
0.239474
-0.792932
0.396122
-0.389822
-0.258206
-0.0962394
-0.930221
0.81459
0.121398
-0.743613
-0.442193
0.552791
-0.126085
0.861491
-0.717465
0.945336
0.610475
-0.259465
-0.182818
0.929182
-0.7902
-0.786378
-0.91755
0.458801
0.989272
0.0711548
-0.774627
0.290678
0.798361
0.472342
-0.998181
0.742725
-0.982013
0.810063
-0.10644
0.519522
0.6394
0.454442
0.77262
0.156182
-0.891685
0.0739337
0.104919
0.553814
0.288669
0.913419
-0.795609
-0.597454
-0.899021
0.119415
-0.568246
-0.140885
0.964152
0.714383
0.696054
-0.439682
0.713147
-0.186971
-0.556432
-0.665907
-0.771734
0.665779
-0.482924
-0.319483
-0.0134039
-0.578692
0.891071
-0.0643275
-0.31295
0.820559
-0.173383
-0.85659
0.91968
0.951388
-0.169756
-0.412358
-0.0716671
-0.381014
-0.967682
0.907471
0.869036
0.593594
0.254532
-0.950485
-0.471788
-0.447371
-0.692191
-0.317046
0.942808
-0.778155
0.213375
0.644917
0.564089
-0.408355
-0.912438
0.691013
0.310173
0.76397
0.581509
0.0690632
-0.905719
-0.704951
-0.36092
0.480776
0.471527
-0.641592
-0.144916
-0.911747
0.0821916
-0.585159
0.2934
0.0462384
0.0318791
-0.781738
-0.453498
-0.182392
0.68443
0.54567
-0.588108
-0.734584
0.619556
0.650552
0.569216
0.706804
-0.376775
-0.958996
0.166032
-0.533819
0.0165226
0.54684
0.956514
-0.366912
0.320078
-0.71681
0.925965
-0.0534842
-0.497696
0.759055
0.479689
-0.990219
0.357963
0.979723
0.18652
0.509191
0.890519
0.397941
-0.11287
0.0922386
-0.558602
0.893322
-0.808184
0.174665
-0.639443
-0.780893
-0.937547
0.887815
-0.403669
0.679048
-0.547556
0.530778
0.123552
0.135896
-0.965932
-0.624619
-0.695914
-0.572772
0.321969
0.238619
0.502251
-0.369023
-0.352996
0.123739
-0.711064
0.379831
-0.655609
0.682039
-0.0607503
0.00572643
0.864339
0.800147
0.725909
0.604552
0.652093
0.919374
0.446888
0.060536
-0.113917
-0.0179894
-0.171331
0.509723
-0.612874
-0.793976
-0.12019
0.393438
-0.667224
0.345877
0.221609
0.719132
0.831695
0.250934
0.256403
-0.419656
0.480736
-0.568631
0.0625687
-0.14146
-0.753712
-0.926965
-0.504127
-0.190646
0.619157
-0.11703
-0.897882
-0.694502
0.548634
-0.354915
-0.609394
0.861772
0.633116
0.0153327
-0.90987
0.724269
0.937779
-0.885964
0.0314734
-0.62951
0.648233
-0.273286
0.476284
0.514368
0.899507
0.315441
-0.835657
0.5355
0.458316
0.659492
0.247818
-0.167564
-0.368635
0.862042
0.538258
-0.912036
0.962821
0.551735
-0.477149
-0.809314
-0.692038
0.326244
-0.739296
0.810792
0.325248
0.698347
0.837153
-0.317321
0.431208
0.155185
-0.694459
-0.290738
-0.65088
-0.115625
0.615975
-0.900265
-0.464145
0.46706
-0.0939174
0.63056
-0.0259473
0.288212
-0.816561
-0.202781
0.407578
0.951164
-0.952385
0.683875
0.306569
-0.272467
0.885039
0.657601
0.639636
-0.0805995
-0.755854
-0.908656
-0.525027
-0.333023
-0.806894
0.284024
-0.704096
-0.0851176
-0.832954
-0.823622
0.656443
-0.387887
0.578548
-0.450333
-0.947304
-0.731508
-0.494316
-0.510011
-0.60962
0.472587
0.620739
0.575371
0.24821
0.94424
-0.195772
0.148467
0.850383
0.229302
0.357957
0.846829
-0.417365
0.799074
0.463236
0.204451
-0.597116
0.0277692
-0.0557784
0.631325
0.277067
-0.401796
0.95419
0.894795
0.0405349
-0.802822
0.376334
-0.145933
-0.663595
0.774955
-0.909619
-0.308075
-0.395734
0.667872
-0.290262
-0.0263362
-0.762172
-0.546702
-0.662405
-0.520535
0.74285
0.316403
0.903067
-0.175204
-0.778705
0.0321738
-0.456114
0.466502
-0.877228
0.0269725
0.141143
-0.384887
0.646938
0.551557
0.476188
-0.108928
0.166482
-0.468664
-0.661705
0.751636
-0.198392
0.691067
-0.574516
-0.490106
-0.0948858
0.433246
-0.401832
0.849459
0.258491
-0.596978
0.776444
-0.158075
-0.16633
-0.660922
-0.716511
0.74235
0.408289
0.905325
-0.606112
-0.956898
-0.116118
-0.0316707
0.879028
-0.879386
0.420854
-0.81737
-0.278122
0.492506
-0.00175162
-0.139953
-0.279436
0.996353
0.524503
0.907217
-0.0213025
0.466409
-0.273344
-0.871285
-0.126912
0.291514
0.860725
-0.279761
-0.565746
-0.943396
0.221953
-0.0338481
-0.965809
0.188371
-0.294266
0.916152
0.814754
0.902424
-0.0994115
-0.0643128
0.415661
-0.596386
0.258086
0.0378826
0.218291
0.776669
-0.0658897
-0.435638
-0.64984
0.800101
-0.406903
0.689284
-0.298576
0.0690979
-0.936743
-0.898878
-0.697954
-0.409489
0.101205
-0.0298205
0.186887
0.625428
0.0394361
0.930329
-0.137978
-0.526735
-0.213614
-0.140983
0.00438387
-0.643936
-0.840657
0.97679
-0.116437
-0.590768
0.0850906
0.119107
-1.95853e-05
-0.440763
0.282387
0.431168
0.625507
-0.165427
-0.168089
0.698062
-0.839671
0.374066
0.360854
-0.762888
0.271138
-0.278511
-0.200626
0.929999
0.192286
0.31353
-0.981705
0.848598
-0.844237
0.241263
-0.869104
0.26381
0.749009
-0.629885
-0.337739
0.124248
0.568782
0.591967
0.902237
-0.811935
-0.389808
-0.691103
-0.872094
0.160977
0.809204
0.18194
-0.309019
0.61585
-0.4234
0.641625
-0.817118
-0.77794
0.0523886
-0.600639
-0.813327
-0.139166
0.193416
0.492225
0.495144
-0.397825
-0.849805
0.307752
-0.260797
0.23864
0.611664
0.737085
-0.536201
-0.150081
0.780589
-0.754671
0.201085
0.588329
0.209344
-0.130046
-0.876536
0.453238
-0.52895
-0.676829
-0.916495
-0.0677551
-0.634466
0.468678
-0.811403
0.0939463
-0.764936
0.215435
0.46899
0.0177534
-0.0968275
-0.357106
-0.379367
0.10573
0.127779
0.923362
0.368256
0.422077
0.295442
-0.655854
0.708715
-0.669603
0.378094
-0.310028
0.945783
0.334922
-0.52031
-0.371195
0.375958
-0.731291
0.488746
-0.956182
-0.192712
-0.00136617
0.373257
-0.18183
0.349857
-0.0685301
-0.751131
-0.493306
0.293172
0.467046
-0.240358
0.669442
-0.181219
-0.181105
0.721632
-0.415453
0.811469
-0.946282
-0.268937
-0.117856
-0.184854
0.0885311
0.116992
-0.0677216
0.683292
0.394064
0.215373
0.90938
-0.946078
-0.455502
-0.26848
-0.865215
0.258136
-0.794684
0.865238
0.897271
-0.370075
0.0346112
-0.687188
-0.952471
-0.464877
-0.4532
-0.135373
0.905587
0.0427228
-0.366395
0.563579
0.926367
0.701287
-0.0623063
0.642702
0.189103
0.833387
0.632582
0.208864
-0.130233
-0.092243
-0.28679
0.792956
-0.965007
0.165747
0.0606131
0.113941
-0.454464
0.244759
0.906306
0.313747
-0.0923169
0.485549
0.977246
0.538175
-0.218815
0.350839
-0.00549219
-0.972476
0.00639516
0.881366
0.398777
0.641748
-0.278209
0.467683
-0.514845
-0.717528
-0.700905
0.516341
-0.510828
-0.794335
0.215446
0.865031
0.343665
-0.711533
0.232767
-0.438691
0.930323
0.63226
-0.421509
-0.364282
0.744805
-0.4172
-0.959431
0.106431
-0.662176
-0.79494
0.8847
-0.8582
-0.624114
0.859715
-0.0282274
0.874092
-0.207114
0.844098
-0.727216
0.473474
0.289101
-0.336743
0.817845
-0.821605
-0.437127
0.180456
0.0161128
0.980111
-0.248185
-0.452855
-0.82027
-0.297232
-0.305163
-0.0955859
-0.0966564
-0.0623515
-0.407632
-0.798592
0.191666
-0.245206
0.20265
-0.6683
-0.182971
-0.321679
-0.270444
-0.475156
-0.358373
0.932523
-0.299687
-0.371205
-0.739378
-0.756907
0.984839
0.584557
0.764717
-0.958974
0.724563
0.210774
0.191639
-0.57977
0.911975
-0.211518
0.0419548
-0.474182
0.485565
0.123132
-0.993216
-0.891246
-0.880695
-0.0895341
0.412746
0.803965
0.0467674
-0.324996
-0.213247
-0.931602
-0.913216
-0.698474
0.15604
-0.164775
0.475516
0.342634
0.515274
0.47285
0.294005
0.628231
0.0826602
0.167008
-0.919702
-0.281514
0.845197
-0.141633
-0.201586
0.689417
-0.220181
-0.263656
0.175446
-0.421877
-0.330943
0.78292
-0.11236
0.434589
0.832296
-0.448908
-0.445446
0.170148
0.517237
-0.656437
-0.717284
-0.0538068
-0.129965
-0.346138
0.780599
0.345304
-0.0667604
0.526157
-0.0494503
0.704418
-0.989588
-0.181666
0.4864
-0.0422042
-0.894206
-0.0639973
-0.928954
0.535136
0.366774
0.638752
-0.903421
-0.0389947
0.415773
-0.101239
-0.380374
-0.480131
-0.578587
-0.668254
-0.65209
-0.426219
-0.31761
-0.683575
0.86211
0.539287
0.283279
0.397231
0.856419
0.338712
0.906204
0.953577
-0.0139329
0.648256
-0.175766
-0.219547
-0.873441
-0.633463
-0.121369
0.427468
-0.0439099
-0.14334
-0.600807
-0.93526
0.0335206
0.392243
0.34855
0.197892
0.34671
-0.570665
-0.504638
0.59944
-0.114421
-0.123544
0.29535
0.858833
-0.00341916
0.792012
-0.342577
0.359089
-0.315261
0.526687
-0.482589
-0.494712
-0.188181
-0.946176
-0.727559
-0.643143
1.00209
0.669843
-0.427267
0.855762
0.568727
0.652739
0.530928
-0.679952
-0.768631
0.672721
0.504303
0.419239
0.812216
-0.492404
-0.0836556
-0.747483
0.297995
-0.0420076
-0.15439
0.69539
-0.111199
-0.373286
0.176961
-0.802605
0.308819
0.404733
-0.0200074
-0.33119
-0.549838
-0.207462
0.524905
-0.167595
0.823116
0.00085683
-0.700919
0.843954
0.0418421
0.0434508
-0.706721
-0.939999
0.194327
0.255676
0.789663
-0.347834
-0.594757
-0.0370233
0.825269
0.146766
0.421581
-0.246139
-0.0404908
0.969797
0.691693
0.902205
0.259834
-0.80276
-0.122309
0.0821478
0.037629
-0.47051
0.116837
0.463216
0.702607
-0.373103
0.222141
-0.689516
0.838233
-0.482612
-0.976478
-0.834424
-0.820288
0.327776
0.206294
-0.592467
0.457065
-0.552735
0.331503
0.775134
-0.967549
0.874613
0.32744
-0.511041
-0.960403
0.582743
0.371614
0.384007
0.928478
0.658401
-0.721208
0.894284
0.0298189
-0.238533
0.121266
-0.491399
0.376274
0.166545
0.968291
0.0121106
0.866142
0.685233
0.282387
0.513987
0.426541
-0.363261
0.6906
0.741027
0.367142
-0.583131
-0.892938
-0.251698
0.487062
-0.9831
-0.145087
0.17434
0.737436
-0.721184
0.0284145
0.0708425
0.0764458
-0.770544
-0.898938
-0.29003
0.963389
0.784609
-0.077859
0.943878
-0.767191
0.821774
-0.31352
0.872174
0.398188
-0.577061
0.937483
0.939667
-0.711567
-0.858622
0.148916
0.119728
-0.666665
-0.674423
0.906108
0.902463
0.284651
-0.695779
0.292836
0.0228431
-0.673971
-0.041924
1.00059
0.621564
-0.344776
-0.940904
0.517749
-0.805527
0.97689
0.113827
-0.347527
-0.0350178
0.908104
-0.438507
-0.579794
0.878308
0.745042
-0.968335
0.695266
0.00759266
-0.186877
0.363393
-0.948682
-0.175267
-0.604456
0.102769
-0.301195
-0.527869
0.0870437
0.685476
-0.399609
-0.898935
0.0363163
-0.597088
-0.759197
-0.372662
-0.327245
-0.842221
-0.458226
0.149091
-0.669358
-0.0538898
0.429685
-0.211944
0.499527
0.189389
0.227856
0.892061
-0.0296194
0.1303
0.578465
0.253326
-0.0630112
0.152084
0.204936
-0.777011
-0.405668
-0.649652
0.284751
0.385156
0.225913
0.053819
-0.731745
0.800229
0.663343
0.441496
-0.310808
-0.52531
-0.904147
-0.150976
-0.114412
-0.921873
-0.589928
0.339918
-0.148298
-0.717118
-0.697638
0.0300536
-0.477199
-0.603141
0.840277
0.309972
-0.750169
-0.946289
-0.727096
0.342695
0.762667
-0.591998
-0.376466
0.524714
0.151238
0.771371
0.951234
0.77992
-0.605441
-0.0673309
-0.433398
-0.0664349
0.276576
0.865755
0.323358
0.942486
-0.281911
0.51709
-0.638902
-0.337173
-0.610712
-0.10213
-0.953309
0.479121
0.601809
-0.848285
-0.194035
-0.901433
-0.112586
-0.674985
0.210303
-0.645521
0.33788
-0.363506
0.770962
0.541455
-0.348637
0.815434
0.509556
0.278005
0.474981
0.556188
0.901327
-0.0231012
-0.569966
0.173235
-0.20935
-0.667196
0.386101
-0.894926
0.512547
-0.886431
0.864159
0.561787
0.371086
0.468809
0.328645
-0.988082
-0.293464
-0.37104
0.102766
0.721009
0.986053
-0.797416
-0.281776
0.714822
-0.89155
-0.352781
-0.152873
-0.739061
-0.962465
0.0152646
-0.923453
-0.139835
-0.91176
-0.128468
-0.289734
0.154637
-0.839728
0.473859
-0.43109
0.700713
-0.153958
0.924114
0.763437
-0.370345
0.846107
-0.85547
-0.219264
-0.684987
-0.406546
0.258441
0.452949
-0.846519
0.816321
0.884211
0.0165016
0.515749
0.263145
-0.110784
-0.774631
-0.897551
0.13061
-0.79629
-0.725543
-0.232143
-0.578166
-0.373435
0.226505
0.344711
0.0296252
0.679589
0.632141
0.6251
-0.466152
-0.825825
-0.7572
0.210675
-0.622713
0.538888
-0.494475
-0.638177
0.435808
0.62817
0.0103121
0.520187
0.976228
-0.558352
0.139174
0.905572
0.599852
-0.636667
-0.0311618
0.963208
-0.607055
0.4625
-0.262724
0.785301
-0.0636109
-0.209666
-0.331793
0.0751404
0.877951
0.205561
0.467746
-0.549679
-0.649369
0.678032
-0.0755885
0.732461
0.327098
0.748731
-0.846519
0.750279
0.609238
0.788721
-0.5433
-0.353427
-0.597244
-0.284809
-0.432521
-0.927436
0.15067
-0.245016
0.183243
0.876039
-0.677211
0.935798
0.481214
-0.690205
-0.38685
-0.956328
0.992442
-0.33731
0.0235584
0.932828
-0.80019
-0.573903
0.91085
-0.785416
0.862031
-0.577252
0.821934
-0.642272
0.565941
-0.183991
-0.493395
0.887133
-0.0781911
-0.966599
0.680925
-0.859238
0.74478
0.147429
-0.804579
0.43136
0.984822
0.927676
0.928134
0.232644
0.0389323
-0.705643
-0.326307
0.107125
0.6703
-0.383425
-0.77665
0.273334
0.327226
-0.480028
-0.895596
-0.360222
0.569707
-0.888706
-0.699806
0.887626
-0.359894
-0.540011
-0.0642822
0.618258
0.831063
-0.293323
0.110274
-0.790027
-0.618572
0.377876
0.89024
-0.513999
-0.758148
0.238888
-0.335483
-0.127541
-0.961417
-0.251108
-0.274038
0.309954
-0.513918
0.574671
0.185485
-0.122591
-0.380049
-0.75606
0.401447
0.2497
-0.577745
-0.925349
-0.422949
0.276509
0.299144
0.211917
0.916224
-0.439071
0.342225
-0.560371
-0.664197
-0.197808
-0.701384
0.214454
-0.155324
-0.404904
-0.380291
-0.247226
0.351861
0.227111
0.0577315
0.985425
0.346432
0.938399
0.965205
0.578571
-0.499712
-0.61903
0.471076
-0.26946
-0.846559
-0.542875
-0.929332
0.361067
0.850439
-0.0651204
0.261767
-0.489882
-0.334112
0.187777
-0.0930795
-0.0877689
-0.271784
-0.475406
-0.457365
0.761418
0.96333
0.908309
0.947084
-0.428273
-0.484761
-0.924284
0.988934
0.411043
-0.36676
0.988391
0.528544
-0.213351
0.884256
-0.875019
0.496514
0.599772
0.256549
0.180715
-0.111651
-0.491444
-0.229943
0.0304886
0.353299
-0.488939
0.661576
0.971226
-0.684347
0.0631971
0.463947
0.286208
-0.463711
-0.662667
0.390699
0.195515
-0.664742
0.767554
-0.685848
-0.85679
-0.157228
-0.904856
0.617381
0.578132
0.0947294
0.566011
0.749061
-0.0792022
-0.207049
-0.677349
0.889126
0.389772
-0.728198
0.839025
-0.617239
0.657373
0.259746
0.116291
-0.704287
0.0696683
-0.241837
0.627808
0.259991
0.687185
0.77397
-0.125609
-0.585921
-0.351623
-0.811102
-0.513869
0.486811
-0.157251
0.159958
0.429583
0.12454
-0.0366579
0.00463989
0.702282
0.441838
0.451949
-0.644159
-0.565184
0.550901
-0.515752
-0.29126
0.465965
0.531426
-0.307509
-0.0367738
0.0248413
-0.303012
0.534459
0.719175
-0.768863
0.20355
0.036525
0.596125
-0.694393
-0.504464
0.591412
0.435973
-0.66861
-0.178808
-0.155449
0.481647
0.273435
-0.182682
-0.981182
0.342141
0.785483
-0.170487
-0.538745
0.470778
-0.528654
0.447249
-0.735839
-0.253027
-0.260043
0.489927
-0.00472025
0.746216
-0.348218
0.235891
0.670288
0.609002
-0.235229
-0.507751
0.292786
-0.118471
0.0893151
0.441232
0.148293
0.713487
0.390577
0.857643
-0.5564
0.925464
0.0322124
0.83687
-0.327962
0.313749
0.121656
0.916934
0.475761
0.413442
-0.254104
-0.0709893
-0.440368
0.487325
0.309998
-0.160897
0.408591
0.515481
0.427131
-0.140352
0.041018
-0.144828
0.485017
0.7312
0.0508252
-0.593376
-0.13283
-0.864986
-0.132902
-0.985891
0.485272
-0.550806
0.0956302
-0.0300452
0.125817
-0.607723
-0.212391
-0.861079
0.715058
0.857777
-0.0839763
0.359403
-0.535579
0.189656
0.307151
-0.190845
0.871885
0.0890868
0.578954
-0.0908226
-0.69034
-0.681581
0.31942
-0.814634
-0.358497
0.149751
-0.776952
0.0633625
0.321726
0.826951
-0.91513
0.644687
0.583466
0.20725
-0.573329
0.701799
-0.154927
-0.549172
-0.628903
0.863232
-0.90396
-0.63462
-0.592653
-0.744258
-0.326075
0.253391
0.177735
-0.683464
-0.162902
-0.366481
-0.823299
0.468442
-0.95447
-0.197885
0.797011
-0.617546
-0.792957
0.69405
-0.361555
0.482392
-0.940594
-0.425645
0.787362
-0.692374
0.0655056
-0.875854
-0.721541
0.861417
-0.955253
0.110256
-0.186513
-0.076128
0.184683
0.75082
0.580232
-0.913888
-0.783431
-0.858986
0.565456
-0.526546
0.50901
0.201068
0.874067
0.502126
0.288966
0.533724
-0.975611
0.112669
-0.423758
-0.569912
-0.379006
0.556087
0.620211
0.470208
0.0578327
0.576646
-0.298024
0.719378
-0.780325
0.0517457
-0.117537
0.930362
0.650017
0.438537
0.539381
0.417283
0.660911
0.941252
0.524691
0.605625
0.0336223
0.671351
0.0165859
0.0165191
0.880895
-0.121232
0.437445
0.784143
-0.568554
-0.432035
0.233615
-0.525536
0.742768
-0.412691
0.232674
0.458063
-0.477645
0.727611
-0.576536
-0.422864
-0.753012
-0.278126
-0.250002
-0.489941
-0.929356
0.0815653
-0.653331
-0.657886
-0.122004
0.49095
-0.0721707
0.572017
0.392577
-0.967538
0.942713
0.858727
-0.12234
-0.657137
-0.81952
0.141022
0.412302
0.370431
0.222271
0.148116
0.119177
0.946383
0.837859
-0.0291199
0.783296
0.561601
-0.37543
0.809147
0.813711
-0.0619535
-0.70929
0.270528
0.94497
-0.453153
0.318756
0.151175
0.594351
0.285949
0.253138
-0.383387
-0.940765
0.455897
-0.0179657
-0.924311
-0.194531
0.43419
-0.979756
-0.999255
0.773197
0.410517
-0.0343084
-0.191941
-0.961436
-0.410698
0.314908
-0.590136
-0.638099
-0.711482
0.651117
-0.328486
0.275349
-0.868826
0.0339765
0.694041
-0.225782
0.185683
0.54242
0.507986
-0.941195
0.12245
0.939693
0.583413
0.66319
-0.622095
0.937479
-0.983898
0.00919959
0.272103
0.744776
-0.0807841
0.293168
0.297895
-0.41932
0.675906
0.314091
0.604968
0.282351
0.666358
0.927815
0.107818
0.246818
0.152708
-0.18332
0.665089
-0.516413
0.410273
0.44
0.573011
0.901128
0.157325
-0.674812
-0.992957
-0.36528
-0.543578
0.38837
0.307214
-0.159356
0.0131218
0.513137
-0.775065
-0.519146
-0.0116744
0.0651139
-0.860389
-0.993907
-0.61961
-0.720333
-0.425644
-0.844798
-0.175452
0.987253
0.439156
-0.635872
-0.712326
0.236219
-0.544265
-0.880789
0.850398
-0.778684
-0.721098
-0.841422
0.043508
-0.00381632
0.0322714
-0.141864
0.495125
-0.25003
-0.354116
0.432099
0.454746
0.459452
0.522636
-0.953368
-0.814682
0.975623
0.915239
-0.825355
0.939805
-0.640369
-0.204786
0.212008
-0.412341
-0.481144
-0.133553
-0.721102
-0.68642
0.17705
0.763579
-0.675169
-0.624523
-0.89429
0.170024
0.0236461
0.402432
-0.547858
-0.0482424
-0.046078
0.376147
-0.400703
0.0995401
-0.224049
-0.444447
0.643883
0.33851
0.561096
-0.220466
-0.221137
-0.52199
-0.698646
-0.357657
0.415811
-0.126617
-0.290075
-0.306686
0.843498
0.172573
-0.481075
-0.728131
0.0201624
0.841619
0.261829
0.824822
0.608276
-0.0266997
0.917262
-0.416588
0.420173
0.834629
0.762046
-0.373604
-0.541426
-0.00122136
-0.900156
-0.357823
-0.54524
0.259247
0.506015
0.550423
-0.349518
0.787829
-0.119583
-0.843769
0.162537
0.114592
-0.412123
-0.114633
0.589304
0.957094
0.983432
-0.272805
-0.268153
-0.517429
0.513746
0.44346
-0.22854
0.489218
-0.408671
-0.316959
-0.260035
0.989661
0.612773
0.483525
-0.565264
0.971243
0.466323
0.802937
-0.253034
-0.442955
-0.171652
-0.0418124
0.887375
0.598364
-0.0874539
0.468233
0.988173
-0.960645
0.641266
-0.549054
0.727287
-0.775319
-0.15093
0.0402673
0.697794
0.388483
-0.430378
0.738558
0.730337
-0.96786
0.0903452
-0.256159
0.408769
-0.993108
0.510611
-0.238981
0.795924
-0.0500937
0.73206
-0.783007
0.309105
0.353636
-0.513514
-0.0828363
-0.253074
-0.507518
-0.516967
0.40384
0.376201
0.175952
-0.0801329
-0.943587
-0.5753
-0.00952804
0.252196
0.185799
